<?xml version="1.0" encoding="ISO-8859-1"?>
<!-- This network was created in GeNIe Academic, which can be used for educational and research purposes only -->
<smile version="1.0" id="df7_del" numsamples="10000" discsamples="10000">
	<nodes>
		<cpt id="Force_Onsets">
			<state id="s1_below_17" />
			<state id="s2_17_up" />
			<probabilities>0.9995736213757817 0.0004263786242183058</probabilities>
		</cpt>
		<cpt id="Gender">
			<state id="State0" />
			<state id="State1" />
			<parents>Force_Onsets</parents>
			<probabilities>0.9825135058288313 0.01748649417116861 0.75 0.25</probabilities>
		</cpt>
		<cpt id="Aged_15_24_Unemployment_Rate_Percent">
			<state id="s1_below_25" />
			<state id="s2_25_up" />
			<probabilities>0.9961625923820352 0.003837407617964752</probabilities>
		</cpt>
		<cpt id="Borders">
			<state id="s1_below_25" />
			<state id="s2_25_up" />
			<parents>Aged_15_24_Unemployment_Rate_Percent</parents>
			<probabilities>0.9995720399429386 0.0004279600570613409 0.9642857142857142 0.03571428571428571</probabilities>
		</cpt>
		<cpt id="Age">
			<state id="s1_below_66" />
			<state id="s2_66_up" />
			<probabilities>0.7997441728254689 0.200255827174531</probabilities>
		</cpt>
		<cpt id="Flethfrac">
			<state id="s1_below_0" />
			<state id="s2_0_up" />
			<parents>Age</parents>
			<probabilities>0.6615138592750532 0.3384861407249467 0.7113475177304965 0.2886524822695036</probabilities>
		</cpt>
		<cpt id="Chg_Religioningovernment">
			<state id="s1_below_0" />
			<state id="s2_0_up" />
			<parents>Aged_15_24_Unemployment_Rate_Percent</parents>
			<probabilities>0.901997146932953 0.09800285306704708 0.8214285714285714 0.1785714285714285</probabilities>
		</cpt>
		<cpt id="Tenure">
			<state id="s1_below_35" />
			<state id="s2_35_up" />
			<probabilities>0.9381750994883455 0.06182490051165435</probabilities>
		</cpt>
		<cpt id="Irregulartransition">
			<state id="s1_below_0" />
			<state id="s2_0_up" />
			<parents>Chg_Religioningovernment Tenure</parents>
			<probabilities>0.7417817225509533 0.2582182774490467 0.9962121212121212 0.003787878787878788 0.1134615384615385 0.8865384615384616 0.005747126436781609 0.9942528735632183</probabilities>
		</cpt>
		<cpt id="Revolutionaryleader">
			<state id="s1_below_0" />
			<state id="s2_0_up" />
			<parents>Borders Irregulartransition</parents>
			<probabilities>0.9997931319817955 0.0002068680182043856 0.4718437783832879 0.5281562216167121 0.5 0.5 0.25 0.75</probabilities>
		</cpt>
		<cpt id="Median_Age_Years">
			<state id="s1_below_24" />
			<state id="s2_24_up" />
			<parents>Aged_15_24_Unemployment_Rate_Percent Revolutionaryleader</parents>
			<probabilities>0.9372649572649573 0.06273504273504274 0.9802065404475043 0.0197934595524957 0.7083333333333333 0.2916666666666666 0.8333333333333333 0.1666666666666667</probabilities>
		</cpt>
		<cpt id="Leg_Scandivanian">
			<state id="s1_below_0" />
			<state id="s2_0_up" />
			<parents>Borders Flethfrac Median_Age_Years Tenure</parents>
			<probabilities>0.9512617516081149 0.04873824839188521 0.9972222222222222 0.002777777777777778 0.8575949367088608 0.1424050632911392 0.9166666666666666 0.08333333333333333 0.9995408631772268 0.0004591368227731864 0.9848484848484849 0.01515151515151515 0.9857142857142857 0.01428571428571429 0.75 0.25 0.75 0.25 0.5 0.5 0.5 0.5 0.5 0.5 0.5 0.5 0.5 0.5 0.5 0.5 0.5 0.5</probabilities>
		</cpt>
		<cpt id="Aged_15_24_Employment_Rate_Percent">
			<state id="s1_below_46" />
			<state id="s2_46_up" />
			<parents>Gender Leg_Scandivanian</parents>
			<probabilities>0.9115189495672934 0.08848105043270665 0.911214953271028 0.08878504672897196 0.96875 0.03125 0.7 0.3</probabilities>
		</cpt>
		<cpt id="Crude_Birth_Rate_Births_Per_1000_Population">
			<state id="s1_below_24" />
			<state id="s2_24_up" />
			<parents>Flethfrac Leg_Scandivanian</parents>
			<probabilities>0.3863129736959429 0.613687026304057 0.9628099173553719 0.0371900826446281 0.1448961937716263 0.8551038062283737 0.5 0.5</probabilities>
		</cpt>
		<cpt id="Usedforce">
			<state id="s1_below_0" />
			<state id="s2_0_up" />
			<parents>Flethfrac Force_Onsets Irregulartransition Median_Age_Years</parents>
			<probabilities>0.9996671105193077 0.0003328894806924101 0.9965753424657534 0.003424657534246575 0.03928571428571428 0.9607142857142857 0.1944444444444444 0.8055555555555555 0.5 0.5 0.5 0.5 0.5 0.5 0.5 0.5 0.9993224932249323 0.0006775067750677507 0.9852941176470588 0.01470588235294118 0.04569190600522193 0.9543080939947781 0.5 0.5 0.5 0.5 0.5 0.5 0.25 0.75 0.5 0.5</probabilities>
		</cpt>
		<cpt id="Aged_15Plus_Employment_Rate_Percent">
			<state id="s1_below_32" />
			<state id="s2_32_up" />
			<parents>Aged_15_24_Employment_Rate_Percent Crude_Birth_Rate_Births_Per_1000_Population Median_Age_Years Usedforce</parents>
			<probabilities>0.0006443298969072165 0.9993556701030928 0.004716981132075472 0.9952830188679245 0.003184713375796179 0.9968152866242038 0.04166666666666666 0.9583333333333333 0.0003765060240963856 0.9996234939759037 0.001835985312117503 0.9981640146878824 0.03571428571428571 0.9642857142857142 0.1 0.9 0.005617977528089887 0.9943820224719101 0.25 0.75 0.03571428571428571 0.9642857142857142 0.5 0.5 0.005376344086021506 0.9946236559139786 0.004273504273504274 0.9957264957264959 0.5 0.5 0.5 0.5</probabilities>
		</cpt>
		<cpt id="Force_Sideaonsets">
			<state id="s1_below_16" />
			<state id="s2_16_up" />
			<parents>Aged_15_24_Unemployment_Rate_Percent Force_Onsets Revolutionaryleader Tenure</parents>
			<probabilities>0.9998210450966356 0.0001789549033643522 0.9962121212121212 0.003787878787878788 0.9989878542510121 0.001012145748987854 0.9942528735632183 0.005747126436781609 0.5 0.5 0.5 0.5 0.25 0.75 0.5 0.5 0.9583333333333333 0.04166666666666666 0.5 0.5 0.8333333333333333 0.1666666666666667 0.5 0.5 0.5 0.5 0.5 0.5 0.5 0.5 0.5 0.5</probabilities>
		</cpt>
		<cpt id="Life_Expectancy_Years">
			<state id="s1_below_18" />
			<state id="s2_18_up" />
			<probabilities>0.0007106310403638431 0.999289368959636</probabilities>
		</cpt>
		<cpt id="Peaceyears">
			<state id="s1_below_11" />
			<state id="s2_11_up" />
			<parents>Borders Tenure</parents>
			<probabilities>0.8892424242424243 0.1107575757575758 0.9013761467889909 0.09862385321100918 0.75 0.25 0.5 0.5</probabilities>
		</cpt>
		<cpt id="Chg_Revolutionarycommittee">
			<state id="s1_below_0" />
			<state id="s2_0_up" />
			<parents>Force_Sideaonsets Life_Expectancy_Years Peaceyears Revolutionaryleader Tenure</parents>
			<probabilities>0.8333333333333333 0.1666666666666667 0.5 0.5 0.5 0.5 0.5 0.5 0.5 0.5 0.5 0.5 0.5 0.5 0.5 0.5 0.9910322837783978 0.008967716221602232 0.9957627118644068 0.00423728813559322 0.3094117647058823 0.6905882352941176 0.00625 0.99375 0.9813559322033898 0.01864406779661017 0.9666666666666667 0.03333333333333333 0.5208333333333333 0.4791666666666666 0.0625 0.9375 0.5 0.5 0.5 0.5 0.5 0.5 0.5 0.5 0.5 0.5 0.5 0.5 0.5 0.5 0.5 0.5 0.5 0.5 0.5 0.5 0.25 0.75 0.5 0.5 0.5 0.5 0.5 0.5 0.5 0.5 0.5 0.5</probabilities>
		</cpt>
		<cpt id="Gdp_Per_Capita_Yearly_Growth">
			<state id="s1_below_63" />
			<state id="s2_63_up" />
			<probabilities>0.9990051165434906 0.0009948834565093802</probabilities>
		</cpt>
		<cpt id="Armed_Forces_Personnel_Percent_Of_Labor_Force">
			<state id="s1_below_25" />
			<state id="s2_25_up" />
			<parents>Chg_Revolutionarycommittee Crude_Birth_Rate_Births_Per_1000_Population Gdp_Per_Capita_Yearly_Growth Leg_Scandivanian Median_Age_Years</parents>
			<probabilities>0.999404761904762 0.0005952380952380953 0.9967532467532468 0.003246753246753247 0.9947368421052631 0.005263157894736842 0.9782608695652174 0.02173913043478261 0.75 0.25 0.5 0.5 0.5 0.5 0.5 0.5 0.999743062692703 0.0002569373072970195 0.9705882352941176 0.02941176470588235 0.9 0.1 0.5 0.5 0.8333333333333333 0.1666666666666667 0.5 0.5 0.5 0.5 0.5 0.5 0.986111111111111 0.01388888888888889 0.9166666666666666 0.08333333333333333 0.5 0.5 0.5 0.5 0.5 0.5 0.5 0.5 0.5 0.5 0.5 0.5 0.9962593516209476 0.003740648379052369 0.75 0.25 0.5 0.5 0.5 0.5 0.5 0.5 0.5 0.5 0.5 0.5 0.5 0.5</probabilities>
		</cpt>
		<cpt id="Prevtimesinoffice">
			<state id="s1_below_1" />
			<state id="s2_1_up" />
			<parents>Chg_Revolutionarycommittee Flethfrac Gdp_Per_Capita_Yearly_Growth Leg_Scandivanian Median_Age_Years</parents>
			<probabilities>0.9781906300484653 0.02180936995153474 0.9592592592592593 0.04074074074074074 0.893939393939394 0.1060606060606061 0.8913043478260869 0.108695652173913 0.75 0.25 0.5 0.5 0.5 0.5 0.5 0.5 0.948869752421959 0.0511302475780409 0.9305555555555555 0.06944444444444445 0.5 0.5 0.5 0.5 0.8333333333333333 0.1666666666666667 0.5 0.5 0.5 0.5 0.5 0.5 0.9979674796747968 0.002032520325203252 0.9285714285714285 0.07142857142857142 0.5 0.5 0.5 0.5 0.5 0.5 0.5 0.5 0.5 0.5 0.5 0.5 0.9973821989528796 0.002617801047120419 0.5 0.5 0.5 0.5 0.5 0.5 0.5 0.5 0.5 0.5 0.5 0.5 0.5 0.5</probabilities>
		</cpt>
		<cpt id="Arms_Imports_Us_Inflation_Adjusted">
			<state id="s1_below_n2147483648" />
			<state id="s2_n2147483648_up" />
			<parents>Chg_Religioningovernment Chg_Revolutionarycommittee Flethfrac Force_Sideaonsets Irregulartransition Median_Age_Years Prevtimesinoffice</parents>
			<probabilities>0.9996558843771507 0.0003441156228492773 0.9893617021276595 0.01063829787234043 0.9964028776978417 0.003597122302158274 0.9375 0.0625 0.9987113402061856 0.001288659793814433 0.9 0.1 0.9375 0.0625 0.5 0.5 0.5 0.5 0.5 0.5 0.5 0.5 0.5 0.5 0.5 0.5 0.5 0.5 0.5 0.5 0.5 0.5 0.9933431952662721 0.006656804733727811 0.984375 0.015625 0.984375 0.015625 0.8333333333333333 0.1666666666666667 0.9966216216216217 0.003378378378378379 0.9705882352941176 0.02941176470588235 0.5 0.5 0.5 0.5 0.5 0.5 0.5 0.5 0.5 0.5 0.5 0.5 0.5 0.5 0.5 0.5 0.5 0.5 0.5 0.5 0.5 0.5 0.5 0.5 0.5 0.5 0.5 0.5 0.9798387096774194 0.02016129032258064 0.5 0.5 0.75 0.25 0.5 0.5 0.5 0.5 0.5 0.5 0.5 0.5 0.5 0.5 0.5 0.5 0.5 0.5 0.5 0.5 0.5 0.5 0.9166666666666666 0.08333333333333333 0.5 0.5 0.5 0.5 0.5 0.5 0.995049504950495 0.004950495049504951 0.5 0.5 0.5 0.5 0.5 0.5 0.5 0.5 0.5 0.5 0.5 0.5 0.5 0.5 0.5 0.5 0.5 0.5 0.5 0.5 0.5 0.5 0.875 0.125 0.5 0.5 0.5 0.5 0.5 0.5 0.9921875 0.0078125 0.5 0.5 0.9 0.1 0.5 0.5 0.5 0.5 0.5 0.5 0.5 0.5 0.5 0.5 0.5 0.5 0.5 0.5 0.5 0.5 0.5 0.5 0.8333333333333333 0.1666666666666667 0.5 0.5 0.5 0.5 0.5 0.5 0.986111111111111 0.01388888888888889 0.5 0.5 0.8333333333333333 0.1666666666666667 0.5 0.5 0.5 0.5 0.5 0.5 0.5 0.5 0.5 0.5 0.5 0.5 0.5 0.5 0.5 0.5 0.5 0.5 0.5 0.5 0.5 0.5 0.5 0.5 0.5 0.5 0.9959349593495936 0.004065040650406504 0.5 0.5 0.9166666666666666 0.08333333333333333 0.5 0.5 0.5 0.5 0.5 0.5 0.5 0.5 0.5 0.5 0.5 0.5 0.5 0.5 0.5 0.5 0.5 0.5 0.5 0.5 0.5 0.5 0.5 0.5 0.5 0.5 0.9941176470588236 0.005882352941176471 0.5 0.5 0.5 0.5 0.5 0.5 0.5 0.5 0.5 0.5 0.5 0.5 0.5 0.5 0.75 0.25 0.5 0.5 0.5 0.5 0.5 0.5</probabilities>
		</cpt>
		<cpt id="Majorpower">
			<state id="s1_below_0" />
			<state id="s2_0_up" />
			<parents>Chg_Religioningovernment Force_Onsets Median_Age_Years</parents>
			<probabilities>0.9673585537328424 0.03264144626715768 0.9010695187165775 0.09893048128342245 0.5 0.5 0.5 0.5 0.8937125748502994 0.1062874251497006 0.875 0.125 0.75 0.25 0.5 0.5</probabilities>
		</cpt>
		<cpt id="Foundingleader">
			<state id="s1_below_0" />
			<state id="s2_0_up" />
			<parents>Aged_15_24_Unemployment_Rate_Percent Force_Sideaonsets Gender Leg_Scandivanian Majorpower</parents>
			<probabilities>0.8935402947632486 0.1064597052367513 0.9967105263157894 0.003289473684210526 0.9951923076923077 0.004807692307692308 0.5 0.5 0.9895833333333333 0.01041666666666667 0.5 0.5 0.9666666666666667 0.03333333333333333 0.5 0.5 0.75 0.25 0.5 0.5 0.5 0.5 0.5 0.5 0.5 0.5 0.5 0.5 0.5 0.5 0.5 0.5 0.9545454545454546 0.04545454545454546 0.5 0.5 0.875 0.125 0.5 0.5 0.5 0.5 0.5 0.5 0.5 0.5 0.5 0.5 0.5 0.5 0.5 0.5 0.5 0.5 0.5 0.5 0.5 0.5 0.5 0.5 0.5 0.5 0.5 0.5</probabilities>
		</cpt>
		<cpt id="Aged_15_64_Labour_Force_Participation_Rate_Percent">
			<state id="s1_below_53" />
			<state id="s2_53_up" />
			<parents>Chg_Religioningovernment Flethfrac Foundingleader Revolutionaryleader Tenure</parents>
			<probabilities>0.07079400333148252 0.9292059966685176 0.3679245283018868 0.6320754716981132 0.180379746835443 0.819620253164557 0.5 0.5 0.004504504504504504 0.9954954954954955 0.01063829787234043 0.9893617021276595 0.5 0.5 0.5 0.5 0.04178885630498533 0.9582111436950147 0.01470588235294118 0.9852941176470588 0.004385964912280702 0.9956140350877193 0.5 0.5 0.002762430939226519 0.9972375690607734 0.5 0.5 0.5 0.5 0.5 0.5 0.1 0.9 0.5 0.5 0.004761904761904762 0.9952380952380954 0.005747126436781609 0.9942528735632183 0.125 0.875 0.5 0.5 0.5 0.5 0.5 0.5 0.01851851851851852 0.9814814814814814 0.5 0.5 0.2967479674796748 0.7032520325203253 0.5 0.5 0.5 0.5 0.5 0.5 0.5 0.5 0.5 0.5</probabilities>
		</cpt>
		<cpt id="Leg_German">
			<state id="s1_below_0" />
			<state id="s2_0_up" />
			<parents>Aged_15_64_Labour_Force_Participation_Rate_Percent Armed_Forces_Personnel_Percent_Of_Labor_Force Crude_Birth_Rate_Births_Per_1000_Population Force_Onsets Median_Age_Years</parents>
			<probabilities>0.9833333333333333 0.01666666666666667 0.8333333333333333 0.1666666666666667 0.5 0.5 0.5 0.5 0.9975728155339805 0.002427184466019417 0.5 0.5 0.75 0.25 0.5 0.5 0.5 0.5 0.5 0.5 0.5 0.5 0.5 0.5 0.75 0.25 0.5 0.5 0.5 0.5 0.5 0.5 0.8995749202975557 0.1004250797024442 0.8854748603351955 0.1145251396648045 0.5 0.5 0.5 0.5 0.968997668997669 0.031002331002331 0.9722222222222222 0.02777777777777778 0.5 0.5 0.5 0.5 0.5 0.5 0.5 0.5 0.5 0.5 0.5 0.5 0.5 0.5 0.5 0.5 0.5 0.5 0.5 0.5</probabilities>
		</cpt>
		<cpt id="Leg_British">
			<state id="s1_below_0" />
			<state id="s2_0_up" />
			<parents>Chg_Religioningovernment Force_Sideaonsets Irregulartransition Leg_German Median_Age_Years Peaceyears Revolutionaryleader</parents>
			<probabilities>0.7091450216450217 0.2908549783549784 0.5 0.5 0.730952380952381 0.2690476190476191 0.5 0.5 0.7482758620689655 0.2517241379310345 0.5 0.5 0.9 0.1 0.5 0.5 0.9956521739130435 0.004347826086956522 0.5 0.5 0.9875 0.0125 0.5 0.5 0.96875 0.03125 0.5 0.5 0.9166666666666666 0.08333333333333333 0.5 0.5 0.9056399132321041 0.09436008676789588 0.6917808219178082 0.3082191780821918 0.9390243902439025 0.06097560975609756 0.6698113207547169 0.330188679245283 0.9375 0.0625 0.5 0.5 0.75 0.25 0.5 0.5 0.9375 0.0625 0.5 0.5 0.5 0.5 0.5 0.5 0.5 0.5 0.5 0.5 0.5 0.5 0.5 0.5 0.5 0.5 0.5 0.5 0.5 0.5 0.5 0.5 0.5 0.5 0.5 0.5 0.5 0.5 0.5 0.5 0.5 0.5 0.5 0.5 0.5 0.5 0.5 0.5 0.5 0.5 0.5 0.5 0.5 0.5 0.5 0.5 0.5 0.5 0.5 0.5 0.5 0.5 0.5 0.5 0.5 0.5 0.5 0.5 0.5 0.5 0.5 0.5 0.5 0.5 0.5 0.5 0.5 0.5 0.5 0.5 0.5 0.5 0.5 0.5 0.5 0.5 0.5 0.5 0.9833333333333333 0.01666666666666667 0.5 0.5 0.5 0.5 0.5 0.5 0.5 0.5 0.5 0.5 0.5 0.5 0.5 0.5 0.5 0.5 0.5 0.5 0.5 0.5 0.5 0.5 0.5 0.5 0.5 0.5 0.5 0.5 0.5 0.5 0.9 0.1 0.9254545454545454 0.07454545454545454 0.5 0.5 0.611111111111111 0.3888888888888888 0.5 0.5 0.9583333333333333 0.04166666666666666 0.5 0.5 0.5 0.5 0.5 0.5 0.5 0.5 0.5 0.5 0.5 0.5 0.5 0.5 0.5 0.5 0.5 0.5 0.5 0.5 0.5 0.5 0.5 0.5 0.5 0.5 0.5 0.5 0.5 0.5 0.5 0.5 0.5 0.5 0.5 0.5 0.5 0.5 0.5 0.5 0.5 0.5 0.5 0.5 0.5 0.5 0.5 0.5 0.5 0.5 0.5 0.5 0.5 0.5 0.75 0.25 0.5 0.5 0.5 0.5 0.5 0.5 0.5 0.5 0.5 0.5 0.5 0.5 0.5 0.5 0.5 0.5 0.5 0.5 0.5 0.5 0.5 0.5 0.5 0.5 0.5 0.5 0.5 0.5</probabilities>
		</cpt>
		<cpt id="Life_Expectancy_Female">
			<state id="s1_below_56" />
			<state id="s2_56_up" />
			<parents>Aged_15_24_Employment_Rate_Percent Aged_15_24_Unemployment_Rate_Percent Arms_Imports_Us_Inflation_Adjusted Chg_Religioningovernment Foundingleader Gender Leg_British Peaceyears</parents>
			<probabilities>0.2469031531531531 0.7530968468468469 0.2076612903225806 0.7923387096774194 0.2657766990291262 0.7342233009708737 0.4642857142857142 0.5357142857142857 0.08928571428571427 0.9107142857142857 0.1666666666666667 0.8333333333333333 0.5961538461538461 0.4038461538461539 0.1666666666666667 0.8333333333333333 0.4883040935672515 0.5116959064327485 0.5 0.5 0.43 0.5700000000000001 0.08333333333333333 0.9166666666666666 0.5 0.5 0.5 0.5 0.5 0.5 0.5 0.5 0.4536679536679537 0.5463320463320464 0.04166666666666666 0.9583333333333333 0.5 0.5 0.9545454545454546 0.04545454545454546 0.5 0.5 0.5 0.5 0.5 0.5 0.5 0.5 0.125 0.875 0.5 0.5 0.5 0.5 0.5 0.5 0.5 0.5 0.5 0.5 0.5 0.5 0.5 0.5 0.1666666666666667 0.8333333333333333 0.5 0.5 0.3 0.7000000000000001 0.5 0.5 0.5 0.5 0.5 0.5 0.5 0.5 0.5 0.5 0.5 0.5 0.5 0.5 0.5 0.5 0.5 0.5 0.5 0.5 0.5 0.5 0.5 0.5 0.5 0.5 0.5 0.5 0.5 0.5 0.5 0.5 0.5 0.5 0.5 0.5 0.5 0.5 0.5 0.5 0.5 0.5 0.5 0.5 0.5 0.5 0.5 0.5 0.5 0.5 0.5 0.5 0.5 0.5 0.5 0.5 0.5 0.5 0.05555555555555555 0.9444444444444444 0.125 0.875 0.5 0.5 0.5 0.5 0.5 0.5 0.5 0.5 0.5 0.5 0.5 0.5 0.5 0.5 0.5 0.5 0.5 0.5 0.5 0.5 0.5 0.5 0.5 0.5 0.5 0.5 0.5 0.5 0.1666666666666667 0.8333333333333333 0.5 0.5 0.5 0.5 0.5 0.5 0.5 0.5 0.5 0.5 0.5 0.5 0.5 0.5 0.5 0.5 0.5 0.5 0.5 0.5 0.5 0.5 0.5 0.5 0.5 0.5 0.5 0.5 0.5 0.5 0.5 0.5 0.5 0.5 0.5 0.5 0.5 0.5 0.5 0.5 0.5 0.5 0.5 0.5 0.5 0.5 0.5 0.5 0.5 0.5 0.5 0.5 0.5 0.5 0.5 0.5 0.5 0.5 0.5 0.5 0.5 0.5 0.5 0.5 0.5 0.5 0.5 0.5 0.5 0.5 0.5 0.5 0.5 0.5 0.5 0.5 0.5 0.5 0.5 0.5 0.5 0.5 0.5 0.5 0.5 0.5 0.5 0.5 0.5 0.5 0.5 0.5 0.5 0.5 0.2159090909090909 0.7840909090909091 0.07575757575757576 0.9242424242424243 0.4095744680851064 0.5904255319148936 0.5 0.5 0.1 0.9 0.5 0.5 0.75 0.25 0.5 0.5 0.5 0.5 0.5 0.5 0.5 0.5 0.5 0.5 0.5 0.5 0.5 0.5 0.5 0.5 0.5 0.5 0.6515151515151515 0.3484848484848485 0.4166666666666666 0.5833333333333333 0.5 0.5 0.5 0.5 0.5 0.5 0.5 0.5 0.5 0.5 0.5 0.5 0.5 0.5 0.5 0.5 0.5 0.5 0.5 0.5 0.5 0.5 0.5 0.5 0.5 0.5 0.5 0.5 0.5 0.5 0.5 0.5 0.5 0.5 0.5 0.5 0.5 0.5 0.5 0.5 0.5 0.5 0.5 0.5 0.5 0.5 0.5 0.5 0.5 0.5 0.5 0.5 0.5 0.5 0.5 0.5 0.5 0.5 0.5 0.5 0.5 0.5 0.5 0.5 0.5 0.5 0.5 0.5 0.5 0.5 0.5 0.5 0.5 0.5 0.5 0.5 0.5 0.5 0.5 0.5 0.5 0.5 0.5 0.5 0.5 0.5 0.5 0.5 0.5 0.5 0.5 0.5 0.5 0.5 0.5 0.5 0.5 0.5 0.5 0.5 0.5 0.5 0.5 0.5 0.5 0.5 0.5 0.5 0.5 0.5 0.5 0.5 0.5 0.5 0.5 0.5 0.5 0.5 0.5 0.5 0.5 0.5 0.5 0.5 0.5 0.5 0.5 0.5 0.5 0.5 0.5 0.5 0.5 0.5 0.5 0.5 0.5 0.5 0.5 0.5 0.5 0.5 0.5 0.5 0.5 0.5 0.5 0.5 0.5 0.5 0.5 0.5 0.5 0.5 0.5 0.5 0.5 0.5 0.5 0.5 0.5 0.5 0.5 0.5 0.5 0.5 0.5 0.5 0.5 0.5 0.5 0.5 0.5 0.5 0.5 0.5 0.5 0.5 0.5 0.5 0.5 0.5 0.5 0.5 0.5 0.5 0.5 0.5 0.5 0.5 0.5 0.5 0.5 0.5 0.5 0.5 0.5 0.5 0.5 0.5 0.5 0.5 0.5 0.5 0.5 0.5 0.5 0.5 0.5 0.5 0.5 0.5 0.5 0.5 0.5 0.5 0.5 0.5 0.5 0.5</probabilities>
		</cpt>
		<cpt id="Life_Expectancy_Male">
			<state id="s1_below_51" />
			<state id="s2_51_up" />
			<parents>Age Life_Expectancy_Female Median_Age_Years</parents>
			<probabilities>0.8557582668187002 0.1442417331812999 0.875 0.125 0.0008393956351426973 0.9991606043648574 0.003355704697986577 0.9966442953020134 0.8279220779220779 0.1720779220779221 0.5 0.5 0.01284584980237154 0.9871541501976284 0.01063829787234043 0.9893617021276595</probabilities>
		</cpt>
		<cpt id="Literacy_Rate_Youth_Female_Percent_Of_Females_Ages_15_24">
			<state id="s1_below_51" />
			<state id="s2_51_up" />
			<parents>Age Gdp_Per_Capita_Yearly_Growth Life_Expectancy_Male Peaceyears</parents>
			<probabilities>0.009544787077826725 0.9904552129221732 0.03424657534246575 0.9657534246575342 0.004685777287761852 0.9953142227122381 0.01016260162601626 0.9898373983739839 0.1666666666666667 0.8333333333333333 0.5 0.5 0.25 0.75 0.5 0.5 0.004032258064516129 0.9959677419354839 0.04545454545454546 0.9545454545454546 0.00682261208576998 0.9931773879142299 0.008333333333333333 0.9916666666666667 0.5 0.5 0.5 0.5 0.5 0.5 0.5 0.5</probabilities>
		</cpt>
		<cpt id="Leg_French">
			<state id="s1_below_0" />
			<state id="s2_0_up" />
			<parents>Aged_15_24_Unemployment_Rate_Percent Arms_Imports_Us_Inflation_Adjusted Chg_Revolutionarycommittee Foundingleader Leg_Scandivanian Literacy_Rate_Youth_Female_Percent_Of_Females_Ages_15_24 Revolutionaryleader Tenure</parents>
			<probabilities>0.2916666666666666 0.7083333333333333 0.5 0.5 0.375 0.625 0.5 0.5 0.4078272027373824 0.5921727972626176 0.005813953488372093 0.9941860465116279 0.4725609756097561 0.5274390243902439 0.5 0.5 0.5 0.5 0.5 0.5 0.5 0.5 0.5 0.5 0.9957627118644068 0.00423728813559322 0.5 0.5 0.5 0.5 0.5 0.5 0.25 0.75 0.5 0.5 0.5 0.5 0.5 0.5 0.6638225255972696 0.3361774744027304 0.9893617021276595 0.01063829787234043 0.5 0.5 0.5 0.5 0.5 0.5 0.5 0.5 0.5 0.5 0.5 0.5 0.5 0.5 0.5 0.5 0.5 0.5 0.5 0.5 0.25 0.75 0.5 0.5 0.3 0.7000000000000001 0.5 0.5 0.3518518518518519 0.6481481481481481 0.5 0.5 0.3513931888544892 0.6486068111455109 0.9942528735632183 0.005747126436781609 0.5 0.5 0.5 0.5 0.5 0.5 0.5 0.5 0.5 0.5 0.5 0.5 0.5 0.5 0.5 0.5 0.5 0.5 0.5 0.5 0.5 0.5 0.5 0.5 0.5 0.5 0.5 0.5 0.5 0.5 0.5 0.5 0.5 0.5 0.5 0.5 0.5 0.5 0.5 0.5 0.5 0.5 0.5 0.5 0.5 0.5 0.5 0.5 0.25 0.75 0.5 0.5 0.5 0.5 0.5 0.5 0.5625 0.4375 0.5 0.5 0.5 0.5 0.5 0.5 0.5 0.5 0.5 0.5 0.5 0.5 0.5 0.5 0.5 0.5 0.5 0.5 0.5 0.5 0.5 0.5 0.5 0.5 0.5 0.5 0.5 0.5 0.5 0.5 0.5 0.5 0.5 0.5 0.5 0.5 0.5 0.5 0.5 0.5 0.5 0.5 0.5 0.5 0.5 0.5 0.5 0.5 0.5 0.5 0.5 0.5 0.5 0.5 0.5 0.5 0.5 0.5 0.5 0.5 0.5 0.5 0.5 0.5 0.5 0.5 0.1666666666666667 0.8333333333333333 0.5 0.5 0.5 0.5 0.5 0.5 0.5 0.5 0.5 0.5 0.5 0.5 0.5 0.5 0.5 0.5 0.5 0.5 0.5 0.5 0.5 0.5 0.5 0.5 0.5 0.5 0.5 0.5 0.5 0.5 0.5 0.5 0.5 0.5 0.5 0.5 0.5 0.5 0.5 0.5 0.5 0.5 0.5 0.5 0.5 0.5 0.5 0.5 0.5 0.5 0.5 0.5 0.5 0.5 0.5 0.5 0.5 0.5 0.9444444444444444 0.05555555555555555 0.5 0.5 0.8333333333333333 0.1666666666666667 0.5 0.5 0.5 0.5 0.5 0.5 0.5 0.5 0.5 0.5 0.875 0.125 0.5 0.5 0.5 0.5 0.5 0.5 0.5 0.5 0.5 0.5 0.5 0.5 0.5 0.5 0.5 0.5 0.5 0.5 0.5 0.5 0.5 0.5 0.5 0.5 0.5 0.5 0.5 0.5 0.5 0.5 0.5 0.5 0.5 0.5 0.5 0.5 0.5 0.5 0.5 0.5 0.5 0.5 0.5 0.5 0.5 0.5 0.5 0.5 0.5 0.5 0.5 0.5 0.5 0.5 0.5 0.5 0.5 0.5 0.5 0.5 0.5 0.5 0.5 0.5 0.5 0.5 0.5 0.5 0.5 0.5 0.5 0.5 0.5 0.5 0.5 0.5 0.5 0.5 0.5 0.5 0.5 0.5 0.5 0.5 0.5 0.5 0.5 0.5 0.5 0.5 0.5 0.5 0.5 0.5 0.5 0.5 0.5 0.5 0.5 0.5 0.5 0.5 0.5 0.5 0.5 0.5 0.5 0.5 0.5 0.5 0.5 0.5 0.5 0.5 0.5 0.5 0.5 0.5 0.5 0.5 0.5 0.5 0.5 0.5 0.5 0.5 0.5 0.5 0.5 0.5 0.5 0.5 0.5 0.5 0.5 0.5 0.5 0.5 0.5 0.5 0.5 0.5 0.5 0.5 0.5 0.5 0.5 0.5 0.5 0.5 0.5 0.5 0.5 0.5 0.5 0.5 0.5 0.5 0.5 0.5 0.5 0.5 0.5 0.5 0.5 0.5 0.5 0.5 0.5 0.5 0.5 0.5 0.5 0.5 0.5 0.5 0.5 0.5 0.5 0.5 0.5 0.5 0.5 0.5 0.5 0.5 0.5 0.5 0.5 0.5 0.5 0.5 0.5 0.5 0.5 0.5 0.5 0.5 0.5 0.5 0.5 0.5 0.5 0.5 0.5 0.5 0.5 0.5 0.5 0.5 0.5 0.5 0.5 0.5 0.5 0.5 0.5 0.5 0.5 0.5 0.5 0.5 0.5 0.5 0.5 0.5 0.5 0.5 0.5 0.5</probabilities>
		</cpt>
		<cpt id="Military_Expenditure_Percent_Of_Gdp">
			<state id="s1_below_25" />
			<state id="s2_25_up" />
			<parents>Aged_15_24_Unemployment_Rate_Percent Borders Flethfrac Revolutionaryleader</parents>
			<probabilities>0.9992518703241895 0.0007481296758104737 0.9985507246376811 0.001449275362318841 0.996199782844734 0.003800217155266015 0.9978813559322034 0.00211864406779661 0.5 0.5 0.75 0.25 0.5 0.5 0.5 0.5 0.9583333333333333 0.04166666666666666 0.8333333333333333 0.1666666666666667 0.5 0.5 0.5 0.5 0.5 0.5 0.5 0.5 0.5 0.5 0.5 0.5</probabilities>
		</cpt>
		<cpt id="Oecd">
			<state id="State0" />
			<state id="State1" />
			<parents>Aged_15Plus_Employment_Rate_Percent Armed_Forces_Personnel_Percent_Of_Labor_Force Chg_Revolutionarycommittee Gdp_Per_Capita_Yearly_Growth Leg_French Leg_German Life_Expectancy_Male Military_Expenditure_Percent_Of_Gdp</parents>
			<probabilities>0.5 0.5 0.5 0.5 0.5 0.5 0.5 0.5 0.5 0.5 0.5 0.5 0.5 0.5 0.5 0.5 0.5 0.5 0.5 0.5 0.75 0.25 0.5 0.5 0.5 0.5 0.5 0.5 0.5 0.5 0.5 0.5 0.5 0.5 0.5 0.5 0.5 0.5 0.5 0.5 0.5 0.5 0.5 0.5 0.5 0.5 0.5 0.5 0.5 0.5 0.5 0.5 0.5 0.5 0.5 0.5 0.5 0.5 0.5 0.5 0.5 0.5 0.5 0.5 0.5 0.5 0.5 0.5 0.5 0.5 0.5 0.5 0.5 0.5 0.5 0.5 0.5 0.5 0.5 0.5 0.5 0.5 0.5 0.5 0.5 0.5 0.5 0.5 0.5 0.5 0.5 0.5 0.5 0.5 0.5 0.5 0.5 0.5 0.5 0.5 0.5 0.5 0.5 0.5 0.5 0.5 0.5 0.5 0.5 0.5 0.5 0.5 0.5 0.5 0.5 0.5 0.5 0.5 0.5 0.5 0.5 0.5 0.5 0.5 0.5 0.5 0.5 0.5 0.5 0.5 0.5 0.5 0.5 0.5 0.5 0.5 0.5 0.5 0.5 0.5 0.5 0.5 0.5 0.5 0.5 0.5 0.5 0.5 0.5 0.5 0.5 0.5 0.5 0.5 0.5 0.5 0.5 0.5 0.5 0.5 0.5 0.5 0.5 0.5 0.5 0.5 0.5 0.5 0.5 0.5 0.5 0.5 0.5 0.5 0.5 0.5 0.5 0.5 0.5 0.5 0.5 0.5 0.5 0.5 0.5 0.5 0.5 0.5 0.5 0.5 0.5 0.5 0.5 0.5 0.5 0.5 0.5 0.5 0.5 0.5 0.5 0.5 0.5 0.5 0.5 0.5 0.5 0.5 0.5 0.5 0.5 0.5 0.5 0.5 0.5 0.5 0.5 0.5 0.5 0.5 0.5 0.5 0.5 0.5 0.5 0.5 0.5 0.5 0.5 0.5 0.5 0.5 0.5 0.5 0.5 0.5 0.5 0.5 0.5 0.5 0.5 0.5 0.5 0.5 0.5 0.5 0.5 0.5 0.5 0.5 0.5 0.5 0.5 0.5 0.5 0.5 0.9978354978354979 0.002164502164502165 0.75 0.25 0.7585341365461846 0.2414658634538152 0.5 0.5 0.0131578947368421 0.9868421052631579 0.5 0.5 0.003472222222222222 0.9965277777777777 0.5 0.5 0.9437799043062201 0.0562200956937799 0.5 0.5 0.8319967923015237 0.1680032076984763 0.875 0.125 0.5 0.5 0.5 0.5 0.5 0.5 0.5 0.5 0.75 0.25 0.5 0.5 0.75 0.25 0.5 0.5 0.5 0.5 0.5 0.5 0.5 0.5 0.5 0.5 0.75 0.25 0.5 0.5 0.5 0.5 0.5 0.5 0.5 0.5 0.5 0.5 0.5 0.5 0.5 0.5 0.9931506849315068 0.00684931506849315 0.5 0.5 0.9963768115942029 0.003623188405797101 0.5 0.5 0.5 0.5 0.5 0.5 0.5 0.5 0.5 0.5 0.9961240310077519 0.003875968992248062 0.5 0.5 0.9375 0.0625 0.5 0.5 0.5 0.5 0.5 0.5 0.5 0.5 0.5 0.5 0.5 0.5 0.5 0.5 0.5 0.5 0.5 0.5 0.5 0.5 0.5 0.5 0.5 0.5 0.5 0.5 0.5 0.5 0.5 0.5 0.5 0.5 0.5 0.5 0.5 0.5 0.5 0.5 0.5 0.5 0.5 0.5 0.5 0.5 0.5 0.5 0.5 0.5 0.5 0.5 0.5 0.5 0.5 0.5 0.5 0.5 0.5 0.5 0.5 0.5 0.5 0.5 0.5 0.5 0.5 0.5 0.5 0.5 0.5 0.5 0.5 0.5 0.5 0.5 0.5 0.5 0.5 0.5 0.5 0.5 0.5 0.5 0.5 0.5 0.5 0.5 0.5 0.5 0.5 0.5 0.5 0.5 0.5 0.5 0.5 0.5 0.5 0.5 0.5 0.5 0.5 0.5 0.5 0.5 0.5 0.5 0.5 0.5 0.5 0.5 0.5 0.5 0.5 0.5 0.5 0.5 0.5 0.5 0.5 0.5 0.5 0.5 0.5 0.5 0.5 0.5 0.75 0.25 0.5 0.5 0.5 0.5 0.5 0.5 0.5 0.5 0.5 0.5 0.5 0.5 0.5 0.5 0.5 0.5 0.5 0.5 0.5 0.5 0.5 0.5 0.5 0.5 0.5 0.5 0.5 0.5 0.5 0.5 0.5 0.5 0.5 0.5 0.5 0.5 0.5 0.5 0.5 0.5 0.5 0.5</probabilities>
		</cpt>
		<cpt id="Hdi_Human_Development_Index">
			<state id="s1_below_0" />
			<state id="s2_0_up" />
			<parents>Armed_Forces_Personnel_Percent_Of_Labor_Force Force_Onsets Force_Sideaonsets Gender Irregulartransition</parents>
			<probabilities>0.009550084889643463 0.9904499151103565 0.02590909090909091 0.9740909090909091 0.04032258064516129 0.9596774193548386 0.5 0.5 0.5 0.5 0.5 0.5 0.5 0.5 0.5 0.5 0.5 0.5 0.5 0.5 0.5 0.5 0.5 0.5 0.5 0.5 0.25 0.75 0.5 0.5 0.5 0.5 0.5 0.5 0.25 0.75 0.5 0.5 0.5 0.5 0.5 0.5 0.5 0.5 0.5 0.5 0.5 0.5 0.5 0.5 0.5 0.5 0.5 0.5 0.5 0.5 0.5 0.5 0.5 0.5 0.5 0.5 0.5 0.5</probabilities>
		</cpt>
		<cpt id="Chg_Politicalideology">
			<state id="s1_below_0" />
			<state id="s2_0_up" />
			<parents>Borders Chg_Religioningovernment Force_Onsets Gdp_Per_Capita_Yearly_Growth Hdi_Human_Development_Index Majorpower Revolutionaryleader Tenure</parents>
			<probabilities>0.9852941176470588 0.01470588235294118 0.5 0.5 0.55 0.45 0.5 0.5 0.8333333333333333 0.1666666666666667 0.5 0.5 0.5 0.5 0.5 0.5 0.9925714285714285 0.007428571428571428 0.9961832061068702 0.003816793893129771 0.3918918918918919 0.6081081081081081 0.5 0.5 0.9954954954954955 0.004504504504504504 0.5 0.5 0.125 0.875 0.5 0.5 0.5 0.5 0.5 0.5 0.5 0.5 0.5 0.5 0.5 0.5 0.5 0.5 0.5 0.5 0.5 0.5 0.8333333333333333 0.1666666666666667 0.75 0.25 0.5 0.5 0.5 0.5 0.5 0.5 0.5 0.5 0.5 0.5 0.5 0.5 0.5 0.5 0.5 0.5 0.5 0.5 0.5 0.5 0.5 0.5 0.5 0.5 0.5 0.5 0.5 0.5 0.5 0.5 0.5 0.5 0.5 0.5 0.5 0.5 0.5 0.5 0.5 0.5 0.5 0.5 0.5 0.5 0.5 0.5 0.5 0.5 0.5 0.5 0.5 0.5 0.5 0.5 0.5 0.5 0.5 0.5 0.5 0.5 0.5 0.5 0.5 0.5 0.5 0.5 0.5 0.5 0.5 0.5 0.5 0.5 0.5 0.5 0.5 0.5 0.5 0.5 0.5 0.5 0.7222222222222222 0.2777777777777778 0.5 0.5 0.5 0.5 0.5 0.5 0.5 0.5 0.5 0.5 0.8970588235294118 0.1029411764705882 0.5 0.5 0.5137362637362638 0.4862637362637363 0.005747126436781609 0.9942528735632183 0.5 0.5 0.5 0.5 0.01388888888888889 0.986111111111111 0.5 0.5 0.5 0.5 0.5 0.5 0.5 0.5 0.5 0.5 0.5 0.5 0.5 0.5 0.5 0.5 0.5 0.5 0.5 0.5 0.5 0.5 0.5 0.5 0.5 0.5 0.5 0.5 0.5 0.5 0.5 0.5 0.5 0.5 0.5 0.5 0.5 0.5 0.5 0.5 0.5 0.5 0.5 0.5 0.5 0.5 0.5 0.5 0.5 0.5 0.5 0.5 0.5 0.5 0.75 0.25 0.5 0.5 0.5 0.5 0.5 0.5 0.5 0.5 0.5 0.5 0.5 0.5 0.5 0.5 0.5 0.5 0.5 0.5 0.5 0.5 0.5 0.5 0.5 0.5 0.5 0.5 0.5 0.5 0.5 0.5 0.5 0.5 0.5 0.5 0.5 0.5 0.5 0.5 0.5 0.5 0.5 0.5 0.5 0.5 0.5 0.5 0.5 0.5 0.5 0.5 0.5 0.5 0.5 0.5 0.5 0.5 0.5 0.5 0.5 0.5 0.5 0.5 0.5 0.5 0.5 0.5 0.5 0.5 0.5 0.5 0.5 0.5 0.5 0.5 0.5 0.5 0.5 0.5 0.5 0.5 0.5 0.5 0.5 0.5 0.5 0.5 0.5 0.5 0.5 0.5 0.5 0.5 0.5 0.5 0.5 0.5 0.5 0.5 0.5 0.5 0.5 0.5 0.5 0.5 0.5 0.5 0.5 0.5 0.5 0.5 0.5 0.5 0.5 0.5 0.5 0.5 0.5 0.5 0.5 0.5 0.5 0.5 0.5 0.5 0.5 0.5 0.5 0.5 0.5 0.5 0.5 0.5 0.5 0.5 0.5 0.5 0.5 0.5 0.5 0.5 0.5 0.5 0.5 0.5 0.5 0.5 0.5 0.5 0.5 0.5 0.5 0.5 0.5 0.5 0.5 0.5 0.5 0.5 0.5 0.5 0.5 0.5 0.5 0.5 0.5 0.5 0.5 0.5 0.5 0.5 0.5 0.5 0.5 0.5 0.5 0.5 0.5 0.5 0.5 0.5 0.5 0.5 0.5 0.5 0.5 0.5 0.5 0.5 0.5 0.5 0.5 0.5 0.5 0.5 0.5 0.5 0.5 0.5 0.25 0.75 0.5 0.5 0.5 0.5 0.5 0.5 0.5 0.5 0.5 0.5 0.5 0.5 0.5 0.5 0.5 0.5 0.5 0.5 0.5 0.5 0.5 0.5 0.5 0.5 0.5 0.5 0.5 0.5 0.5 0.5 0.5 0.5 0.5 0.5 0.5 0.5 0.5 0.5 0.5 0.5 0.5 0.5 0.5 0.5 0.5 0.5 0.5 0.5 0.5 0.5 0.5 0.5 0.5 0.5 0.5 0.5 0.5 0.5 0.5 0.5 0.5 0.5 0.5 0.5 0.5 0.5 0.5 0.5 0.5 0.5 0.5 0.5 0.5 0.5 0.5 0.5 0.5 0.5 0.5 0.5 0.5 0.5 0.5 0.5 0.5 0.5 0.5 0.5 0.5 0.5 0.5 0.5 0.5 0.5 0.5 0.5 0.5 0.5</probabilities>
		</cpt>
		<cpt id="Age0">
			<state id="s1_below_27" />
			<state id="s2_27_up" />
			<parents>Aged_15Plus_Employment_Rate_Percent Armed_Forces_Personnel_Percent_Of_Labor_Force Arms_Imports_Us_Inflation_Adjusted Chg_Politicalideology Force_Sideaonsets Gdp_Per_Capita_Yearly_Growth Life_Expectancy_Male Usedforce</parents>
			<probabilities>0.5 0.5 0.5 0.5 0.5 0.5 0.25 0.75 0.5 0.5 0.5 0.5 0.5 0.5 0.5 0.5 0.5 0.5 0.5 0.5 0.5 0.5 0.5 0.5 0.5 0.5 0.5 0.5 0.5 0.5 0.5 0.5 0.5 0.5 0.5 0.5 0.5 0.5 0.5 0.5 0.5 0.5 0.5 0.5 0.5 0.5 0.5 0.5 0.5 0.5 0.5 0.5 0.5 0.5 0.5 0.5 0.5 0.5 0.5 0.5 0.5 0.5 0.5 0.5 0.5 0.5 0.5 0.5 0.5 0.5 0.5 0.5 0.5 0.5 0.5 0.5 0.5 0.5 0.5 0.5 0.5 0.5 0.5 0.5 0.5 0.5 0.5 0.5 0.5 0.5 0.5 0.5 0.5 0.5 0.5 0.5 0.5 0.5 0.5 0.5 0.5 0.5 0.5 0.5 0.5 0.5 0.5 0.5 0.5 0.5 0.5 0.5 0.5 0.5 0.5 0.5 0.5 0.5 0.5 0.5 0.5 0.5 0.5 0.5 0.5 0.5 0.5 0.5 0.5 0.5 0.5 0.5 0.5 0.5 0.5 0.5 0.5 0.5 0.5 0.5 0.5 0.5 0.5 0.5 0.5 0.5 0.5 0.5 0.5 0.5 0.5 0.5 0.5 0.5 0.5 0.5 0.5 0.5 0.5 0.5 0.5 0.5 0.5 0.5 0.5 0.5 0.5 0.5 0.5 0.5 0.5 0.5 0.5 0.5 0.5 0.5 0.5 0.5 0.5 0.5 0.5 0.5 0.5 0.5 0.5 0.5 0.5 0.5 0.5 0.5 0.5 0.5 0.5 0.5 0.5 0.5 0.5 0.5 0.5 0.5 0.5 0.5 0.5 0.5 0.5 0.5 0.5 0.5 0.5 0.5 0.5 0.5 0.5 0.5 0.5 0.5 0.5 0.5 0.5 0.5 0.5 0.5 0.5 0.5 0.5 0.5 0.5 0.5 0.5 0.5 0.5 0.5 0.5 0.5 0.5 0.5 0.5 0.5 0.5 0.5 0.5 0.5 0.5 0.5 0.5 0.5 0.5 0.5 0.5 0.5 0.5 0.5 0.5 0.5 0.5 0.5 0.04166666666666666 0.9583333333333334 0.001623376623376623 0.9983766233766235 0.02800201816347124 0.9719979818365287 0.001329787234042553 0.9986702127659575 0.25 0.75 0.25 0.75 0.25 0.75 0.5 0.5 0.5 0.5 0.5 0.5 0.5 0.5 0.25 0.75 0.5 0.5 0.5 0.5 0.5 0.5 0.5 0.5 0.5 0.5 0.003676470588235294 0.9963235294117647 0.01612903225806452 0.9838709677419355 0.002164502164502165 0.9978354978354979 0.5 0.5 0.5 0.5 0.5 0.5 0.5 0.5 0.5 0.5 0.5 0.5 0.5 0.5 0.5 0.5 0.5 0.5 0.5 0.5 0.5 0.5 0.5 0.5 0.5 0.5 0.5 0.5 0.05555555555555555 0.9444444444444444 0.5 0.5 0.5 0.5 0.5 0.5 0.5 0.5 0.5 0.5 0.5 0.5 0.5 0.5 0.5 0.5 0.5 0.5 0.5 0.5 0.5 0.5 0.5 0.5 0.5 0.5 0.5 0.5 0.5 0.5 0.5 0.5 0.1666666666666667 0.8333333333333333 0.5 0.5 0.5 0.5 0.5 0.5 0.5 0.5 0.5 0.5 0.5 0.5 0.5 0.5 0.5 0.5 0.5 0.5 0.5 0.5 0.5 0.5 0.5 0.5 0.5 0.5 0.5 0.5 0.5 0.5 0.5 0.5 0.5 0.5 0.5 0.5 0.5 0.5 0.5 0.5 0.5 0.5 0.5 0.5 0.5 0.5 0.5 0.5 0.5 0.5 0.5 0.5 0.5 0.5 0.5 0.5 0.5 0.5 0.5 0.5 0.5 0.5 0.25 0.75 0.5 0.5 0.5 0.5 0.5 0.5 0.5 0.5 0.5 0.5 0.5 0.5 0.5 0.5 0.5 0.5 0.5 0.5 0.5 0.5 0.5 0.5 0.5 0.5 0.5 0.5 0.5 0.5 0.5 0.5 0.5 0.5 0.5 0.5 0.5 0.5 0.5 0.5 0.5 0.5 0.5 0.5 0.5 0.5 0.5 0.5 0.5 0.5 0.5 0.5 0.5 0.5 0.5 0.5 0.5 0.5 0.5 0.5 0.5 0.5 0.5 0.5 0.5 0.5 0.5 0.5 0.5 0.5 0.5 0.5 0.5 0.5 0.5 0.5 0.5 0.5 0.5 0.5 0.5 0.5 0.5 0.5 0.5 0.5 0.5 0.5 0.5 0.5</probabilities>
		</cpt>
		<cpt id="Flgdpen">
			<state id="s1_below_9" />
			<state id="s2_9_up" />
			<parents>Aged_15_24_Employment_Rate_Percent Arms_Imports_Us_Inflation_Adjusted Borders Chg_Revolutionarycommittee Force_Sideaonsets Gdp_Per_Capita_Yearly_Growth Majorpower Median_Age_Years</parents>
			<probabilities>0.9369565217391305 0.06304347826086956 0.8323170731707318 0.1676829268292683 0.5779220779220779 0.4220779220779221 0.53125 0.46875 0.8333333333333333 0.1666666666666667 0.5 0.5 0.5 0.5 0.5 0.5 0.5 0.5 0.5 0.5 0.5 0.5 0.5 0.5 0.5 0.5 0.5 0.5 0.5 0.5 0.5 0.5 0.9986631016042781 0.001336898395721925 0.9285714285714285 0.07142857142857142 0.984375 0.015625 0.5 0.5 0.5 0.5 0.5 0.5 0.5 0.5 0.5 0.5 0.75 0.25 0.5 0.5 0.5 0.5 0.5 0.5 0.5 0.5 0.5 0.5 0.5 0.5 0.5 0.5 0.5 0.5 0.5 0.5 0.75 0.25 0.5 0.5 0.5 0.5 0.5 0.5 0.5 0.5 0.5 0.5 0.5 0.5 0.5 0.5 0.5 0.5 0.5 0.5 0.5 0.5 0.5 0.5 0.5 0.5 0.5 0.5 0.5 0.5 0.5 0.5 0.5 0.5 0.5 0.5 0.5 0.5 0.5 0.5 0.5 0.5 0.5 0.5 0.5 0.5 0.5 0.5 0.5 0.5 0.5 0.5 0.5 0.5 0.5 0.5 0.5 0.5 0.5 0.5 0.9444444444444444 0.05555555555555555 0.5 0.5 0.5 0.5 0.5 0.5 0.5 0.5 0.5 0.5 0.5 0.5 0.5 0.5 0.5 0.5 0.5 0.5 0.5 0.5 0.5 0.5 0.5 0.5 0.5 0.5 0.5 0.5 0.5 0.5 0.8333333333333333 0.1666666666666667 0.5 0.5 0.5 0.5 0.5 0.5 0.5 0.5 0.5 0.5 0.5 0.5 0.5 0.5 0.5 0.5 0.5 0.5 0.5 0.5 0.5 0.5 0.5 0.5 0.5 0.5 0.5 0.5 0.5 0.5 0.5 0.5 0.5 0.5 0.5 0.5 0.5 0.5 0.5 0.5 0.5 0.5 0.5 0.5 0.5 0.5 0.5 0.5 0.5 0.5 0.5 0.5 0.5 0.5 0.5 0.5 0.5 0.5 0.5 0.5 0.5 0.5 0.5 0.5 0.5 0.5 0.5 0.5 0.5 0.5 0.5 0.5 0.5 0.5 0.5 0.5 0.5 0.5 0.5 0.5 0.5 0.5 0.5 0.5 0.5 0.5 0.5 0.5 0.5 0.5 0.5 0.5 0.5 0.5 0.8959183673469389 0.1040816326530612 0.55 0.45 0.66 0.34 0.7000000000000001 0.3 0.75 0.25 0.5 0.5 0.5 0.5 0.5 0.5 0.5 0.5 0.5 0.5 0.5 0.5 0.5 0.5 0.5 0.5 0.5 0.5 0.5 0.5 0.5 0.5 0.9827586206896551 0.01724137931034483 0.5 0.5 0.5 0.5 0.5 0.5 0.5 0.5 0.5 0.5 0.5 0.5 0.5 0.5 0.5 0.5 0.5 0.5 0.5 0.5 0.5 0.5 0.5 0.5 0.5 0.5 0.5 0.5 0.5 0.5 0.5 0.5 0.5 0.5 0.5 0.5 0.5 0.5 0.5 0.5 0.5 0.5 0.5 0.5 0.5 0.5 0.5 0.5 0.5 0.5 0.5 0.5 0.5 0.5 0.5 0.5 0.5 0.5 0.5 0.5 0.5 0.5 0.5 0.5 0.5 0.5 0.5 0.5 0.5 0.5 0.5 0.5 0.5 0.5 0.5 0.5 0.5 0.5 0.5 0.5 0.5 0.5 0.5 0.5 0.5 0.5 0.5 0.5 0.5 0.5 0.5 0.5 0.5 0.5 0.5 0.5 0.5 0.5 0.5 0.5 0.5 0.5 0.5 0.5 0.5 0.5 0.5 0.5 0.5 0.5 0.5 0.5 0.5 0.5 0.5 0.5 0.5 0.5 0.5 0.5 0.5 0.5 0.5 0.5 0.5 0.5 0.5 0.5 0.5 0.5 0.5 0.5 0.5 0.5 0.5 0.5 0.5 0.5 0.5 0.5 0.5 0.5 0.5 0.5 0.5 0.5 0.5 0.5 0.5 0.5 0.5 0.5 0.5 0.5 0.5 0.5 0.5 0.5 0.5 0.5 0.5 0.5 0.5 0.5 0.5 0.5 0.5 0.5 0.5 0.5 0.5 0.5 0.5 0.5 0.5 0.5 0.5 0.5 0.5 0.5 0.5 0.5 0.5 0.5 0.5 0.5 0.5 0.5 0.5 0.5 0.5 0.5 0.5 0.5 0.5 0.5 0.5 0.5 0.5 0.5 0.5 0.5 0.5 0.5 0.5 0.5 0.5 0.5 0.5 0.5 0.5 0.5 0.5 0.5 0.5 0.5 0.5 0.5 0.5 0.5 0.5 0.5</probabilities>
		</cpt>
		<cpt id="Population_Growth_Annual_Percent">
			<state id="s1_below_4" />
			<state id="s2_4_up" />
			<parents>Aged_15_24_Unemployment_Rate_Percent Chg_Religioningovernment Leg_Scandivanian Median_Age_Years Peaceyears</parents>
			<probabilities>0.9705423332032774 0.02945766679672259 0.9890965732087227 0.01090342679127726 0.9898648648648649 0.01013513513513514 0.96875 0.03125 0.9936708860759493 0.006329113924050633 0.9736842105263157 0.02631578947368421 0.9722222222222222 0.02777777777777778 0.9 0.1 0.9853420195439739 0.01465798045602606 0.9814814814814814 0.01851851851851852 0.9583333333333333 0.04166666666666666 0.5 0.5 0.5 0.5 0.5 0.5 0.5 0.5 0.5 0.5 0.9285714285714285 0.07142857142857142 0.5 0.5 0.8333333333333333 0.1666666666666667 0.5 0.5 0.5 0.5 0.8333333333333333 0.1666666666666667 0.5 0.5 0.75 0.25 0.8333333333333333 0.1666666666666667 0.5 0.5 0.5 0.5 0.5 0.5 0.5 0.5 0.5 0.5 0.5 0.5 0.5 0.5</probabilities>
		</cpt>
		<cpt id="Foreigninstall">
			<state id="s1_below_0" />
			<state id="s2_0_up" />
			<parents>Age Crude_Birth_Rate_Births_Per_1000_Population Flgdpen Force_Onsets Gender Irregulartransition Leg_Scandivanian Population_Growth_Annual_Percent</parents>
			<probabilities>0.866355140186916 0.1336448598130841 0.5 0.5 0.8617021276595744 0.1382978723404255 0.5 0.5 0.9869565217391304 0.01304347826086957 0.8333333333333333 0.1666666666666667 0.5 0.5 0.5 0.5 0.9500000000000001 0.05 0.5 0.5 0.9166666666666666 0.08333333333333333 0.5 0.5 0.5 0.5 0.5 0.5 0.5 0.5 0.5 0.5 0.5 0.5 0.5 0.5 0.5 0.5 0.5 0.5 0.5 0.5 0.5 0.5 0.5 0.5 0.5 0.5 0.5 0.5 0.5 0.5 0.5 0.5 0.5 0.5 0.5 0.5 0.5 0.5 0.5 0.5 0.5 0.5 0.9962406015037594 0.003759398496240601 0.5 0.5 0.9838709677419355 0.01612903225806452 0.5 0.5 0.5 0.5 0.5 0.5 0.5 0.5 0.5 0.5 0.5 0.5 0.5 0.5 0.9500000000000001 0.05 0.5 0.5 0.5 0.5 0.5 0.5 0.5 0.5 0.5 0.5 0.5 0.5 0.5 0.5 0.5 0.5 0.5 0.5 0.5 0.5 0.5 0.5 0.5 0.5 0.5 0.5 0.5 0.5 0.5 0.5 0.5 0.5 0.5 0.5 0.5 0.5 0.5 0.5 0.5 0.5 0.5 0.5 0.9348039215686275 0.06519607843137255 0.9814814814814814 0.01851851851851852 0.5 0.5 0.5 0.5 0.9865556978233034 0.01344430217669654 0.9857142857142857 0.01428571428571429 0.5 0.5 0.5 0.5 0.9827586206896551 0.01724137931034483 0.75 0.25 0.5 0.5 0.5 0.5 0.5 0.5 0.5 0.5 0.5 0.5 0.5 0.5 0.5 0.5 0.5 0.5 0.5 0.5 0.5 0.5 0.5 0.5 0.5 0.5 0.5 0.5 0.5 0.5 0.5 0.5 0.5 0.5 0.5 0.5 0.5 0.5 0.5 0.5 0.5 0.5 0.5 0.5 0.5 0.5 0.9864864864864865 0.01351351351351351 0.9375 0.0625 0.5 0.5 0.5 0.5 0.5 0.5 0.5 0.5 0.5 0.5 0.5 0.5 0.75 0.25 0.5 0.5 0.5 0.5 0.5 0.5 0.5 0.5 0.5 0.5 0.5 0.5 0.5 0.5 0.5 0.5 0.5 0.5 0.5 0.5 0.5 0.5 0.5 0.5 0.5 0.5 0.5 0.5 0.5 0.5 0.5 0.5 0.5 0.5 0.5 0.5 0.5 0.5 0.5 0.5 0.5 0.5 0.5 0.5 0.5 0.5 0.7861111111111111 0.2138888888888889 0.75 0.25 0.9285714285714285 0.07142857142857142 0.5 0.5 0.9464285714285714 0.05357142857142857 0.5 0.5 0.5 0.5 0.5 0.5 0.5 0.5 0.5 0.5 0.5 0.5 0.5 0.5 0.5 0.5 0.5 0.5 0.5 0.5 0.5 0.5 0.5 0.5 0.5 0.5 0.5 0.5 0.5 0.5 0.5 0.5 0.5 0.5 0.5 0.5 0.5 0.5 0.5 0.5 0.5 0.5 0.5 0.5 0.5 0.5 0.5 0.5 0.5 0.5 0.5 0.5 0.5 0.5 0.986111111111111 0.01388888888888889 0.5 0.5 0.9285714285714285 0.07142857142857142 0.5 0.5 0.5 0.5 0.5 0.5 0.5 0.5 0.5 0.5 0.5 0.5 0.5 0.5 0.5 0.5 0.5 0.5 0.5 0.5 0.5 0.5 0.5 0.5 0.5 0.5 0.5 0.5 0.5 0.5 0.5 0.5 0.5 0.5 0.5 0.5 0.5 0.5 0.5 0.5 0.5 0.5 0.5 0.5 0.5 0.5 0.5 0.5 0.5 0.5 0.5 0.5 0.5 0.5 0.5 0.5 0.5 0.5 0.9354243542435424 0.06457564575645756 0.9285714285714285 0.07142857142857142 0.9 0.1 0.5 0.5 0.9676258992805756 0.03237410071942446 0.8333333333333333 0.1666666666666667 0.5 0.5 0.5 0.5 0.9444444444444444 0.05555555555555555 0.5 0.5 0.5 0.5 0.5 0.5 0.5 0.5 0.5 0.5 0.5 0.5 0.5 0.5 0.5 0.5 0.5 0.5 0.5 0.5 0.5 0.5 0.75 0.25 0.5 0.5 0.5 0.5 0.5 0.5 0.5 0.5 0.5 0.5 0.5 0.5 0.5 0.5 0.5 0.5 0.5 0.5 0.5 0.5 0.5 0.5 0.8333333333333333 0.1666666666666667 0.8333333333333333 0.1666666666666667 0.5 0.5 0.5 0.5 0.75 0.25 0.8333333333333333 0.1666666666666667 0.5 0.5 0.5 0.5 0.5 0.5 0.5 0.5 0.5 0.5 0.5 0.5 0.5 0.5 0.5 0.5 0.5 0.5 0.5 0.5 0.5 0.5 0.5 0.5 0.5 0.5 0.5 0.5 0.5 0.5 0.5 0.5 0.5 0.5 0.5 0.5 0.5 0.5 0.5 0.5 0.5 0.5 0.5 0.5 0.5 0.5 0.5 0.5 0.5 0.5 0.5 0.5</probabilities>
		</cpt>
		<cpt id="Muslim">
			<state id="s1_below_0" />
			<state id="s2_0_up" />
			<parents>Aged_15_64_Labour_Force_Participation_Rate_Percent Irregulartransition Peaceyears Prevtimesinoffice</parents>
			<probabilities>0.09292035398230089 0.9070796460176991 0.1 0.9 0.8333333333333333 0.1666666666666667 0.5 0.5 0.03879310344827586 0.9612068965517241 0.5 0.5 0.08333333333333333 0.9166666666666666 0.5 0.5 0.8196008188331627 0.1803991811668373 0.9320987654320987 0.06790123456790123 0.9791666666666667 0.02083333333333334 0.8333333333333333 0.1666666666666667 0.7128537735849056 0.2871462264150944 0.8809523809523809 0.119047619047619 0.7869565217391304 0.2130434782608696 0.5 0.5</probabilities>
		</cpt>
		<cpt id="Aged_15Plus_Labour_Force_Participation_Rate_Percent">
			<state id="s1_below_68" />
			<state id="s2_68_up" />
			<parents>Oecd Aged_15_24_Employment_Rate_Percent Flethfrac Flgdpen Foreigninstall Median_Age_Years Muslim</parents>
			<probabilities>0.9238703339882122 0.07612966601178782 0.8997975708502024 0.1002024291497976 0.9435483870967741 0.0564516129032258 0.4375 0.5625 0.9947368421052631 0.005263157894736842 0.9375 0.0625 0.9583333333333333 0.04166666666666666 0.5 0.5 0.9444444444444444 0.05555555555555555 0.9615384615384616 0.03846153846153846 0.75 0.25 0.5 0.5 0.5 0.5 0.5 0.5 0.5 0.5 0.5 0.5 0.8165829145728644 0.1834170854271357 0.8606194690265486 0.1393805309734513 0.8500000000000001 0.15 0.5 0.5 0.8396226415094339 0.160377358490566 0.9375 0.0625 0.5833333333333333 0.4166666666666666 0.5 0.5 0.5 0.5 0.5 0.5 0.5 0.5 0.5 0.5 0.5 0.5 0.5 0.5 0.5 0.5 0.5 0.5 0.21484375 0.78515625 0.06818181818181818 0.9318181818181819 0.375 0.625 0.5 0.5 0.5 0.5 0.9 0.1 0.5 0.5 0.5 0.5 0.8333333333333333 0.1666666666666667 0.5 0.5 0.75 0.25 0.5 0.5 0.5 0.5 0.5 0.5 0.5 0.5 0.5 0.5 0.14 0.8600000000000001 0.5 0.5 0.75 0.25 0.5 0.5 0.125 0.875 0.5 0.5 0.5 0.5 0.5 0.5 0.5 0.5 0.5 0.5 0.5 0.5 0.5 0.5 0.5 0.5 0.5 0.5 0.5 0.5 0.5 0.5 0.9872448979591836 0.01275510204081633 0.9913793103448276 0.008620689655172414 0.9886363636363636 0.01136363636363636 0.75 0.25 0.9827586206896551 0.01724137931034483 0.5 0.5 0.875 0.125 0.5 0.5 0.9947916666666666 0.005208333333333333 0.5 0.5 0.98 0.02 0.5 0.5 0.5 0.5 0.5 0.5 0.5 0.5 0.5 0.5 0.9918032786885247 0.00819672131147541 0.5 0.5 0.9545454545454546 0.04545454545454546 0.5 0.5 0.75 0.25 0.5 0.5 0.5 0.5 0.5 0.5 0.7337662337662338 0.2662337662337663 0.5 0.5 0.9500000000000001 0.05 0.5 0.5 0.5 0.5 0.5 0.5 0.5 0.5 0.5 0.5 0.9705882352941176 0.02941176470588235 0.75 0.25 0.9 0.1 0.5 0.5 0.5 0.5 0.5 0.5 0.5 0.5 0.5 0.5 0.9791666666666666 0.02083333333333333 0.5 0.5 0.875 0.125 0.5 0.5 0.5 0.5 0.5 0.5 0.5 0.5 0.5 0.5 0.5 0.5 0.5 0.5 0.5 0.5 0.5 0.5 0.5 0.5 0.5 0.5 0.5 0.5 0.5 0.5 0.9444444444444444 0.05555555555555555 0.5 0.5 0.75 0.25 0.5 0.5 0.5 0.5 0.5 0.5 0.5 0.5 0.5 0.5</probabilities>
		</cpt>
		<cpt id="Chg_Executivepower">
			<state id="s1_below_0" />
			<state id="s2_0_up" />
			<parents>Crude_Birth_Rate_Births_Per_1000_Population Force_Onsets Foundingleader Hdi_Human_Development_Index Leg_German Majorpower Population_Growth_Annual_Percent Revolutionaryleader</parents>
			<probabilities>0.5 0.5 0.5 0.5 0.5 0.5 0.5 0.5 0.1666666666666667 0.8333333333333333 0.5 0.5 0.5 0.5 0.5 0.5 0.5 0.5 0.5 0.5 0.5 0.5 0.5 0.5 0.5 0.5 0.5 0.5 0.5 0.5 0.5 0.5 0.03580402010050251 0.9641959798994975 0.006024096385542169 0.9939759036144579 0.625 0.375 0.5 0.5 0.005681818181818182 0.9943181818181819 0.05 0.9500000000000001 0.5 0.5 0.5 0.5 0.004950495049504951 0.995049504950495 0.5 0.5 0.5 0.5 0.5 0.5 0.03333333333333333 0.9666666666666667 0.5 0.5 0.5 0.5 0.5 0.5 0.5 0.5 0.5 0.5 0.5 0.5 0.5 0.5 0.5 0.5 0.5 0.5 0.5 0.5 0.5 0.5 0.5 0.5 0.5 0.5 0.5 0.5 0.5 0.5 0.5 0.5 0.5 0.5 0.5 0.5 0.5 0.5 0.008620689655172414 0.9913793103448276 0.5 0.5 0.5 0.5 0.5 0.5 0.5 0.5 0.5 0.5 0.5 0.5 0.5 0.5 0.5 0.5 0.5 0.5 0.5 0.5 0.5 0.5 0.5 0.5 0.5 0.5 0.5 0.5 0.5 0.5 0.5 0.5 0.5 0.5 0.5 0.5 0.5 0.5 0.5 0.5 0.5 0.5 0.5 0.5 0.5 0.5 0.5 0.5 0.5 0.5 0.5 0.5 0.5 0.5 0.5 0.5 0.5 0.5 0.5 0.5 0.5 0.5 0.5 0.5 0.5 0.5 0.5 0.5 0.5 0.5 0.5 0.5 0.5 0.5 0.5 0.5 0.5 0.5 0.5 0.5 0.5 0.5 0.5 0.5 0.5 0.5 0.5 0.5 0.5 0.5 0.5 0.5 0.5 0.5 0.5 0.5 0.5 0.5 0.5 0.5 0.5 0.5 0.5 0.5 0.5 0.5 0.5 0.5 0.5 0.5 0.5 0.5 0.5 0.5 0.5 0.5 0.5 0.5 0.5 0.5 0.5 0.5 0.5 0.5 0.5 0.5 0.5 0.5 0.5 0.5 0.5 0.5 0.5 0.5 0.5 0.5 0.5 0.5 0.5 0.5 0.5 0.5 0.5 0.5 0.5 0.5 0.5 0.5 0.5 0.5 0.5 0.5 0.5 0.5 0.5 0.5 0.5 0.5 0.05172413793103448 0.9482758620689655 0.08333333333333333 0.9166666666666666 0.5 0.5 0.5 0.5 0.5 0.5 0.5 0.5 0.5 0.5 0.5 0.5 0.25 0.75 0.5 0.5 0.5 0.5 0.5 0.5 0.5 0.5 0.5 0.5 0.5 0.5 0.5 0.5 0.09734822051639916 0.9026517794836008 0.01036866359447005 0.9896313364055299 0.3813559322033898 0.6186440677966102 0.04545454545454546 0.9545454545454546 0.05 0.9500000000000001 0.01612903225806452 0.9838709677419355 0.5 0.5 0.5 0.5 0.007575757575757576 0.9924242424242424 0.5 0.5 0.5 0.5 0.5 0.5 0.5 0.5 0.5 0.5 0.5 0.5 0.5 0.5 0.1666666666666667 0.8333333333333333 0.5 0.5 0.5 0.5 0.5 0.5 0.5 0.5 0.5 0.5 0.5 0.5 0.5 0.5 0.5 0.5 0.5 0.5 0.5 0.5 0.5 0.5 0.5 0.5 0.5 0.5 0.5 0.5 0.5 0.5 0.001845018450184502 0.9981549815498155 0.5 0.5 0.04545454545454546 0.9545454545454546 0.5 0.5 0.5 0.5 0.5 0.5 0.5 0.5 0.5 0.5 0.5 0.5 0.5 0.5 0.5 0.5 0.5 0.5 0.5 0.5 0.5 0.5 0.5 0.5 0.5 0.5 0.5 0.5 0.5 0.5 0.5 0.5 0.5 0.5 0.5 0.5 0.5 0.5 0.5 0.5 0.5 0.5 0.5 0.5 0.5 0.5 0.5 0.5 0.5 0.5 0.5 0.5 0.5 0.5 0.5 0.5 0.5 0.5 0.5 0.5 0.25 0.75 0.5 0.5 0.5 0.5 0.5 0.5 0.5 0.5 0.5 0.5 0.5 0.5 0.5 0.5 0.5 0.5 0.5 0.5 0.5 0.5 0.5 0.5 0.5 0.5 0.5 0.5 0.5 0.5 0.5 0.5 0.5 0.5 0.5 0.5 0.5 0.5 0.5 0.5 0.5 0.5 0.5 0.5 0.5 0.5 0.5 0.5 0.5 0.5 0.5 0.5 0.5 0.5 0.5 0.5 0.5 0.5 0.5 0.5 0.5 0.5 0.5 0.5 0.5 0.5 0.5 0.5 0.5 0.5 0.5 0.5 0.5 0.5 0.5 0.5 0.5 0.5 0.5 0.5 0.5 0.5 0.5 0.5 0.5 0.5 0.5 0.5 0.5 0.5 0.5 0.5 0.5 0.5</probabilities>
		</cpt>
		<cpt id="Oil_Consumption_Per_Cap">
			<state id="s1_below_4" />
			<state id="s2_4_up" />
			<parents>Aged_15_24_Employment_Rate_Percent Chg_Politicalideology Foundingleader Hdi_Human_Development_Index Irregulartransition Median_Age_Years Prevtimesinoffice Usedforce</parents>
			<probabilities>0.9736842105263157 0.02631578947368421 0.5 0.5 0.5 0.5 0.5 0.5 0.75 0.25 0.5 0.5 0.5 0.5 0.5 0.5 0.5 0.5 0.9705882352941176 0.02941176470588235 0.5 0.5 0.5 0.5 0.5 0.5 0.5 0.5 0.5 0.5 0.5 0.5 0.9997025580011898 0.000297441998810232 0.5 0.5 0.9925373134328358 0.007462686567164179 0.5 0.5 0.9966666666666667 0.003333333333333334 0.5 0.5 0.9444444444444444 0.05555555555555555 0.5 0.5 0.96875 0.03125 0.995291902071563 0.004708097928436911 0.9583333333333333 0.04166666666666666 0.9500000000000001 0.05 0.5 0.5 0.9375 0.0625 0.5 0.5 0.5 0.5 0.8333333333333333 0.1666666666666667 0.5 0.5 0.5 0.5 0.5 0.5 0.5 0.5 0.5 0.5 0.5 0.5 0.5 0.5 0.5 0.5 0.5 0.5 0.5 0.5 0.5 0.5 0.5 0.5 0.5 0.5 0.5 0.5 0.5 0.5 0.9982758620689655 0.001724137931034483 0.5 0.5 0.5 0.5 0.5 0.5 0.9375 0.0625 0.5 0.5 0.5 0.5 0.5 0.5 0.5 0.5 0.9814814814814814 0.01851851851851852 0.5 0.5 0.5 0.5 0.5 0.5 0.5 0.5 0.5 0.5 0.5 0.5 0.5 0.5 0.5 0.5 0.5 0.5 0.5 0.5 0.5 0.5 0.5 0.5 0.5 0.5 0.5 0.5 0.5 0.5 0.9166666666666666 0.08333333333333333 0.5 0.5 0.5 0.5 0.5 0.5 0.5 0.5 0.5 0.5 0.5 0.5 0.5 0.5 0.5 0.5 0.5 0.5 0.5 0.5 0.5 0.5 0.5 0.5 0.5 0.5 0.5 0.5 0.9736842105263157 0.02631578947368421 0.9985119047619047 0.001488095238095238 0.5 0.5 0.5 0.5 0.9 0.1 0.9444444444444444 0.05555555555555555 0.5 0.5 0.5 0.5 0.5 0.5 0.5 0.5 0.5 0.5 0.5 0.5 0.5 0.5 0.5 0.5 0.5 0.5 0.5 0.5 0.5 0.5 0.5 0.5 0.5 0.5 0.5 0.5 0.5 0.5 0.5 0.5 0.5 0.5 0.5 0.5 0.875 0.125 0.5 0.5 0.5 0.5 0.5 0.5 0.5 0.5 0.5 0.5 0.5 0.5 0.5 0.5 0.5 0.5 0.5 0.5 0.5 0.5 0.5 0.5 0.5 0.5 0.5 0.5 0.5 0.5 0.5 0.5 0.875 0.125 0.5 0.5 0.5 0.5 0.5 0.5 0.5 0.5 0.5 0.5 0.5 0.5 0.5 0.5 0.5 0.5 0.9285714285714285 0.07142857142857142 0.5 0.5 0.5 0.5 0.5 0.5 0.5 0.5 0.5 0.5 0.5 0.5 0.9969135802469136 0.00308641975308642 0.5 0.5 0.9583333333333333 0.04166666666666666 0.5 0.5 0.9615384615384616 0.03846153846153846 0.5 0.5 0.75 0.25 0.5 0.5 0.5 0.5 0.99375 0.00625 0.5 0.5 0.5 0.5 0.5 0.5 0.5 0.5 0.5 0.5 0.5 0.5 0.5 0.5 0.5 0.5 0.5 0.5 0.5 0.5 0.5 0.5 0.5 0.5 0.5 0.5 0.5 0.5 0.5 0.5 0.5 0.5 0.5 0.5 0.5 0.5 0.5 0.5 0.5 0.5 0.5 0.5 0.5 0.5 0.5 0.5 0.5 0.5 0.5 0.5 0.5 0.5 0.5 0.5 0.5 0.5 0.5 0.5 0.5 0.5 0.5 0.5 0.9615384615384616 0.03846153846153846 0.5 0.5 0.5 0.5 0.5 0.5 0.5 0.5 0.5 0.5 0.5 0.5 0.5 0.5 0.5 0.5 0.5 0.5 0.5 0.5 0.5 0.5 0.5 0.5 0.5 0.5 0.5 0.5 0.5 0.5 0.75 0.25 0.5 0.5 0.5 0.5 0.5 0.5 0.5 0.5 0.5 0.5 0.5 0.5 0.9166666666666666 0.08333333333333333 0.5 0.5 0.5 0.5 0.5 0.5 0.5 0.5 0.5 0.5 0.5 0.5 0.5 0.5 0.5 0.5 0.9750000000000001 0.025 0.5 0.5 0.5 0.5 0.5 0.5 0.5 0.5 0.5 0.5 0.5 0.5 0.5 0.5 0.5 0.5 0.5 0.5 0.5 0.5 0.5 0.5 0.5 0.5 0.5 0.5 0.5 0.5 0.5 0.5 0.5 0.5 0.5 0.5 0.5 0.5 0.5 0.5 0.5 0.5 0.5 0.5 0.5 0.5 0.5 0.5 0.5 0.5 0.5 0.5 0.5 0.5 0.5 0.5 0.5 0.5 0.5 0.5 0.5 0.5 0.5 0.5 0.5 0.5 0.5 0.5 0.5 0.5 0.5 0.5 0.5 0.5 0.5 0.5 0.5 0.5</probabilities>
		</cpt>
		<cpt id="Chg_Womenandethnicstatus">
			<state id="s1_below_0" />
			<state id="s2_0_up" />
			<parents>Chg_Religioningovernment Chg_Revolutionarycommittee Hdi_Human_Development_Index Life_Expectancy_Male Tenure</parents>
			<probabilities>0.75 0.25 0.5 0.5 0.9400000000000001 0.06 0.5 0.5 0.9205128205128205 0.07948717948717948 0.9857142857142857 0.01428571428571429 0.980155109489051 0.01984489051094891 0.9948979591836734 0.00510204081632653 0.5 0.5 0.5 0.5 0.75 0.25 0.5 0.5 0.8565573770491803 0.1434426229508197 0.5 0.5 0.8676470588235294 0.1323529411764706 0.5 0.5 0.75 0.25 0.5 0.5 0.1666666666666667 0.8333333333333333 0.5 0.5 0.3482142857142857 0.6517857142857143 0.5 0.5 0.5723684210526315 0.4276315789473684 0.5 0.5 0.625 0.375 0.5 0.5 0.8333333333333333 0.1666666666666667 0.5 0.5 0.6866666666666668 0.3133333333333334 0.5 0.5 0.5104166666666666 0.4895833333333333 0.5344827586206896 0.4655172413793103</probabilities>
		</cpt>
		<cpt id="Child_Mortality_0_5_Year_Olds_Dying_Per_1000_Born">
			<state id="s1_below_225" />
			<state id="s2_225_up" />
			<parents>Chg_Religioningovernment Chg_Womenandethnicstatus Crude_Birth_Rate_Births_Per_1000_Population Flethfrac Median_Age_Years Population_Growth_Annual_Percent Revolutionaryleader Tenure</parents>
			<probabilities>0.9979508196721312 0.002049180327868853 0.7608695652173912 0.2391304347826087 0.9761904761904762 0.02380952380952381 0.5 0.5 0.875 0.125 0.5 0.5 0.5 0.5 0.5 0.5 0.9965034965034965 0.003496503496503497 0.75 0.25 0.5 0.5 0.5 0.5 0.5 0.5 0.5 0.5 0.5 0.5 0.5 0.5 0.9961538461538462 0.003846153846153846 0.5 0.5 0.5 0.5 0.5 0.5 0.5 0.5 0.5 0.5 0.5 0.5 0.5 0.5 0.9821428571428571 0.01785714285714286 0.5 0.5 0.5 0.5 0.5 0.5 0.5 0.5 0.5 0.5 0.5 0.5 0.5 0.5 0.8212742980561556 0.1787257019438445 0.9126984126984127 0.0873015873015873 0.7371134020618556 0.2628865979381443 0.5 0.5 0.9857142857142857 0.01428571428571429 0.9642857142857142 0.03571428571428571 0.9285714285714285 0.07142857142857142 0.5 0.5 0.9500000000000001 0.05 0.5 0.5 0.5 0.5 0.5 0.5 0.75 0.25 0.5 0.5 0.5 0.5 0.5 0.5 0.6222707423580787 0.3777292576419214 0.9848484848484849 0.01515151515151515 0.6684782608695652 0.3315217391304348 0.5 0.5 0.875 0.125 0.5 0.5 0.5 0.5 0.5 0.5 0.5833333333333333 0.4166666666666666 0.75 0.25 0.5 0.5 0.5 0.5 0.5 0.5 0.5 0.5 0.5 0.5 0.5 0.5 0.5 0.5 0.5 0.5 0.5 0.5 0.5 0.5 0.5 0.5 0.5 0.5 0.5 0.5 0.5 0.5 0.5 0.5 0.5 0.5 0.5 0.5 0.5 0.5 0.5 0.5 0.5 0.5 0.5 0.5 0.5 0.5 0.5 0.5 0.5 0.5 0.5 0.5 0.5 0.5 0.5 0.5 0.5 0.5 0.5 0.5 0.5 0.5 0.5 0.5 0.5 0.5 0.5 0.5 0.5 0.5 0.5 0.5 0.5 0.5 0.5 0.5 0.5 0.5 0.8362068965517241 0.1637931034482759 0.5 0.5 0.9027777777777777 0.09722222222222221 0.5 0.5 0.8333333333333333 0.1666666666666667 0.5 0.5 0.5 0.5 0.5 0.5 0.5 0.5 0.5 0.5 0.5 0.5 0.5 0.5 0.5 0.5 0.5 0.5 0.5 0.5 0.5 0.5 0.5 0.5 0.5 0.5 0.5434782608695652 0.4565217391304348 0.5 0.5 0.875 0.125 0.5 0.5 0.5 0.5 0.5 0.5 0.5 0.5 0.5 0.5 0.5 0.5 0.5 0.5 0.5 0.5 0.5 0.5 0.5 0.5 0.5 0.5 0.875 0.125 0.5 0.5 0.9772727272727273 0.02272727272727273 0.9821428571428571 0.01785714285714286 0.5 0.5 0.5 0.5 0.5 0.5 0.5 0.5 0.5 0.5 0.5 0.5 0.9 0.1 0.9 0.1 0.5 0.5 0.5 0.5 0.5 0.5 0.5 0.5 0.5 0.5 0.5 0.5 0.9285714285714285 0.07142857142857142 0.5 0.5 0.5 0.5 0.5 0.5 0.5 0.5 0.5 0.5 0.5 0.5 0.5 0.5 0.8333333333333333 0.1666666666666667 0.5 0.5 0.5 0.5 0.5 0.5 0.5 0.5 0.5 0.5 0.9 0.1 0.5 0.5 0.984375 0.015625 0.96875 0.03125 0.5 0.5 0.5 0.5 0.5 0.5 0.5 0.5 0.5 0.5 0.5 0.5 0.5 0.5 0.5 0.5 0.5 0.5 0.5 0.5 0.5 0.5 0.5 0.5 0.5 0.5 0.5 0.5 0.4926470588235294 0.5073529411764706 0.5 0.5 0.5 0.5 0.5 0.5 0.9 0.1 0.5 0.5 0.5 0.5 0.5 0.5 0.5 0.5 0.5 0.5 0.5 0.5 0.5 0.5 0.5 0.5 0.5 0.5 0.5 0.5 0.5 0.5 0.9 0.1 0.5 0.5 0.5 0.5 0.5 0.5 0.5 0.5 0.5 0.5 0.5 0.5 0.5 0.5 0.5 0.5 0.5 0.5 0.5 0.5 0.5 0.5 0.5 0.5 0.5 0.5 0.5 0.5 0.5 0.5 0.875 0.125 0.5 0.5 0.5 0.5 0.5 0.5 0.5 0.5 0.5 0.5 0.5 0.5 0.5 0.5 0.5 0.5 0.5 0.5 0.5 0.5 0.5 0.5 0.5 0.5 0.5 0.5 0.5 0.5 0.5 0.5 0.5568181818181819 0.4431818181818182 0.9878048780487805 0.01219512195121951 0.5 0.5 0.5 0.5 0.5 0.5 0.5 0.5 0.5 0.5 0.5 0.5 0.75 0.25 0.5 0.5 0.5 0.5 0.5 0.5 0.5 0.5 0.5 0.5 0.3888888888888888 0.611111111111111 0.5 0.5 0.9634146341463415 0.03658536585365854 0.5 0.5 0.5 0.5 0.5 0.5 0.5 0.5 0.5 0.5 0.5 0.5 0.5 0.5 0.5 0.5 0.5 0.5 0.5 0.5 0.5 0.5 0.5 0.5 0.5 0.5</probabilities>
		</cpt>
		<cpt id="Force_Revonsets">
			<state id="s1_below_16" />
			<state id="s2_16_up" />
			<parents>Tenure</parents>
			<probabilities>0.9995455922447744 0.0004544077552256892 0.9977064220183487 0.002293577981651376</probabilities>
		</cpt>
		<cpt id="Chg_Propertyowernship">
			<state id="s1_below_0" />
			<state id="s2_0_up" />
			<parents>Aged_15_64_Labour_Force_Participation_Rate_Percent Chg_Revolutionarycommittee Hdi_Human_Development_Index Irregulartransition Population_Growth_Annual_Percent</parents>
			<probabilities>0.3 0.7000000000000001 0.5 0.5 0.7000000000000001 0.3 0.5 0.5 0.1831683168316832 0.8168316831683169 0.3 0.7 0.7890625 0.2109375 0.5 0.5 0.5 0.5 0.5 0.5 0.1 0.9 0.5 0.5 0.5 0.5 0.5 0.5 0.03 0.97 0.5 0.5 0.02380952380952381 0.9761904761904762 0.5 0.5 0.4090909090909091 0.5909090909090909 0.8333333333333333 0.1666666666666667 0.0006681514476614699 0.9993318485523386 0.01666666666666667 0.9833333333333333 0.5396396396396397 0.4603603603603604 0.9848484848484849 0.01515151515151515 0.5 0.5 0.5 0.5 0.1666666666666667 0.8333333333333333 0.5 0.5 0.9166666666666666 0.08333333333333333 0.5 0.5 0.1283783783783784 0.8716216216216217 0.07142857142857142 0.9285714285714285</probabilities>
		</cpt>
		<cpt id="Male_Long_Term_Unemployment_Rate_Percent">
			<state id="s1_below_20" />
			<state id="s2_20_up" />
			<parents>Chg_Propertyowernship Crude_Birth_Rate_Births_Per_1000_Population Force_Onsets Gender Hdi_Human_Development_Index Leg_French Leg_Scandivanian</parents>
			<probabilities>0.5 0.5 0.5 0.5 0.5 0.5 0.5 0.5 0.5 0.5 0.5 0.5 0.9883720930232558 0.01162790697674419 0.5 0.5 0.5 0.5 0.5 0.5 0.5 0.5 0.5 0.5 0.5 0.5 0.5 0.5 0.5 0.5 0.5 0.5 0.5 0.5 0.5 0.5 0.5 0.5 0.5 0.5 0.5 0.5 0.5 0.5 0.5 0.5 0.5 0.5 0.5 0.5 0.5 0.5 0.5 0.5 0.5 0.5 0.5 0.5 0.5 0.5 0.5 0.5 0.5 0.5 0.875 0.125 0.5 0.5 0.9444444444444444 0.05555555555555555 0.5 0.5 0.9927536231884058 0.007246376811594203 0.5 0.5 0.9985632183908045 0.001436781609195402 0.5 0.5 0.5 0.5 0.5 0.5 0.5 0.5 0.5 0.5 0.5 0.5 0.5 0.5 0.5 0.5 0.5 0.5 0.5 0.5 0.5 0.5 0.5 0.5 0.5 0.5 0.5 0.5 0.5 0.5 0.5 0.5 0.5 0.5 0.5 0.5 0.5 0.5 0.5 0.5 0.5 0.5 0.5 0.5 0.5 0.5 0.5 0.5 0.5 0.5 0.8333333333333333 0.1666666666666667 0.5 0.5 0.5 0.5 0.5 0.5 0.9975288303130149 0.002471169686985173 0.9951456310679611 0.004854368932038835 0.9986666666666666 0.001333333333333333 0.5 0.5 0.5 0.5 0.5 0.5 0.5 0.5 0.5 0.5 0.5 0.5 0.9666666666666667 0.03333333333333333 0.9500000000000001 0.05 0.5 0.5 0.5 0.5 0.5 0.5 0.5 0.5 0.5 0.5 0.5 0.5 0.5 0.5 0.5 0.5 0.5 0.5 0.5 0.5 0.5 0.5 0.5 0.5 0.5 0.5 0.5 0.5 0.5 0.5 0.5 0.5 0.5 0.5 0.9761904761904762 0.02380952380952381 0.5 0.5 0.9722222222222222 0.02777777777777778 0.5 0.5 0.9993506493506493 0.0006493506493506494 0.9 0.1 0.9995429616087751 0.0004570383912248629 0.5 0.5 0.75 0.25 0.5 0.5 0.75 0.25 0.5 0.5 0.9827586206896551 0.01724137931034483 0.5 0.5 0.9444444444444444 0.05555555555555555 0.5 0.5 0.5 0.5 0.5 0.5 0.5 0.5 0.5 0.5 0.5 0.5 0.5 0.5 0.75 0.25 0.5 0.5 0.5 0.5 0.5 0.5 0.5 0.5 0.5 0.5 0.5 0.5 0.5 0.5 0.5 0.5 0.5 0.5</probabilities>
		</cpt>
		<cpt id="Leg_Socialist">
			<state id="s1_below_0" />
			<state id="s2_0_up" />
			<parents>Oecd Aged_15_64_Labour_Force_Participation_Rate_Percent Aged_15Plus_Employment_Rate_Percent Borders Force_Revonsets Gdp_Per_Capita_Yearly_Growth Leg_French Male_Long_Term_Unemployment_Rate_Percent</parents>
			<probabilities>0.5 0.5 0.5 0.5 0.75 0.25 0.5 0.5 0.5 0.5 0.5 0.5 0.5 0.5 0.5 0.5 0.5 0.5 0.5 0.5 0.5 0.5 0.5 0.5 0.5 0.5 0.5 0.5 0.5 0.5 0.5 0.5 0.5 0.5 0.5 0.5 0.5 0.5 0.5 0.5 0.5 0.5 0.5 0.5 0.5 0.5 0.5 0.5 0.5 0.5 0.5 0.5 0.5 0.5 0.5 0.5 0.5 0.5 0.5 0.5 0.5 0.5 0.5 0.5 0.984375 0.015625 0.5 0.5 0.9975124378109452 0.002487562189054726 0.5 0.5 0.5 0.5 0.5 0.5 0.5 0.5 0.5 0.5 0.5 0.5 0.5 0.5 0.75 0.25 0.5 0.5 0.5 0.5 0.5 0.5 0.5 0.5 0.5 0.5 0.5 0.5 0.5 0.5 0.5 0.5 0.5 0.5 0.5 0.5 0.5 0.5 0.5 0.5 0.5 0.5 0.5 0.5 0.5 0.5 0.5 0.5 0.5 0.5 0.5 0.5 0.5 0.5 0.5 0.5 0.5 0.5 0.5 0.5 0.5 0.5 0.5 0.5 0.5 0.5 0.5 0.5 0.5 0.5 0.5 0.5 0.5 0.5 0.5 0.5 0.5 0.5 0.5 0.5 0.5 0.5 0.5 0.5 0.5 0.5 0.5 0.5 0.5 0.5 0.5 0.5 0.5 0.5 0.5 0.5 0.5 0.5 0.5 0.5 0.5 0.5 0.5 0.5 0.5 0.5 0.5 0.5 0.5 0.5 0.5 0.5 0.5 0.5 0.5 0.5 0.5 0.5 0.5 0.5 0.5 0.5 0.5481513327601032 0.4518486672398968 0.25 0.75 0.9996575342465753 0.0003424657534246575 0.5 0.5 0.5 0.5 0.5 0.5 0.75 0.25 0.5 0.5 0.5 0.5 0.5 0.5 0.5 0.5 0.5 0.5 0.5 0.5 0.5 0.5 0.5 0.5 0.5 0.5 0.25 0.75 0.5 0.5 0.5 0.5 0.5 0.5 0.5 0.5 0.5 0.5 0.5 0.5 0.5 0.5 0.5 0.5 0.5 0.5 0.5 0.5 0.5 0.5 0.5 0.5 0.5 0.5 0.5 0.5 0.5 0.5 0.5 0.5 0.5 0.5 0.5 0.5 0.5 0.5 0.5 0.5 0.5 0.5 0.5 0.5 0.5 0.5 0.5 0.5 0.5 0.5 0.5 0.5 0.5 0.5 0.5 0.5 0.5 0.5 0.5 0.5 0.5 0.5 0.5 0.5 0.5 0.5 0.5 0.5 0.5 0.5 0.5 0.5 0.5 0.5 0.5 0.5 0.5 0.5 0.5 0.5 0.5 0.5 0.5 0.5 0.5 0.5 0.5 0.5 0.5 0.5 0.5 0.5 0.5 0.5 0.5 0.5 0.5 0.5 0.9166666666666666 0.08333333333333333 0.5 0.5 0.5 0.5 0.5 0.5 0.5 0.5 0.5 0.5 0.5 0.5 0.5 0.5 0.5 0.5 0.5 0.5 0.5 0.5 0.5 0.5 0.5 0.5 0.5 0.5 0.5 0.5 0.5 0.5 0.5 0.5 0.5 0.5 0.5 0.5 0.5 0.5 0.5 0.5 0.5 0.5 0.5 0.5 0.5 0.5 0.5 0.5 0.5 0.5 0.5 0.5 0.5 0.5 0.5 0.5 0.5 0.5 0.5 0.5 0.5 0.5 0.5 0.5 0.5 0.5 0.5 0.5 0.5 0.5 0.5 0.5 0.5 0.5 0.5 0.5 0.5 0.5 0.5 0.5 0.5 0.5 0.5 0.5 0.5 0.5 0.5 0.5 0.5 0.5 0.5 0.5 0.5 0.5 0.5 0.5 0.5 0.5 0.5 0.5 0.5 0.5 0.5 0.5 0.5 0.5 0.5 0.5 0.5 0.5 0.5 0.5 0.5 0.5 0.5 0.5 0.5 0.5 0.5 0.5 0.5 0.5 0.998812351543943 0.001187648456057007 0.5 0.5 0.997863247863248 0.002136752136752137 0.5 0.5 0.5 0.5 0.5 0.5 0.5 0.5 0.5 0.5 0.5 0.5 0.5 0.5 0.5 0.5 0.5 0.5 0.5 0.5 0.5 0.5 0.5 0.5 0.5 0.5 0.5 0.5 0.5 0.5 0.5 0.5 0.5 0.5 0.5 0.5 0.5 0.5 0.5 0.5 0.5 0.5 0.5 0.5 0.5 0.5 0.5 0.5 0.5 0.5 0.5 0.5 0.5 0.5 0.5 0.5 0.5 0.5</probabilities>
		</cpt>
		<cpt id="Totalcategorieschanged">
			<state id="s1_below_1" />
			<state id="s2_1_up" />
			<parents>Borders Chg_Religioningovernment Child_Mortality_0_5_Year_Olds_Dying_Per_1000_Born Leg_French Leg_Socialist Life_Expectancy_Years Prevtimesinoffice Revolutionaryleader</parents>
			<probabilities>0.5 0.5 0.5 0.5 0.5 0.5 0.5 0.5 0.9886634844868736 0.01133651551312649 0.00684931506849315 0.9931506849315068 0.9791666666666666 0.02083333333333333 0.5 0.5 0.5 0.5 0.5 0.5 0.5 0.5 0.5 0.5 0.998452012383901 0.001547987616099071 0.5 0.5 0.9375 0.0625 0.5 0.5 0.5 0.5 0.5 0.5 0.5 0.5 0.5 0.5 0.930532445923461 0.06946755407653911 0.003816793893129771 0.9961832061068702 0.9923076923076923 0.007692307692307693 0.5 0.5 0.5 0.5 0.5 0.5 0.5 0.5 0.5 0.5 0.5 0.5 0.5 0.5 0.5 0.5 0.5 0.5 0.75 0.25 0.5 0.5 0.5 0.5 0.5 0.5 0.995575221238938 0.004424778761061947 0.03846153846153846 0.9615384615384616 0.8333333333333333 0.1666666666666667 0.5 0.5 0.5 0.5 0.5 0.5 0.5 0.5 0.5 0.5 0.9772727272727273 0.02272727272727273 0.125 0.875 0.9500000000000001 0.05 0.5 0.5 0.25 0.75 0.5 0.5 0.5 0.5 0.5 0.5 0.9056291390728477 0.09437086092715231 0.009259259259259259 0.9907407407407407 0.75 0.25 0.5 0.5 0.5 0.5 0.5 0.5 0.5 0.5 0.5 0.5 0.5 0.5 0.5 0.5 0.5 0.5 0.5 0.5 0.5 0.5 0.5 0.5 0.5 0.5 0.5 0.5 0.5 0.5 0.02 0.98 0.5 0.5 0.5 0.5 0.5 0.5 0.5 0.5 0.5 0.5 0.5 0.5 0.125 0.875 0.003333333333333334 0.9966666666666667 0.5 0.5 0.5 0.5 0.5 0.5 0.5 0.5 0.5 0.5 0.5 0.5 0.3 0.7 0.005882352941176471 0.9941176470588236 0.5 0.5 0.5 0.5 0.5 0.5 0.5 0.5 0.5 0.5 0.5 0.5 0.5 0.5 0.5 0.5 0.5 0.5 0.5 0.5 0.5 0.5 0.5 0.5 0.5 0.5 0.5 0.5 0.5 0.5 0.07142857142857142 0.9285714285714285 0.5 0.5 0.5 0.5 0.5 0.5 0.5 0.5 0.5 0.5 0.5 0.5 0.5 0.5 0.03571428571428571 0.9642857142857142 0.5 0.5 0.5 0.5 0.5 0.5 0.5 0.5 0.5 0.5 0.5 0.5 0.02941176470588235 0.9705882352941176 0.01388888888888889 0.986111111111111 0.5 0.5 0.5 0.5 0.5 0.5 0.5 0.5 0.5 0.5 0.5 0.5 0.5 0.5 0.5 0.5 0.5 0.5 0.5 0.5 0.5 0.5 0.5 0.5 0.5 0.5 0.5 0.5 0.5 0.5 0.5 0.5 0.5 0.5 0.5 0.5 0.5 0.5 0.5 0.5 0.5 0.5 0.5 0.5 0.5 0.5 0.5 0.5 0.5 0.5 0.5 0.5 0.5 0.5 0.5 0.5 0.5 0.5 0.5 0.5 0.5 0.5 0.5 0.5 0.5 0.5 0.5 0.5 0.5 0.5 0.5 0.5 0.5 0.5 0.5 0.5 0.5 0.5 0.5 0.5 0.5 0.5 0.5 0.5 0.5 0.5 0.5 0.5 0.5 0.5 0.5 0.5 0.5 0.5 0.5 0.5 0.5 0.5 0.5 0.5 0.5 0.5 0.5 0.5 0.5 0.5 0.5 0.5 0.5 0.5 0.5 0.5 0.5 0.5 0.5 0.5 0.5 0.5 0.5 0.5 0.5 0.5 0.5 0.5 0.5 0.5 0.5 0.5 0.5 0.5 0.5 0.5 0.5 0.5 0.5 0.5 0.5 0.5 0.5 0.5 0.5 0.5 0.5 0.5 0.5 0.5 0.5 0.5 0.5 0.5 0.5 0.5 0.5 0.5 0.5 0.5 0.5 0.5 0.5 0.5 0.5 0.5 0.5 0.5 0.5 0.5 0.5 0.5 0.5 0.5 0.5 0.5 0.5 0.5 0.25 0.75 0.5 0.5 0.5 0.5 0.5 0.5 0.5 0.5 0.5 0.5 0.5 0.5 0.5 0.5 0.5 0.5 0.5 0.5 0.5 0.5 0.5 0.5 0.5 0.5 0.5 0.5 0.5 0.5 0.5 0.5 0.5 0.5 0.5 0.5 0.5 0.5 0.5 0.5 0.5 0.5 0.5 0.5 0.5 0.5 0.5 0.5 0.5 0.5 0.5 0.5 0.5 0.5 0.5 0.5 0.5 0.5 0.5 0.5 0.5 0.5 0.5 0.5 0.5 0.5 0.5 0.5 0.5 0.5 0.5 0.5 0.5 0.5 0.5 0.5 0.5 0.5 0.5 0.5 0.5 0.5 0.5 0.5 0.5 0.5 0.5 0.5 0.5 0.5 0.5 0.5 0.5 0.5 0.5 0.5 0.5 0.5 0.5 0.5 0.5 0.5</probabilities>
		</cpt>
		<cpt id="Chg_Nameofcountry">
			<state id="s1_below_0" />
			<state id="s2_0_up" />
			<parents>Chg_Religioningovernment Literacy_Rate_Youth_Female_Percent_Of_Females_Ages_15_24 Majorpower Oil_Consumption_Per_Cap Peaceyears Prevtimesinoffice Tenure Totalcategorieschanged</parents>
			<probabilities>0.9500000000000001 0.05 0.5 0.5 0.5 0.5 0.5 0.5 0.75 0.25 0.5 0.5 0.5 0.5 0.5 0.5 0.75 0.25 0.375 0.625 0.5 0.5 0.5 0.5 0.5 0.5 0.5 0.5 0.5 0.5 0.5 0.5 0.5 0.5 0.5 0.5 0.5 0.5 0.5 0.5 0.5 0.5 0.5 0.5 0.5 0.5 0.5 0.5 0.5 0.5 0.5 0.5 0.5 0.5 0.5 0.5 0.5 0.5 0.5 0.5 0.5 0.5 0.5 0.5 0.5 0.5 0.5 0.5 0.5 0.5 0.5 0.5 0.5 0.5 0.5 0.5 0.5 0.5 0.5 0.5 0.5 0.5 0.5 0.5 0.5 0.5 0.5 0.5 0.5 0.5 0.5 0.5 0.5 0.5 0.5 0.5 0.5 0.5 0.5 0.5 0.5 0.5 0.5 0.5 0.5 0.5 0.5 0.5 0.5 0.5 0.5 0.5 0.5 0.5 0.5 0.5 0.5 0.5 0.5 0.5 0.5 0.5 0.5 0.5 0.5 0.5 0.5 0.5 0.9997672253258846 0.0002327746741154562 0.6703470031545741 0.3296529968454259 0.9957627118644068 0.00423728813559322 0.5 0.5 0.9951923076923077 0.004807692307692308 0.5 0.5 0.5 0.5 0.5 0.5 0.9981751824817517 0.001824817518248175 0.4485294117647059 0.5514705882352942 0.9666666666666667 0.03333333333333333 0.5 0.5 0.8333333333333333 0.1666666666666667 0.5 0.5 0.5 0.5 0.5 0.5 0.8333333333333333 0.1666666666666667 0.5 0.5 0.5 0.5 0.5 0.5 0.5 0.5 0.5 0.5 0.5 0.5 0.5 0.5 0.5 0.5 0.5 0.5 0.5 0.5 0.5 0.5 0.5 0.5 0.5 0.5 0.5 0.5 0.5 0.5 0.995575221238938 0.004424778761061947 0.875 0.125 0.5 0.5 0.5 0.5 0.5 0.5 0.5 0.5 0.5 0.5 0.5 0.5 0.5 0.5 0.5 0.5 0.5 0.5 0.5 0.5 0.5 0.5 0.5 0.5 0.5 0.5 0.5 0.5 0.5 0.5 0.5 0.5 0.5 0.5 0.5 0.5 0.5 0.5 0.5 0.5 0.5 0.5 0.5 0.5 0.5 0.5 0.5 0.5 0.5 0.5 0.5 0.5 0.5 0.5 0.5 0.5 0.5 0.5 0.5 0.5 0.5 0.5 0.5833333333333333 0.4166666666666666 0.5 0.5 0.5 0.5 0.5 0.5 0.5 0.5 0.5 0.5 0.5 0.5 0.5 0.5 0.5 0.5 0.5 0.5 0.5 0.5 0.5 0.5 0.5 0.5 0.5 0.5 0.5 0.5 0.5 0.5 0.5 0.5 0.5 0.5 0.5 0.5 0.5 0.5 0.5 0.5 0.5 0.5 0.5 0.5 0.5 0.5 0.5 0.5 0.5 0.5 0.5 0.5 0.5 0.5 0.5 0.5 0.5 0.5 0.5 0.5 0.5 0.5 0.5 0.5 0.5 0.5 0.5 0.5 0.5 0.5 0.5 0.5 0.5 0.5 0.5 0.5 0.5 0.5 0.5 0.5 0.5 0.5 0.5 0.5 0.5 0.5 0.5 0.5 0.5 0.5 0.5 0.5 0.5 0.5 0.5 0.5 0.5 0.5 0.5 0.5 0.5 0.5 0.5 0.5 0.5 0.5 0.5 0.5 0.5 0.5 0.5 0.5 0.5 0.5 0.5 0.5 0.5 0.5 0.5 0.5 0.5 0.5 0.5 0.5 0.9 0.1 0.471938775510204 0.5280612244897959 0.5 0.5 0.56875 0.43125 0.5 0.5 0.5 0.5 0.5 0.5 0.5 0.5 0.5 0.5 0.525 0.475 0.5 0.5 0.1875 0.8125 0.5 0.5 0.5 0.5 0.5 0.5 0.5 0.5 0.5 0.5 0.5 0.5 0.5 0.5 0.5 0.5 0.5 0.5 0.5 0.5 0.5 0.5 0.5 0.5 0.5 0.5 0.5 0.5 0.5 0.5 0.5 0.5 0.5 0.5 0.5 0.5 0.5 0.5 0.5 0.5 0.5 0.5 0.01351351351351351 0.9864864864864865 0.5 0.5 0.5 0.5 0.5 0.5 0.5 0.5 0.5 0.5 0.5 0.5 0.5 0.5 0.5 0.5 0.5 0.5 0.5 0.5 0.5 0.5 0.5 0.5 0.5 0.5 0.5 0.5 0.5 0.5 0.5 0.5 0.5 0.5 0.5 0.5 0.5 0.5 0.5 0.5 0.5 0.5 0.5 0.5 0.5 0.5 0.5 0.5 0.5 0.5 0.5 0.5 0.5 0.5 0.5 0.5 0.5 0.5 0.5 0.5</probabilities>
		</cpt>
		<cpt id="Coldwar">
			<state id="s1_below_0" />
			<state id="s2_0_up" />
			<parents>Chg_Politicalideology Flethfrac Foundingleader Irregulartransition Leg_British Leg_Scandivanian Literacy_Rate_Youth_Female_Percent_Of_Females_Ages_15_24 Usedforce</parents>
			<probabilities>0.875 0.125 0.5 0.5 0.3957388939256573 0.6042611060743427 0.5 0.5 0.5 0.5 0.5 0.5 0.2520661157024793 0.7479338842975207 0.5 0.5 0.5 0.5 0.5 0.5 0.4184027777777777 0.5815972222222222 0.5 0.5 0.5 0.5 0.5 0.5 0.5 0.5 0.5 0.5 0.5 0.5 0.5 0.5 0.35 0.65 0.2649700598802395 0.7350299401197605 0.5 0.5 0.5 0.5 0.5 0.5 0.5 0.5 0.5 0.5 0.5 0.5 0.1666666666666667 0.8333333333333333 0.3918918918918919 0.6081081081081081 0.5 0.5 0.5 0.5 0.5 0.5 0.5 0.5 0.5 0.5 0.5 0.5 0.3719512195121951 0.6280487804878049 0.5 0.5 0.5 0.5 0.5 0.5 0.5 0.5 0.5 0.5 0.5 0.5 0.5 0.5 0.107843137254902 0.892156862745098 0.5 0.5 0.5 0.5 0.5 0.5 0.5 0.5 0.5 0.5 0.5 0.5 0.5 0.5 0.5 0.5 0.3055555555555555 0.6944444444444444 0.5 0.5 0.5 0.5 0.5 0.5 0.5 0.5 0.5 0.5 0.5 0.5 0.5 0.5 0.05555555555555555 0.9444444444444444 0.5 0.5 0.5 0.5 0.5 0.5 0.5 0.5 0.375 0.625 0.5 0.5 0.2443609022556391 0.7556390977443609 0.5 0.5 0.5 0.5 0.5 0.5 0.5 0.5 0.5 0.5 0.625 0.375 0.5 0.5 0.2794871794871795 0.7205128205128205 0.5 0.5 0.5 0.5 0.5 0.5 0.5 0.5 0.5 0.5 0.5 0.5 0.1666666666666667 0.8333333333333333 0.03125 0.96875 0.2081081081081081 0.7918918918918919 0.5 0.5 0.5 0.5 0.5 0.5 0.5 0.5 0.5 0.5 0.1666666666666667 0.8333333333333333 0.5 0.5 0.3876404494382023 0.6123595505617977 0.5 0.5 0.5 0.5 0.5 0.5 0.5 0.5 0.5 0.5 0.5 0.5 0.2569444444444444 0.7430555555555555 0.5 0.5 0.5 0.5 0.5 0.5 0.5 0.5 0.5 0.5 0.5 0.5 0.5 0.5 0.1082474226804124 0.8917525773195876 0.5 0.5 0.5 0.5 0.5 0.5 0.5 0.5 0.5 0.5 0.5 0.5 0.25 0.75 0.5 0.5 0.576923076923077 0.4230769230769231 0.5 0.5 0.5 0.5 0.5 0.5 0.5 0.5 0.5 0.5 0.5 0.5 0.5 0.5 0.5 0.5 0.5 0.5 0.5 0.5 0.5 0.5 0.5 0.5 0.5 0.5 0.5 0.5 0.5 0.5 0.5 0.5 0.5 0.5 0.5 0.5 0.5 0.5 0.5 0.5 0.5 0.5 0.5 0.5 0.5 0.5 0.5 0.5 0.5 0.5 0.5 0.5 0.5 0.5 0.5 0.5 0.5 0.5 0.625 0.375 0.925 0.07500000000000001 0.1679245283018868 0.8320754716981132 0.5 0.5 0.5 0.5 0.5 0.5 0.5 0.5 0.5 0.5 0.5 0.5 0.5 0.5 0.1041666666666667 0.8958333333333333 0.5 0.5 0.5 0.5 0.5 0.5 0.5 0.5 0.5 0.5 0.5 0.5 0.875 0.125 0.5 0.5 0.5 0.5 0.5 0.5 0.5 0.5 0.5 0.5 0.5 0.5 0.5 0.5 0.5 0.5 0.5 0.5 0.5 0.5 0.5 0.5 0.5 0.5 0.5 0.5 0.5 0.5 0.5 0.5 0.5 0.5 0.5 0.5 0.5 0.5 0.5 0.5 0.5 0.5 0.5 0.5 0.5 0.5 0.5 0.5 0.5 0.5 0.5 0.5 0.5 0.5 0.5 0.5 0.5 0.5 0.5 0.5 0.75 0.25 0.5 0.5 0.9 0.1 0.5 0.5 0.5 0.5 0.5 0.5 0.5 0.5 0.5 0.5 0.5 0.5 0.5 0.5 0.5 0.5 0.5 0.5 0.5 0.5 0.5 0.5 0.5 0.5 0.5 0.5 0.5 0.5 0.25 0.75 0.625 0.375 0.1346153846153846 0.8653846153846153 0.5 0.5 0.5 0.5 0.5 0.5 0.5 0.5 0.5 0.5 0.5 0.5 0.5 0.5 0.5 0.5 0.5 0.5 0.5 0.5 0.5 0.5 0.5 0.5 0.5 0.5 0.5 0.5 0.5 0.5 0.5 0.5 0.5 0.5 0.5 0.5 0.5 0.5 0.5 0.5 0.5 0.5 0.5 0.5 0.5 0.5 0.5 0.5 0.5 0.5 0.5 0.5 0.5 0.5 0.5 0.5 0.5 0.5 0.5 0.5 0.5 0.5 0.5 0.5 0.5 0.5 0.5 0.5 0.5 0.5 0.5 0.5 0.5 0.5 0.5 0.5 0.5 0.5 0.5 0.5 0.5 0.5 0.5 0.5 0.5 0.5 0.5 0.5</probabilities>
		</cpt>
		<cpt id="Nonrevonsets">
			<state id="s1_below_5" />
			<state id="s2_5_up" />
			<parents>Borders Chg_Executivepower Chg_Politicalideology Peaceyears Population_Growth_Annual_Percent Prevtimesinoffice Revolutionaryleader</parents>
			<probabilities>0.9961240310077519 0.003875968992248062 0.9166666666666666 0.08333333333333333 0.9642857142857142 0.03571428571428571 0.5 0.5 0.9791666666666666 0.02083333333333333 0.5 0.5 0.5 0.5 0.5 0.5 0.9705882352941176 0.02941176470588235 0.5 0.5 0.5 0.5 0.5 0.5 0.8333333333333333 0.1666666666666667 0.5 0.5 0.5 0.5 0.5 0.5 0.9444444444444444 0.05555555555555555 0.5 0.5 0.5 0.5 0.5 0.5 0.5 0.5 0.5 0.5 0.5 0.5 0.5 0.5 0.875 0.125 0.5 0.5 0.5 0.5 0.5 0.5 0.5 0.5 0.5 0.5 0.5 0.5 0.5 0.5 0.9967560553633218 0.003243944636678201 0.9968553459119497 0.003144654088050315 0.9945652173913043 0.005434782608695652 0.5 0.5 0.9895833333333333 0.01041666666666667 0.5 0.5 0.5 0.5 0.5 0.5 0.9982142857142857 0.001785714285714286 0.9886363636363636 0.01136363636363636 0.8333333333333333 0.1666666666666667 0.5 0.5 0.75 0.25 0.5 0.5 0.5 0.5 0.5 0.5 0.9285714285714285 0.07142857142857142 0.9984894259818731 0.001510574018126888 0.5 0.5 0.5 0.5 0.5 0.5 0.9545454545454546 0.04545454545454546 0.5 0.5 0.5 0.5 0.9166666666666666 0.08333333333333333 0.986111111111111 0.01388888888888889 0.5 0.5 0.5 0.5 0.5 0.5 0.5 0.5 0.5 0.5 0.5 0.5 0.5 0.5 0.5 0.5 0.5 0.5 0.5 0.5 0.5 0.5 0.5 0.5 0.5 0.5 0.5 0.5 0.5 0.5 0.5 0.5 0.5 0.5 0.5 0.5 0.5 0.5 0.5 0.5 0.5 0.5 0.5 0.5 0.5 0.5 0.5 0.5 0.5 0.5 0.5 0.5 0.5 0.5 0.5 0.5 0.5 0.5 0.5 0.5 0.5 0.5 0.5 0.5 0.5 0.5 0.5 0.5 0.5 0.5 0.5 0.5 0.5 0.5 0.5 0.5 0.5 0.5 0.5 0.5 0.5 0.5 0.5 0.5 0.5 0.5 0.5 0.5 0.5 0.5 0.5 0.5 0.5 0.5 0.5 0.5 0.5 0.5 0.5 0.5 0.5 0.5 0.5 0.5 0.5 0.5 0.5 0.5 0.5 0.5 0.75 0.25 0.5 0.5 0.5 0.5 0.5 0.5 0.5 0.5 0.5 0.5 0.5 0.5 0.5 0.5 0.5 0.5 0.5 0.5 0.5 0.5 0.5 0.5 0.5 0.5 0.5 0.5 0.5 0.5</probabilities>
		</cpt>
		<cpt id="Literacy_Rate_Adult_Total_Percent_Of_People_Ages_15_And_Above">
			<state id="s1_below_50" />
			<state id="s2_50_up" />
			<parents>Arms_Imports_Us_Inflation_Adjusted Leg_German Leg_Socialist Median_Age_Years Nonrevonsets Peaceyears Revolutionaryleader Tenure</parents>
			<probabilities>0.007932446264073694 0.9920675537359264 0.007042253521126761 0.9929577464788732 0.01884057971014493 0.981159420289855 0.5 0.5 0.01136363636363636 0.9886363636363635 0.03333333333333333 0.9666666666666667 0.03731343283582089 0.9626865671641791 0.5 0.5 0.1 0.9 0.5 0.5 0.5 0.5 0.5 0.5 0.5 0.5 0.5 0.5 0.5 0.5 0.5 0.5 0.004504504504504504 0.9954954954954955 0.25 0.75 0.1 0.9 0.5 0.5 0.03846153846153846 0.9615384615384616 0.5 0.5 0.5 0.5 0.5 0.5 0.1666666666666667 0.8333333333333333 0.5 0.5 0.5 0.5 0.5 0.5 0.5 0.5 0.5 0.5 0.5 0.5 0.5 0.5 0.001915708812260536 0.9980842911877394 0.0108695652173913 0.9891304347826086 0.00684931506849315 0.9931506849315068 0.006578947368421052 0.9934210526315789 0.02941176470588235 0.9705882352941176 0.5 0.5 0.08333333333333333 0.9166666666666666 0.0625 0.9375 0.5 0.5 0.5 0.5 0.5 0.5 0.5 0.5 0.5 0.5 0.5 0.5 0.5 0.5 0.5 0.5 0.01351351351351351 0.9864864864864865 0.25 0.75 0.125 0.875 0.1 0.9 0.125 0.875 0.5 0.5 0.5 0.5 0.5 0.5 0.25 0.75 0.5 0.5 0.5 0.5 0.5 0.5 0.5 0.5 0.5 0.5 0.5 0.5 0.5 0.5 0.004098360655737705 0.9959016393442623 0.5 0.5 0.5 0.5 0.5 0.5 0.0125 0.9875 0.5 0.5 0.5 0.5 0.5 0.5 0.5 0.5 0.5 0.5 0.5 0.5 0.5 0.5 0.5 0.5 0.5 0.5 0.5 0.5 0.5 0.5 0.03125 0.96875 0.5 0.5 0.5 0.5 0.5 0.5 0.08333333333333333 0.9166666666666666 0.5 0.5 0.5 0.5 0.5 0.5 0.5 0.5 0.5 0.5 0.5 0.5 0.5 0.5 0.5 0.5 0.5 0.5 0.5 0.5 0.5 0.5 0.5 0.5 0.5 0.5 0.5 0.5 0.5 0.5 0.5 0.5 0.5 0.5 0.5 0.5 0.5 0.5 0.5 0.5 0.5 0.5 0.5 0.5 0.5 0.5 0.5 0.5 0.5 0.5 0.5 0.5 0.5 0.5 0.5 0.5 0.5 0.5 0.5 0.5 0.5 0.5 0.5 0.5 0.5 0.5 0.5 0.5 0.5 0.5 0.5 0.5 0.5 0.5 0.5 0.5 0.5 0.5 0.5 0.5 0.5 0.5 0.5 0.5 0.5 0.5 0.1666666666666667 0.8333333333333333 0.5 0.5 0.1666666666666667 0.8333333333333333 0.5 0.5 0.5 0.5 0.5 0.5 0.5 0.5 0.5 0.5 0.5 0.5 0.5 0.5 0.5 0.5 0.5 0.5 0.5 0.5 0.5 0.5 0.5 0.5 0.5 0.5 0.5 0.5 0.5 0.5 0.5 0.5 0.5 0.5 0.5 0.5 0.5 0.5 0.5 0.5 0.5 0.5 0.5 0.5 0.5 0.5 0.5 0.5 0.5 0.5 0.5 0.5 0.5 0.5 0.5 0.5 0.5 0.5 0.5 0.5 0.5 0.5 0.5 0.5 0.5 0.5 0.5 0.5 0.5 0.5 0.5 0.5 0.5 0.5 0.5 0.5 0.5 0.5 0.5 0.5 0.5 0.5 0.5 0.5 0.5 0.5 0.5 0.5 0.5 0.5 0.5 0.5 0.5 0.5 0.5 0.5 0.5 0.5 0.5 0.5 0.5 0.5 0.5 0.5 0.5 0.5 0.5 0.5 0.5 0.5 0.5 0.5 0.5 0.5 0.5 0.5 0.5 0.5 0.5 0.5 0.5 0.5 0.5 0.5 0.5 0.5 0.5 0.5 0.5 0.5 0.5 0.5 0.5 0.5 0.5 0.5 0.5 0.5 0.5 0.5 0.5 0.5 0.5 0.5 0.5 0.5 0.5 0.5 0.5 0.5 0.5 0.5 0.5 0.5 0.5 0.5 0.5 0.5 0.5 0.5 0.5 0.5 0.5 0.5 0.5 0.5 0.5 0.5 0.5 0.5 0.5 0.5 0.5 0.5 0.5 0.5 0.5 0.5 0.5 0.5 0.5 0.5 0.5 0.5 0.5 0.5 0.5 0.5 0.5 0.5 0.5 0.5 0.5 0.5 0.5 0.5 0.5 0.5 0.5 0.5 0.5 0.5 0.5 0.5 0.5 0.5 0.5 0.5 0.5 0.5 0.5 0.5 0.5 0.5 0.5 0.5 0.5 0.5 0.5 0.5 0.5 0.5 0.5 0.5 0.5 0.5 0.5 0.5 0.5 0.5 0.5 0.5 0.5 0.5 0.5 0.5 0.5 0.5 0.5 0.5 0.5 0.5 0.5 0.5 0.5 0.5 0.5 0.5 0.5 0.5</probabilities>
		</cpt>
		<cpt id="Crude_Death_Rate_Deaths_Per_1000_Population">
			<state id="s1_below_35" />
			<state id="s2_35_up" />
			<parents>Age Force_Sideaonsets Foreigninstall Literacy_Rate_Adult_Total_Percent_Of_People_Ages_15_And_Above Nonrevonsets</parents>
			<probabilities>0.9772727272727273 0.02272727272727273 0.5 0.5 0.9944971537001898 0.005502846299810247 0.9 0.1 0.75 0.25 0.5 0.5 0.9967532467532468 0.003246753246753247 0.5 0.5 0.5 0.5 0.5 0.5 0.5 0.5 0.5 0.5 0.5 0.5 0.5 0.5 0.5 0.5 0.5 0.5 0.9 0.1 0.5 0.5 0.9992138364779874 0.0007861635220125787 0.875 0.125 0.5 0.5 0.5 0.5 0.9919354838709677 0.008064516129032258 0.5 0.5 0.5 0.5 0.5 0.5 0.75 0.25 0.5 0.5 0.5 0.5 0.5 0.5 0.5 0.5 0.5 0.5</probabilities>
		</cpt>
		<cpt id="Inflation_Annual_Percent">
			<state id="s1_below_9299" />
			<state id="s2_9299_up" />
			<parents>Arms_Imports_Us_Inflation_Adjusted Chg_Religioningovernment Foreigninstall Leg_German Life_Expectancy_Years Oil_Consumption_Per_Cap Prevtimesinoffice Tenure</parents>
			<probabilities>0.8333333333333333 0.1666666666666667 0.5 0.5 0.5 0.5 0.5 0.5 0.5 0.5 0.5 0.5 0.5 0.5 0.5 0.5 0.9994221879815101 0.0005778120184899846 0.9941860465116279 0.005813953488372093 0.9854368932038834 0.0145631067961165 0.5 0.5 0.8333333333333333 0.1666666666666667 0.5 0.5 0.5 0.5 0.5 0.5 0.5 0.5 0.5 0.5 0.5 0.5 0.5 0.5 0.5 0.5 0.5 0.5 0.5 0.5 0.5 0.5 0.9969135802469136 0.00308641975308642 0.5 0.5 0.9 0.1 0.5 0.5 0.5 0.5 0.5 0.5 0.5 0.5 0.5 0.5 0.5 0.5 0.5 0.5 0.5 0.5 0.5 0.5 0.5 0.5 0.5 0.5 0.5 0.5 0.5 0.5 0.9967741935483871 0.003225806451612903 0.9893617021276595 0.01063829787234043 0.5 0.5 0.5 0.5 0.5 0.5 0.5 0.5 0.5 0.5 0.5 0.5 0.5 0.5 0.5 0.5 0.5 0.5 0.5 0.5 0.5 0.5 0.5 0.5 0.5 0.5 0.5 0.5 0.96875 0.03125 0.5 0.5 0.5 0.5 0.5 0.5 0.5 0.5 0.5 0.5 0.5 0.5 0.5 0.5 0.5 0.5 0.5 0.5 0.5 0.5 0.5 0.5 0.5 0.5 0.5 0.5 0.5 0.5 0.5 0.5 0.998046875 0.001953125 0.9942528735632183 0.005747126436781609 0.5 0.5 0.5 0.5 0.5 0.5 0.5 0.5 0.5 0.5 0.5 0.5 0.5 0.5 0.5 0.5 0.5 0.5 0.5 0.5 0.5 0.5 0.5 0.5 0.5 0.5 0.5 0.5 0.5 0.5 0.5 0.5 0.5 0.5 0.5 0.5 0.5 0.5 0.5 0.5 0.5 0.5 0.5 0.5 0.5 0.5 0.5 0.5 0.5 0.5 0.5 0.5 0.5 0.5 0.5 0.5 0.5 0.5 0.5 0.5 0.5 0.5 0.5 0.5 0.5 0.5 0.5 0.5 0.5 0.5 0.5 0.5 0.5 0.5 0.5 0.5 0.5 0.5 0.5 0.5 0.5 0.5 0.5 0.5 0.5 0.5 0.5 0.5 0.5 0.5 0.5 0.5 0.5 0.5 0.5 0.5 0.5 0.5 0.5 0.5 0.5 0.5 0.5 0.5 0.5 0.5 0.5 0.5 0.5 0.5 0.5 0.5 0.5 0.5 0.5 0.5 0.5 0.5 0.5 0.5 0.5 0.5 0.5 0.5 0.9285714285714285 0.07142857142857142 0.5 0.5 0.5 0.5 0.5 0.5 0.5 0.5 0.5 0.5 0.5 0.5 0.5 0.5 0.5 0.5 0.5 0.5 0.5 0.5 0.5 0.5 0.5 0.5 0.5 0.5 0.5 0.5 0.5 0.5 0.5 0.5 0.5 0.5 0.5 0.5 0.5 0.5 0.5 0.5 0.5 0.5 0.5 0.5 0.5 0.5 0.5 0.5 0.5 0.5 0.5 0.5 0.5 0.5 0.5 0.5 0.5 0.5 0.5 0.5 0.5 0.5 0.5 0.5 0.5 0.5 0.5 0.5 0.5 0.5 0.5 0.5 0.5 0.5 0.5 0.5 0.5 0.5 0.5 0.5 0.5 0.5 0.5 0.5 0.5 0.5 0.5 0.5 0.5 0.5 0.5 0.5 0.5 0.5 0.5 0.5 0.5 0.5 0.5 0.5 0.5 0.5 0.5 0.5 0.5 0.5 0.5 0.5 0.5 0.5 0.5 0.5 0.5 0.5 0.5 0.5 0.5 0.5 0.5 0.5 0.5 0.5 0.5 0.5 0.5 0.5 0.9 0.1 0.5 0.5 0.5 0.5 0.5 0.5 0.5 0.5 0.5 0.5 0.5 0.5 0.5 0.5 0.5 0.5 0.5 0.5 0.5 0.5 0.5 0.5 0.5 0.5 0.5 0.5 0.5 0.5 0.5 0.5 0.5 0.5 0.5 0.5 0.5 0.5 0.5 0.5 0.5 0.5 0.5 0.5 0.5 0.5 0.5 0.5 0.5 0.5 0.5 0.5 0.5 0.5 0.5 0.5 0.5 0.5 0.5 0.5 0.5 0.5 0.5 0.5 0.5 0.5 0.5 0.5 0.5 0.5 0.5 0.5 0.5 0.5 0.5 0.5 0.5 0.5 0.5 0.5 0.5 0.5 0.5 0.5 0.5 0.5 0.5 0.5 0.5 0.5 0.5 0.5 0.5 0.5 0.5 0.5 0.5 0.5 0.5 0.5 0.5 0.5 0.5 0.5 0.5 0.5 0.5 0.5 0.5 0.5 0.5 0.5</probabilities>
		</cpt>
		<cpt id="Population_Density_Per_Square_Km">
			<state id="s1_below_6102" />
			<state id="s2_6102_up" />
			<parents>Age Aged_15_24_Employment_Rate_Percent Arms_Imports_Us_Inflation_Adjusted Chg_Religioningovernment Force_Revonsets Leg_French Majorpower</parents>
			<probabilities>0.999457111834962 0.0005428881650380022 0.9915254237288136 0.008474576271186441 0.9936802973977695 0.006319702602230483 0.5 0.5 0.5 0.5 0.5 0.5 0.5 0.5 0.5 0.5 0.9959016393442623 0.004098360655737705 0.9736842105263157 0.02631578947368421 0.9954545454545454 0.004545454545454545 0.5 0.5 0.5 0.5 0.5 0.5 0.5 0.5 0.5 0.5 0.9 0.1 0.5 0.5 0.8333333333333333 0.1666666666666667 0.5 0.5 0.5 0.5 0.5 0.5 0.5 0.5 0.5 0.5 0.5 0.5 0.5 0.5 0.9 0.1 0.5 0.5 0.5 0.5 0.5 0.5 0.5 0.5 0.5 0.5 0.994047619047619 0.005952380952380952 0.9666666666666667 0.03333333333333333 0.9517543859649122 0.04824561403508772 0.5 0.5 0.5 0.5 0.5 0.5 0.5 0.5 0.5 0.5 0.5 0.5 0.5 0.5 0.9791666666666666 0.02083333333333333 0.5 0.5 0.5 0.5 0.5 0.5 0.5 0.5 0.5 0.5 0.5 0.5 0.5 0.5 0.5 0.5 0.5 0.5 0.5 0.5 0.5 0.5 0.5 0.5 0.5 0.5 0.5 0.5 0.5 0.5 0.5 0.5 0.5 0.5 0.5 0.5 0.5 0.5 0.5 0.5 0.5 0.5 0.9981884057971014 0.001811594202898551 0.9833333333333333 0.01666666666666667 0.9981343283582089 0.001865671641791045 0.5 0.5 0.5 0.5 0.5 0.5 0.5 0.5 0.5 0.5 0.9807692307692308 0.01923076923076923 0.9736842105263157 0.02631578947368421 0.9615384615384616 0.03846153846153846 0.5 0.5 0.5 0.5 0.5 0.5 0.75 0.25 0.5 0.5 0.5 0.5 0.5 0.5 0.5 0.5 0.5 0.5 0.5 0.5 0.5 0.5 0.5 0.5 0.5 0.5 0.5 0.5 0.5 0.5 0.5 0.5 0.5 0.5 0.5 0.5 0.5 0.5 0.5 0.5 0.5 0.5 0.98 0.02 0.9666666666666667 0.03333333333333333 0.9807692307692308 0.01923076923076923 0.5 0.5 0.5 0.5 0.5 0.5 0.5 0.5 0.5 0.5 0.9666666666666667 0.03333333333333333 0.5 0.5 0.5 0.5 0.5 0.5 0.5 0.5 0.5 0.5 0.5 0.5 0.5 0.5 0.5 0.5 0.5 0.5 0.5 0.5 0.5 0.5 0.5 0.5 0.5 0.5 0.5 0.5 0.5 0.5 0.5 0.5 0.5 0.5 0.5 0.5 0.5 0.5 0.5 0.5 0.5 0.5 0.5 0.5 0.5 0.5</probabilities>
		</cpt>
		<cpt id="Radicalideology">
			<state id="s1_below_0" />
			<state id="s2_0_up" />
			<parents>Chg_Nameofcountry Chg_Womenandethnicstatus Foreigninstall Gdp_Per_Capita_Yearly_Growth Leg_Scandivanian Muslim Population_Density_Per_Square_Km Tenure</parents>
			<probabilities>0.9338651569737521 0.06613484302624807 0.4464285714285714 0.5535714285714285 0.9642857142857142 0.03571428571428571 0.5 0.5 0.8618090452261307 0.1381909547738694 0.9895833333333333 0.01041666666666667 0.5 0.5 0.5 0.5 0.9956140350877193 0.004385964912280702 0.5 0.5 0.5 0.5 0.5 0.5 0.5 0.5 0.5 0.5 0.5 0.5 0.5 0.5 0.5 0.5 0.75 0.25 0.5 0.5 0.5 0.5 0.5 0.5 0.5 0.5 0.5 0.5 0.5 0.5 0.5 0.5 0.5 0.5 0.5 0.5 0.5 0.5 0.5 0.5 0.5 0.5 0.5 0.5 0.5 0.5 0.8020833333333333 0.1979166666666667 0.9893617021276595 0.01063829787234043 0.5 0.5 0.5 0.5 0.9210526315789473 0.07894736842105263 0.5 0.5 0.5 0.5 0.5 0.5 0.9375 0.0625 0.5 0.5 0.5 0.5 0.5 0.5 0.5 0.5 0.5 0.5 0.5 0.5 0.5 0.5 0.25 0.75 0.5 0.5 0.5 0.5 0.5 0.5 0.5 0.5 0.5 0.5 0.5 0.5 0.5 0.5 0.5 0.5 0.5 0.5 0.5 0.5 0.5 0.5 0.5 0.5 0.5 0.5 0.5 0.5 0.5 0.5 0.509009009009009 0.490990990990991 0.5 0.5 0.5 0.5 0.5 0.5 0.5952380952380952 0.4047619047619048 0.5 0.5 0.5 0.5 0.5 0.5 0.5 0.5 0.5 0.5 0.5 0.5 0.5 0.5 0.5 0.5 0.5 0.5 0.5 0.5 0.5 0.5 0.75 0.25 0.5 0.5 0.5 0.5 0.5 0.5 0.5 0.5 0.5 0.5 0.5 0.5 0.5 0.5 0.5 0.5 0.5 0.5 0.5 0.5 0.5 0.5 0.5 0.5 0.5 0.5 0.5 0.5 0.5 0.5 0.5 0.5 0.5 0.5 0.5 0.5 0.5 0.5 0.5 0.5 0.5 0.5 0.5 0.5 0.5 0.5 0.5 0.5 0.5 0.5 0.5 0.5 0.5 0.5 0.5 0.5 0.5 0.5 0.5 0.5 0.5 0.5 0.5 0.5 0.5 0.5 0.5 0.5 0.5 0.5 0.5 0.5 0.5 0.5 0.5 0.5 0.5 0.5 0.5 0.5 0.5 0.5 0.5 0.5 0.5 0.5 0.5 0.5 0.5 0.5 0.5 0.5 0.5 0.5 0.108 0.892 0.5 0.5 0.5 0.5 0.5 0.5 0.357843137254902 0.642156862745098 0.5 0.5 0.5 0.5 0.5 0.5 0.5 0.5 0.5 0.5 0.5 0.5 0.5 0.5 0.5 0.5 0.5 0.5 0.5 0.5 0.5 0.5 0.5 0.5 0.5 0.5 0.5 0.5 0.5 0.5 0.5 0.5 0.5 0.5 0.5 0.5 0.5 0.5 0.5 0.5 0.5 0.5 0.5 0.5 0.5 0.5 0.5 0.5 0.5 0.5 0.5 0.5 0.5 0.5 0.5 0.5 0.5 0.5 0.5 0.5 0.5 0.5 0.5 0.5 0.5 0.5 0.5 0.5 0.5 0.5 0.5 0.5 0.5 0.5 0.5 0.5 0.5 0.5 0.5 0.5 0.5 0.5 0.5 0.5 0.5 0.5 0.5 0.5 0.5 0.5 0.5 0.5 0.5 0.5 0.5 0.5 0.5 0.5 0.5 0.5 0.5 0.5 0.5 0.5 0.5 0.5 0.5 0.5 0.5 0.5 0.5 0.5 0.5 0.5 0.5 0.5 0.5 0.5 0.01219512195121951 0.9878048780487805 0.01219512195121951 0.9878048780487805 0.5 0.5 0.5 0.5 0.01666666666666667 0.9833333333333333 0.5 0.5 0.5 0.5 0.5 0.5 0.5 0.5 0.5 0.5 0.5 0.5 0.5 0.5 0.5 0.5 0.5 0.5 0.5 0.5 0.5 0.5 0.5 0.5 0.5 0.5 0.5 0.5 0.5 0.5 0.5 0.5 0.5 0.5 0.5 0.5 0.5 0.5 0.5 0.5 0.5 0.5 0.5 0.5 0.5 0.5 0.5 0.5 0.5 0.5 0.5 0.5 0.5 0.5 0.5 0.5 0.5 0.5 0.5 0.5 0.5 0.5 0.5 0.5 0.5 0.5 0.5 0.5 0.5 0.5 0.5 0.5 0.5 0.5 0.5 0.5 0.5 0.5 0.5 0.5 0.5 0.5 0.5 0.5 0.5 0.5 0.5 0.5 0.5 0.5 0.5 0.5 0.5 0.5 0.5 0.5 0.5 0.5 0.5 0.5 0.5 0.5 0.5 0.5 0.5 0.5 0.5 0.5 0.5 0.5 0.5 0.5 0.5 0.5 0.5 0.5 0.5 0.5</probabilities>
		</cpt>
		<cpt id="Revstart">
			<state id="s1_below_0" />
			<state id="s2_0_up" />
			<parents>Aged_15_24_Unemployment_Rate_Percent Aged_15_64_Labour_Force_Participation_Rate_Percent Aged_15Plus_Employment_Rate_Percent Crude_Death_Rate_Deaths_Per_1000_Population Gdp_Per_Capita_Yearly_Growth Leg_Scandivanian Population_Growth_Annual_Percent Usedforce</parents>
			<probabilities>0.5 0.5 0.75 0.25 0.5 0.5 0.5 0.5 0.5 0.5 0.5 0.5 0.5 0.5 0.5 0.5 0.5 0.5 0.5 0.5 0.5 0.5 0.5 0.5 0.5 0.5 0.5 0.5 0.5 0.5 0.5 0.5 0.5 0.5 0.5 0.5 0.5 0.5 0.5 0.5 0.5 0.5 0.5 0.5 0.5 0.5 0.5 0.5 0.5 0.5 0.5 0.5 0.5 0.5 0.5 0.5 0.5 0.5 0.5 0.5 0.5 0.5 0.5 0.5 0.9952380952380954 0.004761904761904762 0.9958333333333333 0.004166666666666667 0.9666666666666667 0.03333333333333333 0.5 0.5 0.5 0.5 0.5 0.5 0.5 0.5 0.5 0.5 0.5 0.5 0.5 0.5 0.5 0.5 0.5 0.5 0.5 0.5 0.5 0.5 0.5 0.5 0.5 0.5 0.5 0.5 0.5 0.5 0.5 0.5 0.5 0.5 0.5 0.5 0.5 0.5 0.5 0.5 0.5 0.5 0.5 0.5 0.5 0.5 0.5 0.5 0.5 0.5 0.5 0.5 0.5 0.5 0.5 0.5 0.5 0.5 0.5 0.5 0.5 0.5 0.5 0.5 0.5 0.5 0.5 0.5 0.5 0.5 0.5 0.5 0.5 0.5 0.5 0.5 0.5 0.5 0.5 0.5 0.5 0.5 0.5 0.5 0.5 0.5 0.5 0.5 0.5 0.5 0.5 0.5 0.5 0.5 0.5 0.5 0.5 0.5 0.5 0.5 0.5 0.5 0.5 0.5 0.5 0.5 0.5 0.5 0.5 0.5 0.5 0.5 0.5 0.5 0.5 0.5 0.5 0.5 0.5 0.5 0.5 0.5 0.997475906379073 0.002524093620927031 0.9565952649379932 0.04340473506200676 0.9833333333333333 0.01666666666666667 0.9625 0.03750000000000001 0.9957627118644068 0.00423728813559322 0.5 0.5 0.5 0.5 0.5 0.5 0.8333333333333333 0.1666666666666667 0.5 0.5 0.5 0.5 0.75 0.25 0.5 0.5 0.5 0.5 0.5 0.5 0.5 0.5 0.9375 0.0625 0.9375 0.0625 0.5 0.5 0.5 0.5 0.5 0.5 0.5 0.5 0.5 0.5 0.5 0.5 0.5 0.5 0.5 0.5 0.5 0.5 0.5 0.5 0.5 0.5 0.5 0.5 0.5 0.5 0.5 0.5 0.5 0.5 0.5 0.5 0.5 0.5 0.5 0.5 0.5 0.5 0.5 0.5 0.5 0.5 0.5 0.5 0.5 0.5 0.5 0.5 0.5 0.5 0.5 0.5 0.5 0.5 0.5 0.5 0.5 0.5 0.5 0.5 0.5 0.5 0.5 0.5 0.5 0.5 0.5 0.5 0.5 0.5 0.5 0.5 0.5 0.5 0.5 0.5 0.5 0.5 0.5 0.5 0.5 0.5 0.5 0.5 0.5 0.5 0.5 0.5 0.5 0.5 0.5 0.5 0.5 0.5 0.5 0.5 0.5 0.5 0.5 0.5 0.5 0.5 0.5 0.5 0.5 0.5 0.5 0.5 0.5 0.5 0.5 0.5 0.5 0.5 0.5 0.5 0.5 0.5 0.5 0.5 0.5 0.5 0.5 0.5 0.5 0.5 0.5 0.5 0.5 0.5 0.5 0.5 0.5 0.5 0.5 0.5 0.5 0.5 0.5 0.5 0.5 0.5 0.5 0.5 0.5 0.5 0.5 0.5 0.5 0.5 0.5 0.5 0.5 0.5 0.5 0.5 0.5 0.5 0.5 0.5 0.5 0.5 0.5 0.5 0.5 0.5 0.5 0.5 0.5 0.5 0.5 0.5 0.5 0.5 0.5 0.5 0.5 0.5 0.5 0.5 0.5 0.5 0.5 0.5 0.5 0.5 0.5 0.5 0.5 0.5 0.5 0.5 0.5 0.5 0.5 0.5 0.5 0.5 0.5 0.5 0.5 0.5 0.5 0.5 0.5 0.5 0.5 0.5 0.5 0.5 0.5 0.5 0.5 0.5 0.5 0.5 0.5 0.5 0.5 0.5 0.9545454545454546 0.04545454545454546 0.5 0.5 0.5 0.5 0.5 0.5 0.875 0.125 0.5 0.5 0.5 0.5 0.5 0.5 0.5 0.5 0.5 0.5 0.5 0.5 0.5 0.5 0.5 0.5 0.5 0.5 0.5 0.5 0.5 0.5 0.5 0.5 0.5 0.5 0.5 0.5 0.5 0.5 0.5 0.5 0.5 0.5 0.5 0.5 0.5 0.5 0.5 0.5 0.5 0.5 0.5 0.5 0.5 0.5 0.5 0.5 0.5 0.5 0.5 0.5 0.5 0.5</probabilities>
		</cpt>
		<cpt id="Tpop">
			<state id="s1_below_467079" />
			<state id="s2_467079_up" />
			<parents>Oecd Chg_Revolutionarycommittee Child_Mortality_0_5_Year_Olds_Dying_Per_1000_Born Crude_Death_Rate_Deaths_Per_1000_Population Force_Onsets Leg_Scandivanian Literacy_Rate_Youth_Female_Percent_Of_Females_Ages_15_24 Oil_Consumption_Per_Cap</parents>
			<probabilities>0.8076923076923077 0.1923076923076923 0.5 0.5 0.9697662601626017 0.03023373983739838 0.8333333333333333 0.1666666666666667 0.5 0.5 0.5 0.5 0.5 0.5 0.5 0.5 0.5 0.5 0.5 0.5 0.5 0.5 0.5 0.5 0.5 0.5 0.5 0.5 0.5 0.5 0.5 0.5 0.5 0.5 0.5 0.5 0.875 0.125 0.5 0.5 0.5 0.5 0.5 0.5 0.5 0.5 0.5 0.5 0.5 0.5 0.5 0.5 0.5 0.5 0.5 0.5 0.5 0.5 0.5 0.5 0.5 0.5 0.5 0.5 0.9 0.1 0.5 0.5 0.9894366197183099 0.01056338028169014 0.5 0.5 0.5 0.5 0.5 0.5 0.5 0.5 0.5 0.5 0.5 0.5 0.5 0.5 0.5 0.5 0.5 0.5 0.5 0.5 0.5 0.5 0.5 0.5 0.5 0.5 0.5 0.5 0.5 0.5 0.9583333333333333 0.04166666666666666 0.5 0.5 0.5 0.5 0.5 0.5 0.5 0.5 0.5 0.5 0.5 0.5 0.5 0.5 0.5 0.5 0.5 0.5 0.5 0.5 0.5 0.5 0.5 0.5 0.5 0.5 0.875 0.125 0.5 0.5 0.9541139240506329 0.04588607594936709 0.5 0.5 0.5 0.5 0.5 0.5 0.5 0.5 0.5 0.5 0.5 0.5 0.5 0.5 0.75 0.25 0.5 0.5 0.5 0.5 0.5 0.5 0.5 0.5 0.5 0.5 0.5 0.5 0.5 0.5 0.5 0.5 0.5 0.5 0.5 0.5 0.5 0.5 0.5 0.5 0.5 0.5 0.5 0.5 0.5 0.5 0.5 0.5 0.5 0.5 0.5 0.5 0.5 0.5 0.5 0.5 0.5 0.5 0.8333333333333333 0.1666666666666667 0.5 0.5 0.8565217391304348 0.1434782608695652 0.5 0.5 0.5 0.5 0.5 0.5 0.5 0.5 0.5 0.5 0.5 0.5 0.5 0.5 0.5 0.5 0.5 0.5 0.5 0.5 0.5 0.5 0.5 0.5 0.5 0.5 0.5 0.5 0.5 0.5 0.5 0.5 0.5 0.5 0.5 0.5 0.5 0.5 0.5 0.5 0.5 0.5 0.5 0.5 0.5 0.5 0.5 0.5 0.5 0.5 0.5 0.5 0.5 0.5 0.5 0.5 0.5 0.5 0.5 0.5 0.5 0.5 0.9990059642147117 0.0009940357852882703 0.5 0.5 0.5 0.5 0.5 0.5 0.9958677685950413 0.004132231404958678 0.5 0.5 0.5 0.5 0.5 0.5 0.5 0.5 0.5 0.5 0.5 0.5 0.5 0.5 0.5 0.5 0.5 0.5 0.5 0.5 0.5 0.5 0.5 0.5 0.5 0.5 0.5 0.5 0.5 0.5 0.5 0.5 0.5 0.5 0.5 0.5 0.5 0.5 0.5 0.5 0.5 0.5 0.5 0.5 0.5 0.5 0.5 0.5 0.5 0.5 0.5 0.5 0.5 0.5 0.9838709677419355 0.01612903225806452 0.5 0.5 0.5 0.5 0.5 0.5 0.5 0.5 0.5 0.5 0.5 0.5 0.5 0.5 0.5 0.5 0.5 0.5 0.5 0.5 0.5 0.5 0.5 0.5 0.5 0.5 0.5 0.5 0.5 0.5 0.5 0.5 0.5 0.5 0.5 0.5 0.5 0.5 0.5 0.5 0.5 0.5 0.5 0.5 0.5 0.5 0.5 0.5 0.5 0.5 0.5 0.5 0.5 0.5 0.5 0.5 0.5 0.5 0.5 0.5 0.5 0.5 0.9285714285714285 0.07142857142857142 0.5 0.5 0.5 0.5 0.5 0.5 0.5 0.5 0.5 0.5 0.5 0.5 0.5 0.5 0.5 0.5 0.5 0.5 0.5 0.5 0.5 0.5 0.5 0.5 0.5 0.5 0.5 0.5 0.5 0.5 0.5 0.5 0.5 0.5 0.5 0.5 0.5 0.5 0.5 0.5 0.5 0.5 0.5 0.5 0.5 0.5 0.5 0.5 0.5 0.5 0.5 0.5 0.5 0.5 0.5 0.5 0.5 0.5 0.5 0.5 0.5 0.5 0.5 0.5 0.5 0.5 0.5 0.5 0.5 0.5 0.5 0.5 0.5 0.5 0.5 0.5 0.5 0.5 0.5 0.5 0.5 0.5 0.5 0.5 0.5 0.5 0.5 0.5 0.5 0.5 0.5 0.5 0.5 0.5 0.5 0.5 0.5 0.5 0.5 0.5 0.5 0.5 0.5 0.5 0.5 0.5 0.5 0.5 0.5 0.5 0.5 0.5 0.5 0.5 0.5 0.5 0.5 0.5 0.5 0.5 0.5 0.5</probabilities>
		</cpt>
		<cpt id="Urban_Population_Percent_Of_Total">
			<state id="s1_below_33" />
			<state id="s2_33_up" />
			<parents>Aged_15_64_Labour_Force_Participation_Rate_Percent Chg_Religioningovernment Crude_Birth_Rate_Births_Per_1000_Population Flethfrac Gender Leg_German Life_Expectancy_Years</parents>
			<probabilities>0.5 0.5 0.01851851851851852 0.9814814814814814 0.5 0.5 0.5 0.5 0.5 0.5 0.5 0.5 0.5 0.5 0.5 0.5 0.5 0.5 0.125 0.875 0.5 0.5 0.5 0.5 0.5 0.5 0.5 0.5 0.5 0.5 0.5 0.5 0.5 0.5 0.197986577181208 0.802013422818792 0.5 0.5 0.5 0.5 0.5 0.5 0.5 0.5 0.5 0.5 0.5 0.5 0.5 0.5 0.7857142857142857 0.2142857142857143 0.5 0.5 0.5 0.5 0.5 0.5 0.9166666666666666 0.08333333333333333 0.5 0.5 0.5 0.5 0.5 0.5 0.5 0.5 0.5 0.5 0.5 0.5 0.5 0.5 0.5 0.5 0.5 0.5 0.5 0.5 0.5 0.5 0.1666666666666667 0.8333333333333333 0.5 0.5 0.5 0.5 0.5 0.5 0.5 0.5 0.5 0.5 0.5 0.5 0.5 0.5 0.5 0.5 0.5 0.5 0.5 0.5 0.5 0.5 0.5 0.5 0.5 0.5 0.5 0.5 0.5 0.5 0.5571428571428572 0.4428571428571428 0.5 0.5 0.5 0.5 0.5 0.5 0.5 0.5 0.5 0.5 0.5 0.5 0.5 0.5 0.03236459709379128 0.9676354029062088 0.5 0.5 0.004347826086956522 0.9956521739130435 0.5 0.5 0.02083333333333333 0.9791666666666666 0.5 0.5 0.5 0.5 0.5 0.5 0.003246753246753247 0.9967532467532468 0.5 0.5 0.5 0.5 0.5 0.5 0.5 0.5 0.5 0.5 0.5 0.5 0.5 0.5 0.1663560111835974 0.8336439888164026 0.5 0.5 0.4583333333333333 0.5416666666666666 0.5 0.5 0.03571428571428571 0.9642857142857142 0.5 0.5 0.5 0.5 0.5 0.5 0.4468791500664011 0.5531208499335989 0.5 0.5 0.7181818181818181 0.2818181818181818 0.5 0.5 0.875 0.125 0.5 0.5 0.75 0.25 0.5 0.5 0.0078125 0.9921875 0.5 0.5 0.5 0.5 0.5 0.5 0.5 0.5 0.5 0.5 0.5 0.5 0.5 0.5 0.05 0.9500000000000001 0.5 0.5 0.5 0.5 0.5 0.5 0.5 0.5 0.5 0.5 0.5 0.5 0.5 0.5 0.5444444444444445 0.4555555555555555 0.5 0.5 0.5 0.5 0.5 0.5 0.5 0.5 0.5 0.5 0.5 0.5 0.5 0.5 0.7355769230769231 0.2644230769230769 0.5 0.5 0.5 0.5 0.5 0.5 0.5 0.5 0.5 0.5 0.5 0.5</probabilities>
		</cpt>
	</nodes>
	<extensions>
		<genie version="1.0" app="GeNIe 2.3.3705.0 ACADEMIC" name="df7-del" faultnameformat="nodestate">
			<node id="Oecd">
				<name>Oecd</name>
				<interior color="e5f6f7" />
				<outline color="000080" />
				<font color="000000" name="Arial" size="8" />
				<position>1354 10 1426 58</position>
			</node>
			<node id="Age0">
				<name>Age0</name>
				<interior color="e5f6f7" />
				<outline color="000080" />
				<font color="000000" name="Arial" size="8" />
				<position>1162 10 1234 58</position>
			</node>
			<node id="Age">
				<name>Age</name>
				<interior color="e5f6f7" />
				<outline color="000080" />
				<font color="000000" name="Arial" size="8" />
				<position>10 10 82 58</position>
			</node>
			<node id="Aged_15_24_Employment_Rate_Percent">
				<name>Aged.15.24.Employment.Rate.Percent</name>
				<interior color="e5f6f7" />
				<outline color="000080" />
				<font color="000000" name="Arial" size="8" />
				<position>586 10 658 58</position>
			</node>
			<node id="Aged_15_24_Unemployment_Rate_Percent">
				<name>Aged.15.24.Unemployment.Rate.Percent</name>
				<interior color="e5f6f7" />
				<outline color="000080" />
				<font color="000000" name="Arial" size="8" />
				<position>10 74 82 122</position>
			</node>
			<node id="Aged_15_64_Labour_Force_Participation_Rate_Percent">
				<name>Aged.15.64.Labour.Force.Participation.Rate.Percent</name>
				<interior color="e5f6f7" />
				<outline color="000080" />
				<font color="000000" name="Arial" size="8" />
				<position>682 10 754 58</position>
			</node>
			<node id="Aged_15Plus_Employment_Rate_Percent">
				<name>Aged.15Plus.Employment.Rate.Percent</name>
				<interior color="e5f6f7" />
				<outline color="000080" />
				<font color="000000" name="Arial" size="8" />
				<position>682 74 754 122</position>
			</node>
			<node id="Aged_15Plus_Labour_Force_Participation_Rate_Percent">
				<name>Aged.15Plus.Labour.Force.Participation.Rate.Percent</name>
				<interior color="e5f6f7" />
				<outline color="000080" />
				<font color="000000" name="Arial" size="8" />
				<position>1450 10 1522 58</position>
			</node>
			<node id="Armed_Forces_Personnel_Percent_Of_Labor_Force">
				<name>Armed.Forces.Personnel.Percent.Of.Labor.Force</name>
				<interior color="e5f6f7" />
				<outline color="000080" />
				<font color="000000" name="Arial" size="8" />
				<position>682 138 754 186</position>
			</node>
			<node id="Arms_Imports_Us_Inflation_Adjusted">
				<name>Arms.Imports.Us.Inflation.Adjusted</name>
				<interior color="e5f6f7" />
				<outline color="000080" />
				<font color="000000" name="Arial" size="8" />
				<position>682 202 754 250</position>
			</node>
			<node id="Borders">
				<name>Borders</name>
				<interior color="e5f6f7" />
				<outline color="000080" />
				<font color="000000" name="Arial" size="8" />
				<position>106 10 178 58</position>
			</node>
			<node id="Chg_Executivepower">
				<name>Chg.Executivepower</name>
				<interior color="e5f6f7" />
				<outline color="000080" />
				<font color="000000" name="Arial" size="8" />
				<position>874 10 946 58</position>
			</node>
			<node id="Chg_Nameofcountry">
				<name>Chg.Nameofcountry</name>
				<interior color="e5f6f7" />
				<outline color="000080" />
				<font color="000000" name="Arial" size="8" />
				<position>1642 10 1714 58</position>
			</node>
			<node id="Chg_Politicalideology">
				<name>Chg.Politicalideology</name>
				<interior color="e5f6f7" />
				<outline color="000080" />
				<font color="000000" name="Arial" size="8" />
				<position>874 74 946 122</position>
			</node>
			<node id="Chg_Propertyowernship">
				<name>Chg.Propertyowernship</name>
				<interior color="e5f6f7" />
				<outline color="000080" />
				<font color="000000" name="Arial" size="8" />
				<position>874 138 946 186</position>
			</node>
			<node id="Chg_Religioningovernment">
				<name>Chg.Religioningovernment</name>
				<interior color="e5f6f7" />
				<outline color="000080" />
				<font color="000000" name="Arial" size="8" />
				<position>106 74 178 122</position>
			</node>
			<node id="Chg_Revolutionarycommittee">
				<name>Chg.Revolutionarycommittee</name>
				<interior color="e5f6f7" />
				<outline color="000080" />
				<font color="000000" name="Arial" size="8" />
				<position>490 10 562 58</position>
			</node>
			<node id="Chg_Womenandethnicstatus">
				<name>Chg.Womenandethnicstatus</name>
				<interior color="e5f6f7" />
				<outline color="000080" />
				<font color="000000" name="Arial" size="8" />
				<position>1162 74 1234 122</position>
			</node>
			<node id="Child_Mortality_0_5_Year_Olds_Dying_Per_1000_Born">
				<name>Child.Mortality.0.5.Year.Olds.Dying.Per.1000.Born</name>
				<interior color="e5f6f7" />
				<outline color="000080" />
				<font color="000000" name="Arial" size="8" />
				<position>1258 10 1330 58</position>
			</node>
			<node id="Coldwar">
				<name>Coldwar</name>
				<interior color="e5f6f7" />
				<outline color="000080" />
				<font color="000000" name="Arial" size="8" />
				<position>1258 74 1330 122</position>
			</node>
			<node id="Crude_Birth_Rate_Births_Per_1000_Population">
				<name>Crude.Birth.Rate.Births.Per.1000.Population</name>
				<interior color="e5f6f7" />
				<outline color="000080" />
				<font color="000000" name="Arial" size="8" />
				<position>586 74 658 122</position>
			</node>
			<node id="Crude_Death_Rate_Deaths_Per_1000_Population">
				<name>Crude.Death.Rate.Deaths.Per.1000.Population</name>
				<interior color="e5f6f7" />
				<outline color="000080" />
				<font color="000000" name="Arial" size="8" />
				<position>1642 74 1714 122</position>
			</node>
			<node id="Flethfrac">
				<name>Flethfrac</name>
				<interior color="e5f6f7" />
				<outline color="000080" />
				<font color="000000" name="Arial" size="8" />
				<position>106 138 178 186</position>
			</node>
			<node id="Flgdpen">
				<name>Flgdpen</name>
				<interior color="e5f6f7" />
				<outline color="000080" />
				<font color="000000" name="Arial" size="8" />
				<position>778 10 850 58</position>
			</node>
			<node id="Force_Onsets">
				<name>Force.Onsets</name>
				<interior color="e5f6f7" />
				<outline color="000080" />
				<font color="000000" name="Arial" size="8" />
				<position>10 138 82 186</position>
			</node>
			<node id="Force_Revonsets">
				<name>Force.Revonsets</name>
				<interior color="e5f6f7" />
				<outline color="000080" />
				<font color="000000" name="Arial" size="8" />
				<position>106 202 178 250</position>
			</node>
			<node id="Force_Sideaonsets">
				<name>Force.Sideaonsets</name>
				<interior color="e5f6f7" />
				<outline color="000080" />
				<font color="000000" name="Arial" size="8" />
				<position>394 10 466 58</position>
			</node>
			<node id="Foreigninstall">
				<name>Foreigninstall</name>
				<interior color="e5f6f7" />
				<outline color="000080" />
				<font color="000000" name="Arial" size="8" />
				<position>874 202 946 250</position>
			</node>
			<node id="Foundingleader">
				<name>Foundingleader</name>
				<interior color="e5f6f7" />
				<outline color="000080" />
				<font color="000000" name="Arial" size="8" />
				<position>586 138 658 186</position>
			</node>
			<node id="Gdp_Per_Capita_Yearly_Growth">
				<name>Gdp.Per.Capita.Yearly.Growth</name>
				<interior color="e5f6f7" />
				<outline color="000080" />
				<font color="000000" name="Arial" size="8" />
				<position>10 202 82 250</position>
			</node>
			<node id="Gender">
				<name>Gender</name>
				<interior color="e5f6f7" />
				<outline color="000080" />
				<font color="000000" name="Arial" size="8" />
				<position>106 266 178 314</position>
			</node>
			<node id="Hdi_Human_Development_Index">
				<name>Hdi.Human.Development.Index</name>
				<interior color="e5f6f7" />
				<outline color="000080" />
				<font color="000000" name="Arial" size="8" />
				<position>778 74 850 122</position>
			</node>
			<node id="Inflation_Annual_Percent">
				<name>Inflation.Annual.Percent</name>
				<interior color="e5f6f7" />
				<outline color="000080" />
				<font color="000000" name="Arial" size="8" />
				<position>1066 10 1138 58</position>
			</node>
			<node id="Irregulartransition">
				<name>Irregulartransition</name>
				<interior color="e5f6f7" />
				<outline color="000080" />
				<font color="000000" name="Arial" size="8" />
				<position>202 10 274 58</position>
			</node>
			<node id="Leg_British">
				<name>Leg.British</name>
				<interior color="e5f6f7" />
				<outline color="000080" />
				<font color="000000" name="Arial" size="8" />
				<position>874 266 946 314</position>
			</node>
			<node id="Leg_French">
				<name>Leg.French</name>
				<interior color="e5f6f7" />
				<outline color="000080" />
				<font color="000000" name="Arial" size="8" />
				<position>1258 138 1330 186</position>
			</node>
			<node id="Leg_German">
				<name>Leg.German</name>
				<interior color="e5f6f7" />
				<outline color="000080" />
				<font color="000000" name="Arial" size="8" />
				<position>778 138 850 186</position>
			</node>
			<node id="Leg_Scandivanian">
				<name>Leg.Scandivanian</name>
				<interior color="e5f6f7" />
				<outline color="000080" />
				<font color="000000" name="Arial" size="8" />
				<position>490 74 562 122</position>
			</node>
			<node id="Leg_Socialist">
				<name>Leg.Socialist</name>
				<interior color="e5f6f7" />
				<outline color="000080" />
				<font color="000000" name="Arial" size="8" />
				<position>1450 74 1522 122</position>
			</node>
			<node id="Life_Expectancy_Female">
				<name>Life.Expectancy.Female</name>
				<interior color="e5f6f7" />
				<outline color="000080" />
				<font color="000000" name="Arial" size="8" />
				<position>970 10 1042 58</position>
			</node>
			<node id="Life_Expectancy_Male">
				<name>Life.Expectancy.Male</name>
				<interior color="e5f6f7" />
				<outline color="000080" />
				<font color="000000" name="Arial" size="8" />
				<position>1066 74 1138 122</position>
			</node>
			<node id="Life_Expectancy_Years">
				<name>Life.Expectancy.Years</name>
				<interior color="e5f6f7" />
				<outline color="000080" />
				<font color="000000" name="Arial" size="8" />
				<position>10 266 82 314</position>
			</node>
			<node id="Literacy_Rate_Adult_Total_Percent_Of_People_Ages_15_And_Above">
				<name>Literacy.Rate.Adult.Total.Percent.Of.People.Ages.15.And.Above</name>
				<interior color="e5f6f7" />
				<outline color="000080" />
				<font color="000000" name="Arial" size="8" />
				<position>1546 10 1618 58</position>
			</node>
			<node id="Literacy_Rate_Youth_Female_Percent_Of_Females_Ages_15_24">
				<name>Literacy.Rate.Youth.Female.Percent.Of.Females.Ages.15.24</name>
				<interior color="e5f6f7" />
				<outline color="000080" />
				<font color="000000" name="Arial" size="8" />
				<position>1162 138 1234 186</position>
			</node>
			<node id="Majorpower">
				<name>Majorpower</name>
				<interior color="e5f6f7" />
				<outline color="000080" />
				<font color="000000" name="Arial" size="8" />
				<position>490 138 562 186</position>
			</node>
			<node id="Male_Long_Term_Unemployment_Rate_Percent">
				<name>Male.Long.Term.Unemployment.Rate.Percent</name>
				<interior color="e5f6f7" />
				<outline color="000080" />
				<font color="000000" name="Arial" size="8" />
				<position>1354 74 1426 122</position>
			</node>
			<node id="Median_Age_Years">
				<name>Median.Age.Years</name>
				<interior color="e5f6f7" />
				<outline color="000080" />
				<font color="000000" name="Arial" size="8" />
				<position>394 74 466 122</position>
			</node>
			<node id="Military_Expenditure_Percent_Of_Gdp">
				<name>Military.Expenditure.Percent.Of.Gdp</name>
				<interior color="e5f6f7" />
				<outline color="000080" />
				<font color="000000" name="Arial" size="8" />
				<position>394 138 466 186</position>
			</node>
			<node id="Muslim">
				<name>Muslim</name>
				<interior color="e5f6f7" />
				<outline color="000080" />
				<font color="000000" name="Arial" size="8" />
				<position>778 202 850 250</position>
			</node>
			<node id="Nonrevonsets">
				<name>Nonrevonsets</name>
				<interior color="e5f6f7" />
				<outline color="000080" />
				<font color="000000" name="Arial" size="8" />
				<position>970 74 1042 122</position>
			</node>
