<?xml version="1.0" encoding="ISO-8859-1"?>
<!-- This network was created in GeNIe Academic, which can be used for educational and research purposes only -->
<smile version="1.0" id="Unnamed" numsamples="10000" discsamples="10000">
	<nodes>
		<cpt id="RevolutionDummy">
			<state id="State0" />
			<state id="State1" />
			<probabilities>0.6166666666666667 0.3833333333333333</probabilities>
		</cpt>
		<cpt id="EthnicFractionalization">
			<state id="s01_below_0" />
			<state id="s02_0_0" />
			<state id="s03_0_0" />
			<state id="s04_0_3" />
			<state id="s05_3_10" />
			<state id="s06_10_21" />
			<state id="s07_21_43" />
			<state id="s08_43_134" />
			<state id="s09_134_47729" />
			<state id="s10_47729_up" />
			<parents>RevolutionDummy</parents>
			<probabilities>0.3210526315789473 0.3736842105263157 0.2684210526315789 0.005263157894736844 0.005263157894736844 0.005263157894736844 0.005263157894736844 0.005263157894736844 0.005263157894736844 0.005263157894736844 0.2583333333333333 0.3416666666666666 0.2583333333333333 0.09166666666666667 0.008333333333333335 0.008333333333333335 0.008333333333333335 0.008333333333333335 0.008333333333333335 0.008333333333333335</probabilities>
		</cpt>
		<cpt id="Unemployement">
			<state id="s01_below_0" />
			<state id="s02_0_0" />
			<state id="s03_0_0" />
			<state id="s04_0_3" />
			<state id="s05_3_10" />
			<state id="s06_10_21" />
			<state id="s07_21_43" />
			<state id="s08_43_134" />
			<state id="s09_134_47729" />
			<state id="s10_47729_up" />
			<parents>EthnicFractionalization RevolutionDummy</parents>
			<probabilities>0.01428571428571429 0.01428571428571429 0.01428571428571429 0.01428571428571429 0.3000000000000001 0.5857142857142859 0.01428571428571429 0.01428571428571429 0.01428571428571429 0.01428571428571429 0.02499999999999999 0.02499999999999999 0.02499999999999999 0.02499999999999999 0.02499999999999999 0.525 0.275 0.02499999999999999 0.02499999999999999 0.02499999999999999 0.0125 0.0125 0.0125 0.2625 0.2625 0.3875 0.0125 0.0125 0.0125 0.0125 0.02 0.02 0.02 0.02 0.02 0.8200000000000002 0.02 0.02 0.02 0.02 0.01666666666666666 0.1833333333333333 0.01666666666666666 0.01666666666666666 0.01666666666666666 0.35 0.1833333333333333 0.1833333333333333 0.01666666666666666 0.01666666666666666 0.02499999999999999 0.02499999999999999 0.02499999999999999 0.02499999999999999 0.02499999999999999 0.02499999999999999 0.525 0.275 0.02499999999999999 0.02499999999999999 0.1 0.1 0.1 0.1 0.1 0.1 0.1 0.1 0.1 0.1 0.05 0.05 0.05 0.05 0.5500000000000002 0.05 0.05 0.05 0.05 0.05 0.1 0.1 0.1 0.1 0.1 0.1 0.1 0.1 0.1 0.1 0.1 0.1 0.1 0.1 0.1 0.1 0.1 0.1 0.1 0.1 0.1 0.1 0.1 0.1 0.1 0.1 0.1 0.1 0.1 0.1 0.1 0.1 0.1 0.1 0.1 0.1 0.1 0.1 0.1 0.1 0.1 0.1 0.1 0.1 0.1 0.1 0.1 0.1 0.1 0.1 0.1 0.1 0.1 0.1 0.1 0.1 0.1 0.1 0.1 0.1 0.1 0.1 0.1 0.1 0.1 0.1 0.1 0.1 0.1 0.1 0.1 0.1 0.1 0.1 0.1 0.1 0.1 0.1 0.1 0.1 0.1 0.1 0.1 0.1 0.1 0.1 0.1 0.1 0.1 0.1 0.1 0.1 0.1 0.1 0.1 0.1 0.1 0.1 0.1 0.1 0.1 0.1 0.1 0.1 0.1 0.1 0.1 0.1 0.1 0.1 0.1 0.1 0.1 0.1 0.1 0.1 0.1 0.1 0.1 0.1</probabilities>
		</cpt>
		<cpt id="PopulationDensity">
			<state id="s01_below_0" />
			<state id="s02_0_0" />
			<state id="s03_0_0" />
			<state id="s04_0_3" />
			<state id="s05_3_10" />
			<state id="s06_10_21" />
			<state id="s07_21_43" />
			<state id="s08_43_134" />
			<state id="s09_134_47729" />
			<state id="s10_47729_up" />
			<parents>Unemployement RevolutionDummy</parents>
			<probabilities>0.1 0.1 0.1 0.1 0.1 0.1 0.1 0.1 0.1 0.1 0.1 0.1 0.1 0.1 0.1 0.1 0.1 0.1 0.1 0.1 0.05 0.05 0.05 0.05 0.05 0.05 0.05 0.05 0.5500000000000002 0.05 0.1 0.1 0.1 0.1 0.1 0.1 0.1 0.1 0.1 0.1 0.1 0.1 0.1 0.1 0.1 0.1 0.1 0.1 0.1 0.1 0.1 0.1 0.1 0.1 0.1 0.1 0.1 0.1 0.1 0.1 0.03333333333333333 0.03333333333333333 0.03333333333333333 0.03333333333333333 0.03333333333333333 0.03333333333333333 0.03333333333333333 0.3666666666666666 0.3666666666666666 0.03333333333333333 0.1 0.1 0.1 0.1 0.1 0.1 0.1 0.1 0.1 0.1 0.02 0.02 0.02 0.22 0.02 0.02 0.02 0.22 0.4200000000000001 0.02 0.05 0.05 0.05 0.05 0.05 0.05 0.05 0.05 0.5500000000000002 0.05 0.009999999999999998 0.009999999999999998 0.009999999999999998 0.009999999999999998 0.11 0.21 0.009999999999999998 0.51 0.11 0.009999999999999998 0.01428571428571429 0.01428571428571429 0.01428571428571429 0.01428571428571429 0.01428571428571429 0.1571428571428572 0.01428571428571429 0.5857142857142859 0.1571428571428572 0.01428571428571429 0.05 0.05 0.05 0.05 0.5500000000000002 0.05 0.05 0.05 0.05 0.05 0.025 0.025 0.025 0.025 0.275 0.025 0.025 0.275 0.275 0.025 0.05 0.05 0.05 0.05 0.05 0.05 0.5500000000000002 0.05 0.05 0.05 0.05 0.05 0.05 0.05 0.05 0.5500000000000002 0.05 0.05 0.05 0.05 0.1 0.1 0.1 0.1 0.1 0.1 0.1 0.1 0.1 0.1 0.1 0.1 0.1 0.1 0.1 0.1 0.1 0.1 0.1 0.1 0.1 0.1 0.1 0.1 0.1 0.1 0.1 0.1 0.1 0.1 0.1 0.1 0.1 0.1 0.1 0.1 0.1 0.1 0.1 0.1</probabilities>
		</cpt>
		<cpt id="Literacy_">
			<state id="s01_below_0" />
			<state id="s02_0_0" />
			<state id="s03_0_0" />
			<state id="s04_0_3" />
			<state id="s05_3_10" />
			<state id="s06_10_21" />
			<state id="s07_21_43" />
			<state id="s08_43_134" />
			<state id="s09_134_47729" />
			<state id="s10_47729_up" />
			<parents>PopulationDensity RevolutionDummy</parents>
			<probabilities>0.1 0.1 0.1 0.1 0.1 0.1 0.1 0.1 0.1 0.1 0.1 0.1 0.1 0.1 0.1 0.1 0.1 0.1 0.1 0.1 0.1 0.1 0.1 0.1 0.1 0.1 0.1 0.1 0.1 0.1 0.1 0.1 0.1 0.1 0.1 0.1 0.1 0.1 0.1 0.1 0.1 0.1 0.1 0.1 0.1 0.1 0.1 0.1 0.1 0.1 0.1 0.1 0.1 0.1 0.1 0.1 0.1 0.1 0.1 0.1 0.05 0.05 0.05 0.5500000000000002 0.05 0.05 0.05 0.05 0.05 0.05 0.1 0.1 0.1 0.1 0.1 0.1 0.1 0.1 0.1 0.1 0.3666666666666666 0.03333333333333333 0.3666666666666666 0.03333333333333333 0.03333333333333333 0.03333333333333333 0.03333333333333333 0.03333333333333333 0.03333333333333333 0.03333333333333333 0.05 0.05 0.5500000000000002 0.05 0.05 0.05 0.05 0.05 0.05 0.05 0.03333333333333333 0.3666666666666666 0.3666666666666666 0.03333333333333333 0.03333333333333333 0.03333333333333333 0.03333333333333333 0.03333333333333333 0.03333333333333333 0.03333333333333333 0.03333333333333332 0.7 0.03333333333333332 0.03333333333333332 0.03333333333333332 0.03333333333333332 0.03333333333333332 0.03333333333333332 0.03333333333333332 0.03333333333333332 0.05 0.5500000000000002 0.05 0.05 0.05 0.05 0.05 0.05 0.05 0.05 0.1 0.1 0.1 0.1 0.1 0.1 0.1 0.1 0.1 0.1 0.0125 0.5125000000000001 0.3875000000000001 0.0125 0.0125 0.0125 0.0125 0.0125 0.0125 0.0125 0.01666666666666666 0.35 0.35 0.1833333333333333 0.01666666666666666 0.01666666666666666 0.01666666666666666 0.01666666666666666 0.01666666666666666 0.01666666666666666 0.01666666666666667 0.01666666666666667 0.1833333333333333 0.6833333333333335 0.01666666666666667 0.01666666666666667 0.01666666666666667 0.01666666666666667 0.01666666666666667 0.01666666666666667 0.02499999999999999 0.02499999999999999 0.275 0.525 0.02499999999999999 0.02499999999999999 0.02499999999999999 0.02499999999999999 0.02499999999999999 0.02499999999999999 0.1 0.1 0.1 0.1 0.1 0.1 0.1 0.1 0.1 0.1 0.1 0.1 0.1 0.1 0.1 0.1 0.1 0.1 0.1 0.1</probabilities>
		</cpt>
		<cpt id="Infantmortality">
			<state id="s01_below_0" />
			<state id="s02_0_0" />
			<state id="s03_0_0" />
			<state id="s04_0_3" />
			<state id="s05_3_10" />
			<state id="s06_10_21" />
			<state id="s07_21_43" />
			<state id="s08_43_134" />
			<state id="s09_134_47729" />
			<state id="s10_47729_up" />
			<parents>Literacy_ RevolutionDummy</parents>
			<probabilities>0.05 0.05 0.05 0.05 0.05 0.05 0.05 0.5500000000000002 0.05 0.05 0.1 0.1 0.1 0.1 0.1 0.1 0.1 0.1 0.1 0.1 0.01428571428571428 0.01428571428571428 0.01428571428571428 0.01428571428571428 0.01428571428571428 0.01428571428571428 0.4428571428571429 0.4428571428571429 0.01428571428571428 0.01428571428571428 0.02 0.02 0.02 0.02 0.02 0.02 0.22 0.6200000000000001 0.02 0.02 0.01428571428571429 0.01428571428571429 0.01428571428571429 0.01428571428571429 0.01428571428571429 0.5857142857142859 0.3000000000000001 0.01428571428571429 0.01428571428571429 0.01428571428571429 0.02 0.02 0.02 0.02 0.02 0.4200000000000001 0.22 0.22 0.02 0.02 0.01666666666666666 0.01666666666666666 0.01666666666666666 0.1833333333333333 0.5166666666666667 0.01666666666666666 0.1833333333333333 0.01666666666666666 0.01666666666666666 0.01666666666666666 0.02499999999999999 0.02499999999999999 0.02499999999999999 0.02499999999999999 0.275 0.525 0.02499999999999999 0.02499999999999999 0.02499999999999999 0.02499999999999999 0.1 0.1 0.1 0.1 0.1 0.1 0.1 0.1 0.1 0.1 0.1 0.1 0.1 0.1 0.1 0.1 0.1 0.1 0.1 0.1 0.1 0.1 0.1 0.1 0.1 0.1 0.1 0.1 0.1 0.1 0.1 0.1 0.1 0.1 0.1 0.1 0.1 0.1 0.1 0.1 0.1 0.1 0.1 0.1 0.1 0.1 0.1 0.1 0.1 0.1 0.1 0.1 0.1 0.1 0.1 0.1 0.1 0.1 0.1 0.1 0.1 0.1 0.1 0.1 0.1 0.1 0.1 0.1 0.1 0.1 0.1 0.1 0.1 0.1 0.1 0.1 0.1 0.1 0.1 0.1 0.1 0.1 0.1 0.1 0.1 0.1 0.1 0.1 0.1 0.1 0.1 0.1 0.1 0.1 0.1 0.1 0.1 0.1 0.1 0.1 0.1 0.1 0.1 0.1 0.1 0.1 0.1 0.1 0.1 0.1 0.1 0.1 0.1 0.1 0.1 0.1 0.1 0.1 0.1 0.1</probabilities>
		</cpt>
		<cpt id="Arab_">
			<state id="s01_below_0" />
			<state id="s02_0_0" />
			<state id="s03_0_0" />
			<state id="s04_0_3" />
			<state id="s05_3_10" />
			<state id="s06_10_21" />
			<state id="s07_21_43" />
			<state id="s08_43_134" />
			<state id="s09_134_47729" />
			<state id="s10_47729_up" />
			<parents>Infantmortality RevolutionDummy</parents>
			<probabilities>0.1 0.1 0.1 0.1 0.1 0.1 0.1 0.1 0.1 0.1 0.1 0.1 0.1 0.1 0.1 0.1 0.1 0.1 0.1 0.1 0.1 0.1 0.1 0.1 0.1 0.1 0.1 0.1 0.1 0.1 0.1 0.1 0.1 0.1 0.1 0.1 0.1 0.1 0.1 0.1 0.1 0.1 0.1 0.1 0.1 0.1 0.1 0.1 0.1 0.1 0.1 0.1 0.1 0.1 0.1 0.1 0.1 0.1 0.1 0.1 0.5500000000000002 0.05 0.05 0.05 0.05 0.05 0.05 0.05 0.05 0.05 0.1 0.1 0.1 0.1 0.1 0.1 0.1 0.1 0.1 0.1 0.275 0.275 0.275 0.025 0.025 0.025 0.025 0.025 0.025 0.025 0.05 0.5500000000000002 0.05 0.05 0.05 0.05 0.05 0.05 0.05 0.05 0.02 0.22 0.02 0.6200000000000001 0.02 0.02 0.02 0.02 0.02 0.02 0.02 0.02 0.02 0.8200000000000002 0.02 0.02 0.02 0.02 0.02 0.02 0.3 0.3 0.3 0.01428571428571428 0.01428571428571428 0.01428571428571428 0.01428571428571428 0.01428571428571428 0.01428571428571428 0.01428571428571428 0.03333333333333332 0.03333333333333332 0.03333333333333332 0.7 0.03333333333333332 0.03333333333333332 0.03333333333333332 0.03333333333333332 0.03333333333333332 0.03333333333333332 0.6200000000000001 0.22 0.02 0.02 0.02 0.02 0.02 0.02 0.02 0.02 0.4200000000000002 0.2200000000000001 0.02 0.2200000000000001 0.02 0.02 0.02 0.02 0.02 0.02 0.1 0.1 0.1 0.1 0.1 0.1 0.1 0.1 0.1 0.1 0.1 0.1 0.1 0.1 0.1 0.1 0.1 0.1 0.1 0.1 0.1 0.1 0.1 0.1 0.1 0.1 0.1 0.1 0.1 0.1 0.1 0.1 0.1 0.1 0.1 0.1 0.1 0.1 0.1 0.1</probabilities>
		</cpt>
		<cpt id="Muslim_">
			<state id="s01_below_0" />
			<state id="s02_0_0" />
			<state id="s03_0_0" />
			<state id="s04_0_3" />
			<state id="s05_3_10" />
			<state id="s06_10_21" />
			<state id="s07_21_43" />
			<state id="s08_43_134" />
			<state id="s09_134_47729" />
			<state id="s10_47729_up" />
			<parents>Infantmortality RevolutionDummy</parents>
			<probabilities>0.1 0.1 0.1 0.1 0.1 0.1 0.1 0.1 0.1 0.1 0.1 0.1 0.1 0.1 0.1 0.1 0.1 0.1 0.1 0.1 0.1 0.1 0.1 0.1 0.1 0.1 0.1 0.1 0.1 0.1 0.1 0.1 0.1 0.1 0.1 0.1 0.1 0.1 0.1 0.1 0.1 0.1 0.1 0.1 0.1 0.1 0.1 0.1 0.1 0.1 0.1 0.1 0.1 0.1 0.1 0.1 0.1 0.1 0.1 0.1 0.5500000000000002 0.05 0.05 0.05 0.05 0.05 0.05 0.05 0.05 0.05 0.1 0.1 0.1 0.1 0.1 0.1 0.1 0.1 0.1 0.1 0.275 0.02499999999999999 0.525 0.02499999999999999 0.02499999999999999 0.02499999999999999 0.02499999999999999 0.02499999999999999 0.02499999999999999 0.02499999999999999 0.05 0.05 0.5500000000000002 0.05 0.05 0.05 0.05 0.05 0.05 0.05 0.02 0.22 0.02 0.6200000000000001 0.02 0.02 0.02 0.02 0.02 0.02 0.02 0.02 0.02 0.8200000000000002 0.02 0.02 0.02 0.02 0.02 0.02 0.01428571428571429 0.1571428571428572 0.01428571428571429 0.7285714285714288 0.01428571428571429 0.01428571428571429 0.01428571428571429 0.01428571428571429 0.01428571428571429 0.01428571428571429 0.03333333333333332 0.03333333333333332 0.03333333333333332 0.7 0.03333333333333332 0.03333333333333332 0.03333333333333332 0.03333333333333332 0.03333333333333332 0.03333333333333332 0.22 0.4200000000000001 0.02 0.22 0.02 0.02 0.02 0.02 0.02 0.02 0.22 0.02 0.02 0.6200000000000001 0.02 0.02 0.02 0.02 0.02 0.02 0.1 0.1 0.1 0.1 0.1 0.1 0.1 0.1 0.1 0.1 0.1 0.1 0.1 0.1 0.1 0.1 0.1 0.1 0.1 0.1 0.1 0.1 0.1 0.1 0.1 0.1 0.1 0.1 0.1 0.1 0.1 0.1 0.1 0.1 0.1 0.1 0.1 0.1 0.1 0.1</probabilities>
		</cpt>
		<cpt id="Urbanization">
			<state id="s01_below_0" />
			<state id="s02_0_0" />
			<state id="s03_0_0" />
			<state id="s04_0_3" />
			<state id="s05_3_10" />
			<state id="s06_10_21" />
			<state id="s07_21_43" />
			<state id="s08_43_134" />
			<state id="s09_134_47729" />
			<state id="s10_47729_up" />
			<parents>Infantmortality RevolutionDummy</parents>
			<probabilities>0.1 0.1 0.1 0.1 0.1 0.1 0.1 0.1 0.1 0.1 0.1 0.1 0.1 0.1 0.1 0.1 0.1 0.1 0.1 0.1 0.1 0.1 0.1 0.1 0.1 0.1 0.1 0.1 0.1 0.1 0.1 0.1 0.1 0.1 0.1 0.1 0.1 0.1 0.1 0.1 0.1 0.1 0.1 0.1 0.1 0.1 0.1 0.1 0.1 0.1 0.1 0.1 0.1 0.1 0.1 0.1 0.1 0.1 0.1 0.1 0.05 0.05 0.05 0.5500000000000002 0.05 0.05 0.05 0.05 0.05 0.05 0.1 0.1 0.1 0.1 0.1 0.1 0.1 0.1 0.1 0.1 0.02499999999999999 0.02499999999999999 0.275 0.525 0.02499999999999999 0.02499999999999999 0.02499999999999999 0.02499999999999999 0.02499999999999999 0.02499999999999999 0.05 0.05 0.5500000000000002 0.05 0.05 0.05 0.05 0.05 0.05 0.05 0.02 0.02 0.8200000000000002 0.02 0.02 0.02 0.02 0.02 0.02 0.02 0.02 0.22 0.6200000000000001 0.02 0.02 0.02 0.02 0.02 0.02 0.02 0.1571428571428572 0.5857142857142859 0.1571428571428572 0.01428571428571429 0.01428571428571429 0.01428571428571429 0.01428571428571429 0.01428571428571429 0.01428571428571429 0.01428571428571429 0.03333333333333332 0.7 0.03333333333333332 0.03333333333333332 0.03333333333333332 0.03333333333333332 0.03333333333333332 0.03333333333333332 0.03333333333333332 0.03333333333333332 0.6200000000000001 0.02 0.22 0.02 0.02 0.02 0.02 0.02 0.02 0.02 0.6200000000000001 0.22 0.02 0.02 0.02 0.02 0.02 0.02 0.02 0.02 0.1 0.1 0.1 0.1 0.1 0.1 0.1 0.1 0.1 0.1 0.1 0.1 0.1 0.1 0.1 0.1 0.1 0.1 0.1 0.1 0.1 0.1 0.1 0.1 0.1 0.1 0.1 0.1 0.1 0.1 0.1 0.1 0.1 0.1 0.1 0.1 0.1 0.1 0.1 0.1</probabilities>
		</cpt>
		<cpt id="MedianAge">
			<state id="s01_below_0" />
			<state id="s02_0_0" />
			<state id="s03_0_0" />
			<state id="s04_0_3" />
			<state id="s05_3_10" />
			<state id="s06_10_21" />
			<state id="s07_21_43" />
			<state id="s08_43_134" />
			<state id="s09_134_47729" />
			<state id="s10_47729_up" />
			<parents>Urbanization RevolutionDummy</parents>
			<probabilities>0.02 0.02 0.02 0.02 0.02 0.8200000000000002 0.02 0.02 0.02 0.02 0.02499999999999999 0.02499999999999999 0.02499999999999999 0.02499999999999999 0.02499999999999999 0.775 0.02499999999999999 0.02499999999999999 0.02499999999999999 0.02499999999999999 0.02 0.02 0.02 0.02 0.02 0.22 0.6200000000000001 0.02 0.02 0.02 0.02 0.02 0.02 0.02 0.02 0.22 0.6200000000000001 0.02 0.02 0.02 0.0125 0.0125 0.0125 0.0125 0.0125 0.0125 0.8875000000000002 0.0125 0.0125 0.0125 0.02 0.02 0.02 0.02 0.02 0.22 0.6200000000000001 0.02 0.02 0.02 0.02499999999999999 0.02499999999999999 0.02499999999999999 0.02499999999999999 0.02499999999999999 0.02499999999999999 0.775 0.02499999999999999 0.02499999999999999 0.02499999999999999 0.1 0.1 0.1 0.1 0.1 0.1 0.1 0.1 0.1 0.1 0.1 0.1 0.1 0.1 0.1 0.1 0.1 0.1 0.1 0.1 0.1 0.1 0.1 0.1 0.1 0.1 0.1 0.1 0.1 0.1 0.1 0.1 0.1 0.1 0.1 0.1 0.1 0.1 0.1 0.1 0.1 0.1 0.1 0.1 0.1 0.1 0.1 0.1 0.1 0.1 0.1 0.1 0.1 0.1 0.1 0.1 0.1 0.1 0.1 0.1 0.1 0.1 0.1 0.1 0.1 0.1 0.1 0.1 0.1 0.1 0.1 0.1 0.1 0.1 0.1 0.1 0.1 0.1 0.1 0.1 0.1 0.1 0.1 0.1 0.1 0.1 0.1 0.1 0.1 0.1 0.1 0.1 0.1 0.1 0.1 0.1 0.1 0.1 0.1 0.1 0.1 0.1 0.1 0.1 0.1 0.1 0.1 0.1 0.1 0.1 0.1 0.1 0.1 0.1 0.1 0.1 0.1 0.1 0.1 0.1 0.1 0.1 0.1 0.1 0.1 0.1 0.1 0.1 0.1 0.1</probabilities>
		</cpt>
		<cpt id="FreedomLevel">
			<state id="s01_below_0" />
			<state id="s02_0_0" />
			<state id="s03_0_0" />
			<state id="s04_0_3" />
			<state id="s05_3_10" />
			<state id="s06_10_21" />
			<state id="s07_21_43" />
			<state id="s08_43_134" />
			<state id="s09_134_47729" />
			<state id="s10_47729_up" />
			<parents>Infantmortality RevolutionDummy</parents>
			<probabilities>0.1 0.1 0.1 0.1 0.1 0.1 0.1 0.1 0.1 0.1 0.1 0.1 0.1 0.1 0.1 0.1 0.1 0.1 0.1 0.1 0.1 0.1 0.1 0.1 0.1 0.1 0.1 0.1 0.1 0.1 0.1 0.1 0.1 0.1 0.1 0.1 0.1 0.1 0.1 0.1 0.1 0.1 0.1 0.1 0.1 0.1 0.1 0.1 0.1 0.1 0.1 0.1 0.1 0.1 0.1 0.1 0.1 0.1 0.1 0.1 0.05 0.05 0.05 0.5500000000000002 0.05 0.05 0.05 0.05 0.05 0.05 0.1 0.1 0.1 0.1 0.1 0.1 0.1 0.1 0.1 0.1 0.02499999999999999 0.02499999999999999 0.02499999999999999 0.02499999999999999 0.775 0.02499999999999999 0.02499999999999999 0.02499999999999999 0.02499999999999999 0.02499999999999999 0.05 0.05 0.05 0.05 0.5500000000000002 0.05 0.05 0.05 0.05 0.05 0.02 0.02 0.02 0.02 0.8200000000000002 0.02 0.02 0.02 0.02 0.02 0.02 0.02 0.02 0.02 0.8200000000000002 0.02 0.02 0.02 0.02 0.02 0.01428571428571429 0.01428571428571429 0.01428571428571429 0.01428571428571429 0.8714285714285717 0.01428571428571429 0.01428571428571429 0.01428571428571429 0.01428571428571429 0.01428571428571429 0.03333333333333332 0.03333333333333332 0.03333333333333332 0.03333333333333332 0.7 0.03333333333333332 0.03333333333333332 0.03333333333333332 0.03333333333333332 0.03333333333333332 0.02 0.02 0.02 0.22 0.6200000000000001 0.02 0.02 0.02 0.02 0.02 0.02 0.02 0.02 0.02 0.8200000000000002 0.02 0.02 0.02 0.02 0.02 0.1 0.1 0.1 0.1 0.1 0.1 0.1 0.1 0.1 0.1 0.1 0.1 0.1 0.1 0.1 0.1 0.1 0.1 0.1 0.1 0.1 0.1 0.1 0.1 0.1 0.1 0.1 0.1 0.1 0.1 0.1 0.1 0.1 0.1 0.1 0.1 0.1 0.1 0.1 0.1</probabilities>
		</cpt>
		<cpt id="GDPcap2010">
			<state id="s01_below_0" />
			<state id="s02_0_0" />
			<state id="s03_0_0" />
			<state id="s04_0_3" />
			<state id="s05_3_10" />
			<state id="s06_10_21" />
			<state id="s07_21_43" />
			<state id="s08_43_134" />
			<state id="s09_134_47729" />
			<state id="s10_47729_up" />
			<parents>Unemployement RevolutionDummy</parents>
			<probabilities>0.1 0.1 0.1 0.1 0.1 0.1 0.1 0.1 0.1 0.1 0.1 0.1 0.1 0.1 0.1 0.1 0.1 0.1 0.1 0.1 0.05 0.05 0.05 0.05 0.05 0.05 0.05 0.05 0.05 0.55 0.1 0.1 0.1 0.1 0.1 0.1 0.1 0.1 0.1 0.1 0.1 0.1 0.1 0.1 0.1 0.1 0.1 0.1 0.1 0.1 0.1 0.1 0.1 0.1 0.1 0.1 0.1 0.1 0.1 0.1 0.03333333333333333 0.03333333333333333 0.03333333333333333 0.03333333333333333 0.03333333333333333 0.03333333333333333 0.03333333333333333 0.03333333333333333 0.3666666666666667 0.3666666666666667 0.1 0.1 0.1 0.1 0.1 0.1 0.1 0.1 0.1 0.1 0.01999999999999999 0.01999999999999999 0.01999999999999999 0.01999999999999999 0.01999999999999999 0.01999999999999999 0.01999999999999999 0.01999999999999999 0.6200000000000001 0.22 0.05 0.05 0.05 0.05 0.05 0.05 0.05 0.05 0.5500000000000002 0.05 0.009999999999999998 0.009999999999999998 0.009999999999999998 0.009999999999999998 0.009999999999999998 0.009999999999999998 0.009999999999999998 0.009999999999999998 0.9100000000000001 0.009999999999999998 0.01428571428571428 0.01428571428571428 0.01428571428571428 0.01428571428571428 0.01428571428571428 0.01428571428571428 0.01428571428571428 0.01428571428571428 0.8714285714285716 0.01428571428571428 0.05 0.05 0.05 0.05 0.05 0.05 0.05 0.05 0.5500000000000002 0.05 0.02499999999999999 0.02499999999999999 0.02499999999999999 0.02499999999999999 0.02499999999999999 0.02499999999999999 0.02499999999999999 0.02499999999999999 0.775 0.02499999999999999 0.05 0.05 0.05 0.05 0.05 0.05 0.05 0.05 0.5500000000000002 0.05 0.05 0.05 0.05 0.05 0.05 0.05 0.05 0.05 0.5500000000000002 0.05 0.1 0.1 0.1 0.1 0.1 0.1 0.1 0.1 0.1 0.1 0.1 0.1 0.1 0.1 0.1 0.1 0.1 0.1 0.1 0.1 0.1 0.1 0.1 0.1 0.1 0.1 0.1 0.1 0.1 0.1 0.1 0.1 0.1 0.1 0.1 0.1 0.1 0.1 0.1 0.1</probabilities>
		</cpt>
		<cpt id="OilExport">
			<state id="s01_below_0" />
			<state id="s02_0_0" />
			<state id="s03_0_0" />
			<state id="s04_0_3" />
			<state id="s05_3_10" />
			<state id="s06_10_21" />
			<state id="s07_21_43" />
			<state id="s08_43_134" />
			<state id="s09_134_47729" />
			<state id="s10_47729_up" />
			<parents>EthnicFractionalization RevolutionDummy</parents>
			<probabilities>0.1571428571428571 0.01428571428571428 0.01428571428571428 0.01428571428571428 0.01428571428571428 0.01428571428571428 0.01428571428571428 0.01428571428571428 0.01428571428571428 0.7285714285714286 0.275 0.025 0.025 0.025 0.025 0.025 0.025 0.275 0.025 0.275 0.6375000000000001 0.0125 0.0125 0.0125 0.0125 0.0125 0.0125 0.0125 0.2625000000000001 0.0125 0.6200000000000001 0.02 0.02 0.02 0.02 0.02 0.02 0.02 0.22 0.02 0.01666666666666666 0.01666666666666666 0.01666666666666666 0.01666666666666666 0.01666666666666666 0.01666666666666666 0.01666666666666666 0.1833333333333333 0.35 0.35 0.275 0.025 0.025 0.025 0.025 0.025 0.025 0.275 0.025 0.275 0.1 0.1 0.1 0.1 0.1 0.1 0.1 0.1 0.1 0.1 0.05 0.05 0.05 0.05 0.05 0.05 0.05 0.05 0.5500000000000002 0.05 0.1 0.1 0.1 0.1 0.1 0.1 0.1 0.1 0.1 0.1 0.1 0.1 0.1 0.1 0.1 0.1 0.1 0.1 0.1 0.1 0.1 0.1 0.1 0.1 0.1 0.1 0.1 0.1 0.1 0.1 0.1 0.1 0.1 0.1 0.1 0.1 0.1 0.1 0.1 0.1 0.1 0.1 0.1 0.1 0.1 0.1 0.1 0.1 0.1 0.1 0.1 0.1 0.1 0.1 0.1 0.1 0.1 0.1 0.1 0.1 0.1 0.1 0.1 0.1 0.1 0.1 0.1 0.1 0.1 0.1 0.1 0.1 0.1 0.1 0.1 0.1 0.1 0.1 0.1 0.1 0.1 0.1 0.1 0.1 0.1 0.1 0.1 0.1 0.1 0.1 0.1 0.1 0.1 0.1 0.1 0.1 0.1 0.1 0.1 0.1 0.1 0.1 0.1 0.1 0.1 0.1 0.1 0.1 0.1 0.1 0.1 0.1 0.1 0.1 0.1 0.1 0.1 0.1 0.1 0.1</probabilities>
		</cpt>
		<cpt id="PressFreedomScore">
			<state id="s01_below_0" />
			<state id="s02_0_0" />
			<state id="s03_0_0" />
			<state id="s04_0_3" />
			<state id="s05_3_10" />
			<state id="s06_10_21" />
			<state id="s07_21_43" />
			<state id="s08_43_134" />
			<state id="s09_134_47729" />
			<state id="s10_47729_up" />
			<parents>PopulationDensity RevolutionDummy</parents>
			<probabilities>0.1 0.1 0.1 0.1 0.1 0.1 0.1 0.1 0.1 0.1 0.1 0.1 0.1 0.1 0.1 0.1 0.1 0.1 0.1 0.1 0.1 0.1 0.1 0.1 0.1 0.1 0.1 0.1 0.1 0.1 0.1 0.1 0.1 0.1 0.1 0.1 0.1 0.1 0.1 0.1 0.1 0.1 0.1 0.1 0.1 0.1 0.1 0.1 0.1 0.1 0.1 0.1 0.1 0.1 0.1 0.1 0.1 0.1 0.1 0.1 0.05 0.05 0.05 0.05 0.5500000000000002 0.05 0.05 0.05 0.05 0.05 0.1 0.1 0.1 0.1 0.1 0.1 0.1 0.1 0.1 0.1 0.03333333333333332 0.03333333333333332 0.03333333333333332 0.03333333333333332 0.03333333333333332 0.03333333333333332 0.7 0.03333333333333332 0.03333333333333332 0.03333333333333332 0.05 0.05 0.05 0.05 0.05 0.05 0.05 0.5500000000000002 0.05 0.05 0.03333333333333332 0.03333333333333332 0.03333333333333332 0.03333333333333332 0.03333333333333332 0.03333333333333332 0.03333333333333332 0.7 0.03333333333333332 0.03333333333333332 0.03333333333333332 0.03333333333333332 0.03333333333333332 0.03333333333333332 0.03333333333333332 0.03333333333333332 0.03333333333333332 0.7 0.03333333333333332 0.03333333333333332 0.05 0.05 0.05 0.05 0.05 0.05 0.5500000000000002 0.05 0.05 0.05 0.1 0.1 0.1 0.1 0.1 0.1 0.1 0.1 0.1 0.1 0.0125 0.0125 0.0125 0.0125 0.0125 0.1375 0.1375 0.6375000000000003 0.0125 0.0125 0.01666666666666666 0.01666666666666666 0.01666666666666666 0.01666666666666666 0.01666666666666666 0.01666666666666666 0.35 0.5166666666666667 0.01666666666666666 0.01666666666666666 0.01666666666666666 0.01666666666666666 0.01666666666666666 0.01666666666666666 0.01666666666666666 0.35 0.5166666666666667 0.01666666666666666 0.01666666666666666 0.01666666666666666 0.025 0.025 0.025 0.025 0.025 0.025 0.275 0.275 0.275 0.025 0.1 0.1 0.1 0.1 0.1 0.1 0.1 0.1 0.1 0.1 0.1 0.1 0.1 0.1 0.1 0.1 0.1 0.1 0.1 0.1</probabilities>
		</cpt>
	</nodes>
	<extensions>
		<genie version="1.0" app="GeNIe 2.2.2601.0 ACADEMIC" name="revolution_TAN" faultnameformat="nodestate">
			<node id="Arab_">
				<name>Arab </name>
				<interior color="e5f6f7" />
				<outline color="000080" />
				<font color="000000" name="Arial" size="8" />
				<position>469 82 541 130</position>
			</node>
			<node id="Muslim_">
				<name>Muslim </name>
				<interior color="e5f6f7" />
				<outline color="000080" />
				<font color="000000" name="Arial" size="8" />
				<position>480 189 552 237</position>
			</node>
			<node id="MedianAge">
				<name>MedianAge</name>
				<interior color="e5f6f7" />
				<outline color="000080" />
				<font color="000000" name="Arial" size="8" />
				<position>397 254 469 302</position>
			</node>
			<node id="FreedomLevel">
				<name>FreedomLevel</name>
				<interior color="e5f6f7" />
				<outline color="000080" />
				<font color="000000" name="Arial" size="8" />
				<position>270 290 342 338</position>
			</node>
			<node id="Urbanization">
				<name>Urbanization</name>
				<interior color="e5f6f7" />
				<outline color="000080" />
				<font color="000000" name="Arial" size="8" />
				<position>149 292 221 340</position>
			</node>
			<node id="PopulationDensity">
				<name>PopulationDensity</name>
				<interior color="e5f6f7" />
				<outline color="000080" />
				<font color="000000" name="Arial" size="8" />
				<position>71 236 143 284</position>
			</node>
			<node id="GDPcap2010">
				<name>GDPcap2010</name>
				<interior color="e5f6f7" />
				<outline color="000080" />
				<font color="000000" name="Arial" size="8" />
				<position>5 172 77 220</position>
			</node>
			<node id="Literacy_">
				<name>Literacy </name>
				<interior color="e5f6f7" />
				<outline color="000080" />
				<font color="000000" name="Arial" size="8" />
				<position>36 112 108 160</position>
			</node>
			<node id="EthnicFractionalization">
				<name>EthnicFractionalization</name>
				<interior color="e5f6f7" />
				<outline color="000080" />
				<font color="000000" name="Arial" size="8" />
				<position>75 62 147 110</position>
			</node>
			<node id="Infantmortality">
				<name>Infantmortality</name>
				<interior color="e5f6f7" />
				<outline color="000080" />
				<font color="000000" name="Arial" size="8" />
				<position>82 4 154 52</position>
			</node>
			<node id="OilExport">
				<name>OilExport</name>
				<interior color="e5f6f7" />
				<outline color="000080" />
				<font color="000000" name="Arial" size="8" />
				<position>209 3 281 51</position>
			</node>
			<node id="PressFreedomScore">
				<name>PressFreedomScore</name>
				<interior color="e5f6f7" />
				<outline color="000080" />
				<font color="000000" name="Arial" size="8" />
				<position>301 13 373 61</position>
			</node>
			<node id="Unemployement">
				<name>Unemployement</name>
				<interior color="e5f6f7" />
				<outline color="000080" />
				<font color="000000" name="Arial" size="8" />
				<position>394 29 466 77</position>
			</node>
			<node id="RevolutionDummy">
				<name>RevolutionDummy</name>
				<interior color="ffff80" />
				<outline color="000080" />
				<font color="000000" name="Arial" size="8" />
				<position>202 132 274 180</position>
			</node>
		</genie>
	</extensions>
</smile>
